tree
version=v3
num_class=1
num_tree_per_iteration=1
label_index=0
max_feature_idx=681
objective=regression
feature_names=Column_0 Column_1 Column_2 Column_3 Column_4 Column_5 Column_6 Column_7 Column_8 Column_9 Column_10 Column_11 Column_12 Column_13 Column_14 Column_15 Column_16 Column_17 Column_18 Column_19 Column_20 Column_21 Column_22 Column_23 Column_24 Column_25 Column_26 Column_27 Column_28 Column_29 Column_30 Column_31 Column_32 Column_33 Column_34 Column_35 Column_36 Column_37 Column_38 Column_39 Column_40 Column_41 Column_42 Column_43 Column_44 Column_45 Column_46 Column_47 Column_48 Column_49 Column_50 Column_51 Column_52 Column_53 Column_54 Column_55 Column_56 Column_57 Column_58 Column_59 Column_60 Column_61 Column_62 Column_63 Column_64 Column_65 Column_66 Column_67 Column_68 Column_69 Column_70 Column_71 Column_72 Column_73 Column_74 Column_75 Column_76 Column_77 Column_78 Column_79 Column_80 Column_81 Column_82 Column_83 Column_84 Column_85 Column_86 Column_87 Column_88 Column_89 Column_90 Column_91 Column_92 Column_93 Column_94 Column_95 Column_96 Column_97 Column_98 Column_99 Column_100 Column_101 Column_102 Column_103 Column_104 Column_105 Column_106 Column_107 Column_108 Column_109 Column_110 Column_111 Column_112 Column_113 Column_114 Column_115 Column_116 Column_117 Column_118 Column_119 Column_120 Column_121 Column_122 Column_123 Column_124 Column_125 Column_126 Column_127 Column_128 Column_129 Column_130 Column_131 Column_132 Column_133 Column_134 Column_135 Column_136 Column_137 Column_138 Column_139 Column_140 Column_141 Column_142 Column_143 Column_144 Column_145 Column_146 Column_147 Column_148 Column_149 Column_150 Column_151 Column_152 Column_153 Column_154 Column_155 Column_156 Column_157 Column_158 Column_159 Column_160 Column_161 Column_162 Column_163 Column_164 Column_165 Column_166 Column_167 Column_168 Column_169 Column_170 Column_171 Column_172 Column_173 Column_174 Column_175 Column_176 Column_177 Column_178 Column_179 Column_180 Column_181 Column_182 Column_183 Column_184 Column_185 Column_186 Column_187 Column_188 Column_189 Column_190 Column_191 Column_192 Column_193 Column_194 Column_195 Column_196 Column_197 Column_198 Column_199 Column_200 Column_201 Column_202 Column_203 Column_204 Column_205 Column_206 Column_207 Column_208 Column_209 Column_210 Column_211 Column_212 Column_213 Column_214 Column_215 Column_216 Column_217 Column_218 Column_219 Column_220 Column_221 Column_222 Column_223 Column_224 Column_225 Column_226 Column_227 Column_228 Column_229 Column_230 Column_231 Column_232 Column_233 Column_234 Column_235 Column_236 Column_237 Column_238 Column_239 Column_240 Column_241 Column_242 Column_243 Column_244 Column_245 Column_246 Column_247 Column_248 Column_249 Column_250 Column_251 Column_252 Column_253 Column_254 Column_255 Column_256 Column_257 Column_258 Column_259 Column_260 Column_261 Column_262 Column_263 Column_264 Column_265 Column_266 Column_267 Column_268 Column_269 Column_270 Column_271 Column_272 Column_273 Column_274 Column_275 Column_276 Column_277 Column_278 Column_279 Column_280 Column_281 Column_282 Column_283 Column_284 Column_285 Column_286 Column_287 Column_288 Column_289 Column_290 Column_291 Column_292 Column_293 Column_294 Column_295 Column_296 Column_297 Column_298 Column_299 Column_300 Column_301 Column_302 Column_303 Column_304 Column_305 Column_306 Column_307 Column_308 Column_309 Column_310 Column_311 Column_312 Column_313 Column_314 Column_315 Column_316 Column_317 Column_318 Column_319 Column_320 Column_321 Column_322 Column_323 Column_324 Column_325 Column_326 Column_327 Column_328 Column_329 Column_330 Column_331 Column_332 Column_333 Column_334 Column_335 Column_336 Column_337 Column_338 Column_339 Column_340 Column_341 Column_342 Column_343 Column_344 Column_345 Column_346 Column_347 Column_348 Column_349 Column_350 Column_351 Column_352 Column_353 Column_354 Column_355 Column_356 Column_357 Column_358 Column_359 Column_360 Column_361 Column_362 Column_363 Column_364 Column_365 Column_366 Column_367 Column_368 Column_369 Column_370 Column_371 Column_372 Column_373 Column_374 Column_375 Column_376 Column_377 Column_378 Column_379 Column_380 Column_381 Column_382 Column_383 Column_384 Column_385 Column_386 Column_387 Column_388 Column_389 Column_390 Column_391 Column_392 Column_393 Column_394 Column_395 Column_396 Column_397 Column_398 Column_399 Column_400 Column_401 Column_402 Column_403 Column_404 Column_405 Column_406 Column_407 Column_408 Column_409 Column_410 Column_411 Column_412 Column_413 Column_414 Column_415 Column_416 Column_417 Column_418 Column_419 Column_420 Column_421 Column_422 Column_423 Column_424 Column_425 Column_426 Column_427 Column_428 Column_429 Column_430 Column_431 Column_432 Column_433 Column_434 Column_435 Column_436 Column_437 Column_438 Column_439 Column_440 Column_441 Column_442 Column_443 Column_444 Column_445 Column_446 Column_447 Column_448 Column_449 Column_450 Column_451 Column_452 Column_453 Column_454 Column_455 Column_456 Column_457 Column_458 Column_459 Column_460 Column_461 Column_462 Column_463 Column_464 Column_465 Column_466 Column_467 Column_468 Column_469 Column_470 Column_471 Column_472 Column_473 Column_474 Column_475 Column_476 Column_477 Column_478 Column_479 Column_480 Column_481 Column_482 Column_483 Column_484 Column_485 Column_486 Column_487 Column_488 Column_489 Column_490 Column_491 Column_492 Column_493 Column_494 Column_495 Column_496 Column_497 Column_498 Column_499 Column_500 Column_501 Column_502 Column_503 Column_504 Column_505 Column_506 Column_507 Column_508 Column_509 Column_510 Column_511 Column_512 Column_513 Column_514 Column_515 Column_516 Column_517 Column_518 Column_519 Column_520 Column_521 Column_522 Column_523 Column_524 Column_525 Column_526 Column_527 Column_528 Column_529 Column_530 Column_531 Column_532 Column_533 Column_534 Column_535 Column_536 Column_537 Column_538 Column_539 Column_540 Column_541 Column_542 Column_543 Column_544 Column_545 Column_546 Column_547 Column_548 Column_549 Column_550 Column_551 Column_552 Column_553 Column_554 Column_555 Column_556 Column_557 Column_558 Column_559 Column_560 Column_561 Column_562 Column_563 Column_564 Column_565 Column_566 Column_567 Column_568 Column_569 Column_570 Column_571 Column_572 Column_573 Column_574 Column_575 Column_576 Column_577 Column_578 Column_579 Column_580 Column_581 Column_582 Column_583 Column_584 Column_585 Column_586 Column_587 Column_588 Column_589 Column_590 Column_591 Column_592 Column_593 Column_594 Column_595 Column_596 Column_597 Column_598 Column_599 Column_600 Column_601 Column_602 Column_603 Column_604 Column_605 Column_606 Column_607 Column_608 Column_609 Column_610 Column_611 Column_612 Column_613 Column_614 Column_615 Column_616 Column_617 Column_618 Column_619 Column_620 Column_621 Column_622 Column_623 Column_624 Column_625 Column_626 Column_627 Column_628 Column_629 Column_630 Column_631 Column_632 Column_633 Column_634 Column_635 Column_636 Column_637 Column_638 Column_639 Column_640 Column_641 Column_642 Column_643 Column_644 Column_645 Column_646 Column_647 Column_648 Column_649 Column_650 Column_651 Column_652 Column_653 Column_654 Column_655 Column_656 Column_657 Column_658 Column_659 Column_660 Column_661 Column_662 Column_663 Column_664 Column_665 Column_666 Column_667 Column_668 Column_669 Column_670 Column_671 Column_672 Column_673 Column_674 Column_675 Column_676 Column_677 Column_678 Column_679 Column_680 Column_681
feature_infos=[8.5542310594598696:38.99180039398555] none [0:5] [14.426920504436181:58.966299059382649] [2.2089330550226758:3.0530186445663063] [4.4178661100453542:6.1057344492694128] [1.1607313777673585:1.4574973223359049] [3.1633686854097678:5.3784384906889517] [41.85719450647462:35262.225256610647] [3.8295738737083975:11.741309810388229] [0:30] none none [1:14] [1:7] [0:8] [0:2] [0:6] [0:2] [0:1] none [0:6] [128.44444444444446:854] [63.083333333333336:778.375] [97.765432098765444:932.5] [97.798353909465007:844.06944444444434] [444:4100] [3.7142857142857135:14.878306878306878] [3.7407407407407409:12.212121212121213] [1.6796536796536798:9.7200000000000006] [1.0902777777777777:10.057471264367816] [0.81355932203389836:12.031746031746032] [0.17999999999999999:9.3333333333333339] [0:9.6060606060606073] [0:9.4901960784313708] [2.5918367346938771:4.5227272727272725] [2.2419354838709675:4.2696629213483144] [1.8805970149253728:3.90625] [1.7704918032786885:3.8095238095238089] [1.28:4.096385542168675] [1.1428571428571428:4.0869565217391308] [1:3.3870967741935485] [1.5001578282828285:10.764713567182699] [1.7046645702306089:4.7330246913580245] [1.6018093781855249:6.7999465811965827] [1.4683787561146051:5.7875701459034801] [1.4259259259259256:6.7927590511860174] [1.4059405940594056:8.2696942974720766] [1.397925033467202:7.2857142857142856] [1.3461199294532626:7.0650793650793657] [1:8] [16.122448979591837:151.54545454545453] [19.440000000000001:38.454545454545453] [11.339622641509434:36.195121951219512] [8.0763888888888893:34.25] [7.9787234042553186:34.571428571428569] [3.48:33] [2.1428571428571428:39.454545454545453] [1:41.941176470588232] [183.35587286063165:316.38244729952299] [233.44244900564249:346.99057615466359] [149.77810725821251:264.44147322808982] [113.63463876780249:255.25914050895091] [104.87658716563099:293.06993155720068] [61.984969697427339:280.56396703468289] [47.025756884421:254.53878806454489] [31.083744430930267:248.06401539444823] [7.1712869999999986:8.5101381999999983] [7.4253329811320716:8.1253770270270245] [7.3431702018348668:8.3950457662337676] [7.1936821132075472:8.3552260563380294] [7.1396615833333339:8.4089554285714279] [7.1347574653465342:8.4136471428571422] [6.9569159200000001:8.4772825714285727] [6.8705944615384631:8.5701888000000004] [6.7184640000000009:10.368] [1.3168747906899485:2.6761575065291368] [1.6189659347368417:2.3722480563636359] [1.2913238360700192:2.162324683437499] [1.1649658434595158:1.8471160845085119] [0.94813995816302965:1.7048235048124041] [0.89552377597867727:1.9107383452857143] [0.37140370099999997:1.6414697842941175] [156.71219256307711:177.86661411141338] [140.45086420886972:159.14068786306837] [145.60963523608024:167.59012004924986] [148.54014520258846:171.87378362161215] [151.47271596939186:173.85258952666453] [152.09100856309962:179.62211991949806] [152.51727930641547:192.4111139961212] [153.28514893740305:201.90544710884976] [154.33201777609031:236.9229527004] [0.1542436000161449:2.3248690692206382] [-1.4944892718060121:0.017462688518235701] [-0.73579439427532645:0.8958255869410241] [-0.91898329092391839:0.97199289406284883] [-0.95823362679521862:0.85436567456970858] [-0.67378859546577174:1.4969778420492541] [-1.1033783966972894:0.5510980192331173] [-0.70635494863490567:0.85287158781006123] [-0.60104600028343969:0.6730334118206025] [-1.520000000000002:118.47923900462963] [-60.223684210526308:187.70707070707081] [-104.66666666666666:215.51084812623279] [-168.60091373286753:79.911845730027551] [-187.81882098431583:150.19895859578389] [-229.21119999999999:150.12031558185404] [-229.9392:145.5] [-177.67716780356398:101.57393689986284] [-1.0385487528344659:27.212968471148127] [-22.727272727272723:13.706163194444452] [-40.901342975206603:6.1634615384615383] [-30.354914933837424:11.621928166351603] [-26.040816326530607:29.463326446280998] [-31.646701388888889:18.137051039697539] [-24.000868055555561:14.445105462412112] [-23.84452479338842:13.291666666666664] [-32.750545779015937:4.0487817685360206] [-14.513794947392761:272.58411273226079] [-64.164365548980939:377.3572708000317] [-57.679116014593184:120.79808605449632] [-102.13235382489034:215.54892998866211] [-77.220624999999998:86.217205456485289] [-98.281388888888898:118.61061851211076] [-99.667660326532484:88.641742906052684] [-251.81818181818176:153.06906372374505] [-117.11357340720218:325] [-413.0390625:313] [-392.07407407407419:240.51020408163265] [-630.66666666666663:362.05729166666669] [-795.66285119667032:527] [-945.30237401082877:372.63999999999999] [-754.33506763787739:352.90010405827263] [-258.01948046391311:565.204319464018] [-915.23494927032323:1530.7859856273924] [-2044.3527014255408:721.5190665006603] [-1624.8584507042151:1171.8042779256782] [-2095.2208325481961:1852.8723560541696] [-2288.6856815112405:1867.2899142464823] [-1754.6882629400852:1143.6027450950471] [-1731.7338810841427:1652.7772184481971] [0.52860754545454514:14.889645656565651] [-0.93412604591836723:0.75356751999999882] [-1.7920463194589082:10.063133741863076] [-2.7457088000000005:4.862367263642339] [-4.0895849129259076:7.6218917193877562] [-4.0028291088000012:5.0186217162130227] [-4.6984986893424043:6.391118855468747] [-4.0040110935640874:3.4922123620038024] [-1.1564974489795912:1.0643027199999993] [4.2663596370025489:31.444759864040979] [-3.6959529560000002:2.5580241967490167] [-3.1565737698501684:8.1599452101938983] [-11.914530432640884:6.3773776615113356] [-8.2858521738127777:6.9975578286331563] [-10.264273617790224:9.3205406478817512] [-10.227409874453132:8.3543478113597143] [-11.256904874018501:4.4031681835034053] [-9.308017910291646:6.6919629625524912] [32.434578568456928:258.03647751290936] [-36.795365930045442:14.295801370534036] [-17.632809939017513:130.82995530287735] [-65.11179670232633:53.256954571194768] [-82.917913586498472:60.938681801841518] [-78.750024127045123:70.335138950523657] [-71.613702255137639:52.197800740335822] [-85.787143078666901:37.22989892398391] [-69.516530400183044:78.354642622227047] [0.0035055363640032:0.0388130731035903] [-0.0271725322146547:0.00036380601079650003] [-0.0060817640712612997:0.016233789647541401] [-0.0137161685212525:0.0058173397060220997] [-0.0084055581297826001:0.011207342119379999] [-0.0116170447494098:0.013733741670176601] [-0.0122263627692927:0.0138596007597576] [-0.016775538946758199:0.022510103674456501] [-0.032967902197109003:0.0124865874912589] [2.2871900826446279:5.4673008323424508] [-0.036190476190476203:2.0787934749153592] [-0.48823848238482398:1.7677100783987831] [-1.5197560975609754:1.8859744005768879] [-1.9738328700377168:0.76838313201949571] [-1.6769537587885346:1.2844036697247707] [-2.1974999999999998:1.5757142857142854] [-4.3700000000000001:2.7400000000000002] [-10.81:5.2899999999999991] [0.44888888888888889:0.96435950413223137] [-0.047206761492475699:0.44937193627450978] [-0.13637785275608469:0.15061717796092799] [-0.30770152114025628:0.066699170415678605] [-0.38404960081535577:0.078593739832107698] [-0.27023319615912211:0.29171610342852472] [-0.29716446124763701:0.2013232514177693] [-0.32931623931623921:0.35744973363120808] [-0.29727969348659:0.5625] [-0.55925362958788216:0.068495926071683602] [-0.17138874544524901:2.046313816732217] [-0.83889697625735282:2.2228230136025644] [-0.62233583177099949:1.3572818657808574] [-1.0445816186556929:1.9775131191620376] [-1.1912152777777785:1.5138591269841268] [-2.8149305555555566:2.374880952380952] [-5.9163888888888909:1.2281870854476007] [-1.6042955261260572:3.5180387552929053] [-5.8907782695343851:3.5403353057199207] [-4.6919191919191912:3.4839060461070011] [-11.679012345679013:7.5616984895981751] [-11.875564943233885:11.183367768595041] [-15.91:18.67768595041322] [-54.446280991735534:28.76859504132231] [36.229617593880079:63.120020501207051] [-8.4789497699572856:10.664232442717321] [-6.4328815124869871:16.87370906287622] [-19.135313167697568:10.114614855902138] [-19.527423847058465:9.9434448740491117] [-25.641978569836294:14.004432502026797] [-25.74586261212897:21.968116638193909] [-25.523271392922759:38.120091503168247] [-71.175353253220067:74.75181851139132] [0.012013807851239599:0.18691319999999989] [-0.0198637575327562:0.014218255094339599] [-0.015625234264007599:0.088023948040470104] [-0.036717819855358297:0.0905537127390727] [-0.025743755014522099:0.054633340040925099] [-0.0459596543209876:0.069925612104474802] [-0.051909272499999902:0.043764161428571299] [-0.1093938299999999:0.096892232857142699] [-0.26358110999999967:0.049417289999999801] [0.21031463476780549:0.98992103617630756] [-0.14783811824000001:0.067684269469308195] [-0.092923634313055406:0.1210241724362483] [-0.1073381120057737:0.084019760798528798] [-0.10461393593773:0.049628069706618101] [-0.13227496813372139:0.077206828738088706] [-0.22673218604773041:0.12793382629117239] [-0.1790956786364101:0.22746989158557121] [-0.55312258775314749:0.4684817130055095] [1.3065710855544059:4.0243712160133596] [-0.74234694025365411:0.3401974227671255] [-0.30232143132920719:1.041149954229279] [-0.73478324656665184:0.54179241432796155] [-0.81642022836890205:0.68470428990833165] [-0.78750024127045126:0.68587184583637451] [-0.96765464023687719:1.0362713304267639] [-1.6512968500658212:1.1186006576651131] [-1.0236868422354477:3.1246085953639451] [-0.95716011205751661:0.063095019776418501] [-0.0099031403379228992:0.55528895768833808] [-0.083944281524926501:0.65404481438816842] [-0.36265200544819481:0.17885402196045599] [-0.1571553994732221:0.61405415774274585] [-0.51486618167636766:0.51429538271147635] [-0.4450847457627119:0.4284445818549697] [-0.78875416636114826:0.57559097708735307] [-0.47706919568361361:0.55869118707735765] [-1.0388528665521926:0.95111485466363643] [-2.369451551896764:0.82934676178486511] [-0.13876905378199589:0.29165614637512849] [-0.14658331686446641:0.2950849963045083] [-0.3275247906036392:0.22245096583692109] [-0.39350912778904662:0.1822645439666716] [-0.55405346726685845:0.2451127477723222] [-0.63258097863542395:0.4398610730906104] [-1.0964851826326671:0.90661478599221801] [-3.1364576154376289:1.4124513618677046] [-0.27557647955037362:0.29757162907590978] [-0.2463831930973879:0.5678697266677275] [-0.54983292777647208:0.51736723536794682] [-0.45681026101274608:0.34684475341656551] [-0.80634230267002782:0.53602637976518697] [-0.48051342712742462:0.40893610199597669] [-0.96337319756930884:1.2498261242698911] [-2.3920652036862387:0.70826127433261887] [-0.2592197846790209:0.24696644530828121] [-0.49667629515495471:0.37327192510856477] [-0.21711667952505079:0.20339029485090779] [-0.71203108710266494:0.59189365857134713] [-0.62061009662195732:0.38595900273702111] [1.0864018987778259:2.1090955176684232] [0.3196491392973746:2.045456604743741] [0.4104154939040186:1.85542213955624] [0.46078771571216059:1.7272402744866726] [0.1884889893769062:2.0606466862985537] [0.37443210596931081:1.7356791237406644] [0.090508523125012105:1.9462460568943527] [0.023241368085326099:3.3756315856605443] [0.35610981737958081:0.84168548842461866] [0.54310719012053976:1.4480066771406126] [0.52193568791548317:1.4677516809717099] [0.62780538017955856:1.5660431741412353] [0.48685994705236652:1.538403699387195] [0.4485831809872029:1.6291099773242632] [0.28646513449986938:2.7111368909512765] [0:5.2889887108430731] [0.48686892912819291:1.2261744966442958] [0.91451209341117601:1.903757066582914] [0.88819095477386911:1.6336898395721926] [0.59119460941068969:1.7895910780669151] [0.59927360774818395:1.540360759872955] [0.2180293501048218:1.5642982971227244] [0.0918367346938775:1.7101048340128129] [0:1.4078498293515365] [0.47013162036797063:1.418015291683512] [0.2636007432485229:1.3207121102185286] [0.1721120237662063:1.4921333805673185] [0.27511271329798709:1.877242511141906] [0.072851796832801199:2.3303882968894687] [0.2624756399982931:2.377947404037791] [0.074445429888518794:4.0318819036879461] [0:9.3213928134386492] [0.46917204381752692:1.1092349096501344] [0.049677908671841103:1.2193054992146952] [0.069072337575351597:1.5486537274481764] [0.070303282067644093:1.4840540855935536] [0.062841507250247605:1.812041142364788] [0.052873480552535199:2.1012448311509302] [0.029010381781647599:3.4945727084769125] [0:8.3804272915230875] [0.60174031557759478:1.2663753926936008] [0.54343526426639177:1.1642443099028561] [0.73086606502189599:1.4419839235578626] [0.79954346079879657:1.3453085048263431] [0.58415642330081452:1.5165393886261442] [0.30392168125072222:1.6799819541761845] [0.46514416685011228:1.3421391217730561] [0.33695156744023952:1.867008081886256] [0.2185016778768914:1.7697877328410785] [0.3795758496330825:1.9544326677864039] [0.1513750120451044:2.2241065942752583] [0.2765124522371562:2.0464919345671739] [0.1098933151064975:3.6401494246162418] [0:8.9771820972146177] [0.54350908498242767:1.4877532151396131] [0.18621054823072319:1.2503040782226389] [0.23164801201849869:1.6845036603943115] [0.2430247058900275:1.4474268130506525] [0.2033080230549178:1.6058958063722837] [0.1531133285846118:1.6283041378275629] [0.090681476670861599:2.1410170236652721] [0.70778074074503716:1.8195423725123177] [0.6579705989107818:1.3549452317103574] [0.6676016934231993:1.5441469220608708] [0.61185615383859981:1.5355310277983472] [0.47155739623984921:1.4903277659116674] [0.50704983510493895:1.5331722765262168] [0.2417566103222025:1.5916535527329274] [0:2.5874868721403432] [0.31883678990355441:0.65741110524208823] [-0.53626768242440837:-0.30252249143554288] [4.0371526846174399:7.0148261288676084] [-0.035508250192563498:2.7787187154466682] [3.0596074925561481:4.1232336409374621] [0.80603793781770694:1.8931142775832823] [2.2619113805598001:8.0085529669704734] [0.29426143100873231:1.4316022833714539] [7.0200458853772219:53.000258151369962] [0.9918795477066924:5.7890186511824382] [20.860460092488022:32.516048633080388] [5.5719044413008971:15.59451656944198] [3.2388400315323458:4.0310885877921443] [2.390961570126807:2.5041958842042811] [2.1153444568635398:2.311402140054688] [14.537810265798711:17.431795078359226] [10.311026183947799:11.06952158145765] [4.5642044657110988e-07:2.6997040124783962] [-28.220350404312669:2.9684873949579842] [-17.296489223070036:-0.31932462824342878] [0.14026299311208509:2.4568205457670258] [-12.230134472859795:-0.18808777429467069] [0.22458278079636451:2.6620794876533602] [258.49497088267702:1827.0529181633349] [0:6] none [0.096357879273865299:0.43966295417086121] [0.045165322010746002:0.28046122378060401] none none [0:7] [0:25] [0:9] [0:10] [0:13] [0:15] [0:1] [0:1] none [0:0.7331195790392574] [0:2.1856775479220789] [0.53745747856526482:5.2698482085456098] [0:0.57735026918962573] [0:2.1594333310870089] [0:1.1338834764831844] [0.2301325557021637:2.3284025593505722] [0:0.35355339059327379] [0:1.1014336926169368] [0:0.083333333333333301] [1.1299361269508952:10.361421193569344] [1.1590789300553834:19.042213127558952] [0.42302603705961711:7.5246079930328618] [0.5983824491323908:0.78125826795044395] [0.34758289711212309:0.485430821312688] [0.20065306148953119:0.34496582500255468] [0.1167540573416599:0.2223103131783471] [0.50530885292792371:0.75789781353722174] [0.26104319811467358:0.42938155201994271] [0.51700680272108834:1.060606060606061] [0.62544052240346903:0.82466986027944145] [0:5] none [0:15] [0:4] [0:22] [0:16] [0:4] [0:14] [0:4] [0:2] [0:3] none [0:3] [0:1] [0:2] [0:4] [0:3] none [0:2] none [0:4] [0:4] [0:4] none none none none none [-2.6864270667114578:19.54890290375409] [-5.212228487915759:1.6404816232048385] [-3.8523730526161062:9.6666758822014351] [-10.166666666666668:0.91838529856386997] [1.4419725394186311:2.389305555555556] none [-1.1833132558578989:1.6694114543965737] [0.55787037037037024:2.346293461829176] [0.8766078892705913:2.4324074074074078] [-0.51990096630428573:1.2961342592592591] none [-2.7569444444444442:1.3979863996874768] [-0.22720197794963279:1.5775953220794492] [0.056150793650793597:1.4682898715041577] [-5.432942463831262:0.91838529856386997] [5.0859508062484249:6.6334674981103561] none [2.3379656399596875:4.2959722222222227] [2.4284295605684361:3.597101860614667] none [3.3579120212899976:5.0664310070140699] [3.4892973012292696:4.9222819822373394] [1.2265140778533636:2.7312734604861229] none none [7.125:12.045404055919548] [9.5536111111111115:14.172704097249548] [4.3562106324011083:6.520909760885341] none [10.578703703703704:14.686127278071719] none none none [5.5680146154364554:6.455882245315566] none none [1.2747326491049431:2.3034680039654232] [-1.1833132558578989:1.4812500000000002] [0.4058203825113697:2.2689160936496933] [-2.4434848898407102:1.0075231481481479] none [-2.7569444444444442:1.1758796296296301] [-1.3270446218610898:1.4828226568405141] [0.049910241874527597:1.4655092592592591] [-5.432942463831262:0.91838529856386997] [2.2467318594104309:4.2959722222222227] [3.4892973012292696:4.9222819822373394] [1.2002584765923512:2.7312734604861229] [8.8958333333333321:13.700803556894895] [4.3562106324011083:6.2841137566137562] [10.578703703703704:14.408211555513065] [5.5680146154364554:6.455882245315566] [108:10800000000] [0.41527093596059111:0.54730158730158729] [0:0.43155452436194891] [0.15240641711229941:0.76923076923076916] [0:0.12589928057553959] [13.25:59] [0.73809523809523814:1.5441176470588236] [0.56034482758620685:0.73809523809523814] [0:33] [0:2] [0:0.10000000000000001] [5.4227734042407496:51.87258066412997] [0.49297940038552268:1.2967076694918398] [0.1705712525640431:0.47786117083872048] [1.1795257314055376:2.3586593457542491] [0.46364816827138178:0.4971938745990655] [0.068035776411547094:1.2149252260143115] [-0.035276180410082902:3.2248117545213333] [-0.0020750694358872002:0.1112004053283218] [0.1880354146061729:3.396811754521333] [0.0123735455327731:0.1171314398110804] [0:0.047301587301587199] [0:0.055462184873949501] [0.70197044334975345:0.97432712215320882] [0.43333333333333368:0.4866666666666668] [0.67500000000000016:0.94623015873015859] [0:0.17480931766646021] [-0.083743842364532001:0.1413736263736261] [-15.5:8] [0.45960034752389223:0.71534653465346554] [0:0.0013465346534655] [0.1578947368421052:0.61904761904761907] [1:9] [0:4] [1.1303296439314214:1.9652033156653039] [1.8523667426339263:4.159620281266208] [3.1669765858959762:5.3332911610867324] [3.8731406795131331:5.8557897188067765] [0.19160707413871589:0.41685318624117013] [0.3392966286655838:0.84370661996542262] [0.58009272889958263:0.94845017046935276] [0.78446625146974658:1.0000000000000002] [0.79231732559906853:1.0000000000000002] [8.4413308503346194:41.970924010417569] [24.041439490607601:59.007212294677011] [23.132093548984955:113.968132814917] [18.472782369775416:61.140505110044778] [17.552097998526925:46.674915252656966] [0:1] [0:1] [-10.94927904341175:-0.5564412317202555] [0:29.160506604881604] [0:28.920293967716468] [0:22.356197374771099] [0:26.342490286048921] [0:23.976640125262058] [0:121.32734136923226] [0:110.06045739477467] [0:74.204490441544564] [0:37.65383938511858] [0:25.227828341684805] [0:34.497070999703432] [0:17.539345052673266] [0:11.917644568938345] [0:50.939156627945799] none [0:25.608112328859018] [0:94.183581161817685] [0:94.675812846282] [0:52.544427923101622] [0:45.99609466627124] [0:22.100912162337035] [4.9839785209472085:92.410513107867502] [0:35.644165208807379] [0:94.183581161817685] [0:81.029047207502543] [0:33.026254395717572] [0:33.326847787741222] [0:45.99609466627124] [0:40.823003936962479] [0:36.727268490040451] [0:53.511046686389832] [0:92.865891555065019] [0:89.395441052172075] [0:43.507999952047193] [0:79.349837174438846] [0:132.34019219490909] [0:34.669214734789399] [0:31.137027470120746] [0:66.6754520367802] [0:50.214052828512862] [0:31.248888888888889] [-4.0523954650348042:15.824583606629062] [-5.0281481481481478:18.541379755605945] [-4.2811874055177634:11.793624567087235] [-0.0082686392458211008:12.59806405201607] [-5.6592471046486645:7.4507293110023358] [0.0625:1.6598768689964178] [0.0110726515689027:9.1456864313047515] [0.00022340976070330001:9.8611342857105324] [1e-08:3] [0:46.873450253251733] [0:53.839921802943167] [0:7.1578575837479725] [1.4696242795418224e-05:35.280052262692983] [6.3095734448019275e-07:6.0157535924856687] none [3.4657242157757293e-06:1.1171617133750793] [5.5260472479605837e-06:1.3282145744105407] [0.0625:1.2205432007722363] none [0.1249999999999999:2.5453117508294807] none [0.066666666666666596:4.1140233316415884] [0.090909090909090898:1.9165589358687336] [0.0769230769230769:1.1855859302953726] [1.930584725175484:2.2778119480107848] [2.1042706154165289:20.380106459588102] [0.1002033626388823:0.84142020303724419] [0.057350638723004298:0.66442009568826221] [0:11.582002891980368] [0:0.317248703642458] [0:10.366273009265363] [0:0.38608190573554541] none [0:6] [0:6] none none [0:5] none [0:3] [0:4] [0:2] [0:5] [0:4] [0:2] [0:11] [0:6] [0:3] [0:4] [0:2] [0:3] [0:2] none [0:2] [0:2] none none [0:2] [0:2] none none [0:2] [0:2] none none none [0:2] none [0:2] [0:2] [0:2] [0:15] [0:0.36842105263157893] [0.36050000000000071:8.612500000000006] [6.4800000000000004:165.32999999999998] [8.1699999999999999:165.32999999999998] [1.5:13.5] [1.1111111111111116:6.8888888888888911] [0.375:5.3888888888888893] [0.37722222222222218:4.7122222222222234] [0.083333333333333301:2.5322222222222219] [0.040000000000000001:1.7991836734693876] [0:1.421875] [0:0.93953136810279658] [0:0.61750000000000005] [0:0.48301193755739208] [0.074999999999999997:0.33333333333333331] [0.043010752688171998:0.1172839506172839] [0.017156862745097999:0.086154513888888895] [0.0185185185185185:0.082666666666666597] [0.013229166666666599:0.043981481481481399] [0.0030198746165131999:0.060408163265306097] [0:0.0277777777777777] [0:0.023620559334845002] [0:0.02375] [0:0.0140289256198347] [0.2163940291535387:0.6426217928824991] [6:100000000] [0:1] [0:5.1416635565026603] [41.498379775498357:104.13513317960675] [144:58100006261] [2.8402777777777781:20.847222222222225]
tree_sizes=1338 1225 1398 1314 1315 1331 1237 1330 1414 1325 1257 1254 1346 1355 1349 1428 1272 1279 1347 1431 1284 1187 1365 1360 1451 1363 1357 1457 1185 1458 1282

Tree=0
num_leaves=14
num_cat=0
split_feature=633 490 573 357 206 251 436 177 176 384 107 231 231
split_gain=138.565 69.8333 62.9906 36.8524 14.1625 12.0159 11.8282 11.7124 9.90778 5.72707 4.90727 2.86042 1.43867
threshold=1.0000000180025095e-35 0.38223562152133589 65.471004203768814 20.912522412511933 -0.33441292532201644 0.072281164378793561 -1.0000000180025095e-35 3.8690936137783871 -0.00019086062749234996 0.29520697167755994 23.237124698663159 0.0050139758236535008 -0.0082363236837296478
decision_type=2 2 2 2 2 2 2 2 2 2 2 2 2
left_child=2 4 3 6 10 7 -1 8 -5 -3 11 -2 -8
right_child=1 9 -4 5 -6 -7 12 -9 -10 -11 -12 -13 -14
leaf_value=-0.3214904167521781 0.014919803711892552 0.3494465963062573 0.12496916723871865 0.086688533898019879 -0.039627820101259766 -0.1595341858926935 -0.19793690848750023 -0.13291645320939879 -0.051670685773269824 0.23238226137247822 0.15572404537008097 0.10088156842750449 -0.14259511441909425
leaf_weight=30 30 35 48 37 50 38 42 32 47 32 32 32 34
leaf_count=30 30 35 48 37 50 38 42 32 47 32 32 32 34
internal_value=-4.19903e-09 0.124855 -0.0855339 -0.124396 0.0463721 -0.0619264 -0.215154 -0.0299515 0.00927326 0.293535 0.0921167 0.0592872 -0.173179
internal_weight=0 211 308 260 144 154 106 116 84 67 94 62 76
internal_count=519 211 308 260 144 154 106 116 84 67 94 62 76
is_linear=0
shrinkage=1


Tree=1
num_leaves=13
num_cat=0
split_feature=2 5 360 539 591 240 476 361 112 364 52 673
split_gain=105.943 40.3459 33.3799 13.2562 13.6197 13.201 8.83889 8.71391 6.59117 5.12044 3.88321 3.00999
threshold=1.5000000000000002 4.8638155798524965 2.4296367787823776 9.6274279121180193 5.1158026547917856 -0.24907670331075507 0.046127871981367412 2.2325528437274174 -12.836785510566171 1.5257050069036855 25.888544891640873 0.0055904035829307504
decision_type=2 2 2 2 2 2 2 2 2 2 2 2
left_child=2 5 3 4 9 -2 -4 -3 -7 -1 -8 -10
right_child=1 7 6 -5 -6 8 10 -9 11 -11 -12 -13
leaf_value=0.062886271450449435 -0.06852027041216692 0.29387070834636692 -0.23040921216787297 0.085595361120067548 -0.12803887994243549 0.1536149367209404 -0.15075839757265752 0.15471525970432495 0.080105869900786664 -0.049501707861500405 -0.062805886230161118 0.0097693234847651602
leaf_weight=34 33 36 43 37 52 31 57 36 53 31 31 45
leaf_count=34 33 36 43 37 52 31 57 36 53 31 31 45
internal_value=0 0.0997232 -0.081878 -0.0187494 -0.0517474 0.0443588 -0.15609 0.224293 0.0732348 0.00928585 -0.119775 0.0478085
internal_weight=0 234 285 154 117 162 131 72 129 65 88 98
internal_count=519 234 285 154 117 162 131 72 129 65 88 98
is_linear=0
shrinkage=0.2


Tree=2
num_leaves=15
num_cat=0
split_feature=2 5 363 545 311 311 361 151 155 104 436 363 673 384
split_gain=67.8032 25.8214 24.0735 17.3953 10.055 6.56652 6.27096 6.02635 5.55501 3.57902 3.57247 2.02148 1.11468 0.864022
threshold=1.5000000000000002 4.8638155798524965 10.946211543730866 34.824634479496218 0.56117098133393684 0.91187150449764753 2.2220545038826005 0.6565277709295565 -2.4838893044847503 -29.212634024803325 -1.0000000180025095e-35 10.953805498880888 0.0054231770833333007 0.4045454545454546
decision_type=2 2 2 2 2 2 2 2 2 2 2 2 2 2
left_child=2 4 3 5 -2 9 -5 -3 -6 -1 -4 12 -10 -12
right_child=1 7 10 6 8 -7 -8 -9 11 -11 13 -13 -14 -15
leaf_value=-0.08065807218352955 -0.064942382404115054 0.13053237724871863 -0.20343279819334709 0.11744922118922395 0.13568956037362417 -0.1291832652837038 0.0020483162680951256 0.24789721012115479 0.079583495776904267 0.016244574660255064 -0.14468986329532438 -0.0048600201104437154 0.02847926477270742 -0.098190758354736105
leaf_weight=30 32 42 31 31 30 50 48 30 38 31 31 31 31 33
leaf_count=30 32 42 31 31 30 50 48 30 38 31 31 31 31 33
internal_value=0 0.0797785 -0.0655024 -0.0244004 0.035487 -0.0754534 0.0473322 0.179434 0.0602081 -0.0314125 -0.147706 0.0375637 0.0566236 -0.120714
internal_weight=0 234 285 190 162 111 79 72 130 61 95 100 69 64
internal_count=519 234 285 190 162 111 79 72 130 61 95 100 69 64
is_linear=0
shrinkage=0.2


Tree=3
num_leaves=14
num_cat=0
split_feature=2 5 357 545 184 91 361 279 436 239 390 572 136
split_gain=43.3941 16.5569 15.4923 9.41833 6.83425 5.18415 4.65231 4.26712 4.25841 2.91423 2.43145 1.51366 0.80522
threshold=1.5000000000000002 4.8574123813942478 20.912125882749738 34.824634479496218 -0.44437909971528405 162.31295955124236 2.2325528437274174 0.96595254654134444 -1.0000000180025095e-35 0.14201384012852503 0.19641139128730059 5.1399862506581977 -550.56458714987377
decision_type=2 2 2 2 2 2 2 2 2 2 2 2 2
left_child=2 4 8 7 -2 -5 -3 -4 -1 -9 12 -10 -6
right_child=1 6 3 5 10 -7 -8 9 11 -11 -12 -13 -14
leaf_value=-0.1713894391024951 -0.038988432143297461 0.19268943054808513 0.004767591444154581 0.098743138951249421 0.057142941337078812 -0.0060811889216141855 0.09358573079109192 -0.12921492296736689 -0.049589629520972574 -0.043173794298162385 0.093586697009129416 -0.10600381264319787 0.014650052650408311
leaf_weight=32 45 36 30 32 30 46 40 32 30 31 39 52 44
leaf_count=32 45 36 30 32 30 46 40 32 30 31 39 52 44
internal_value=0 0.0638228 -0.0524019 -0.0143286 0.0269259 0.0369237 0.14053 -0.0573144 -0.109512 -0.0868772 0.053175 -0.0853645 0.0318769
internal_weight=0 234 285 171 158 78 76 93 114 63 113 82 74
internal_count=519 234 285 171 158 78 76 93 114 63 113 82 74
is_linear=0
shrinkage=0.2


Tree=4
num_leaves=14
num_cat=0
split_feature=2 119 363 591 545 523 304 230 115 394 494 500 45
split_gain=27.7722 10.8956 10.8332 9.35033 7.16232 5.3444 4.93299 4.72098 4.49924 2.56892 1.91579 1.42485 1.01134
threshold=1.5000000000000002 -1.031138784672659 10.946211543730866 4.8160935086400078 34.824634479496218 4.2169181055762657 0.87643240724069327 0.015300318822477151 -4.9943059402893182 0.13958098518489234 0.64691646327525454 0.23461420910966288 2.7003087030925319
decision_type=2 2 2 2 2 2 2 2 2 2 2 2 2
left_child=2 3 4 12 5 -1 -6 -3 -7 11 -4 -5 -2
right_child=1 7 10 9 6 8 -8 -9 -10 -11 -12 -13 -14
leaf_value=0.018934112510589116 0.04125112886762336 0.033666125442832706 -0.12764327872375197 0.12020473865171273 -0.024356341649379051 -0.015757984894638262 0.076253041523424062 -0.078535835941632604 -0.11489488894635058 0.16024017141145819 -0.070685304945343919 0.062202743347734214 -0.0068282488050560161
leaf_weight=34 42 30 44 36 35 30 44 30 47 34 51 32 30
leaf_count=34 42 30 44 36 35 30 44 30 47 34 51 32 30
internal_value=0 0.0510583 -0.0419215 0.0764007 -0.0143494 -0.0471085 0.0316793 -0.0224349 -0.0762701 0.115353 -0.0970658 0.0929097 0.0212181
internal_weight=0 234 285 174 190 111 79 60 77 102 95 68 72
internal_count=519 234 285 174 190 111 79 60 77 102 95 68 72
is_linear=0
shrinkage=0.2


Tree=5
num_leaves=14
num_cat=0
split_feature=633 107 490 363 154 199 289 374 93 666 157 322 406
split_gain=18.9477 8.44807 8.44316 7.54956 6.60417 4.14229 4.01052 3.48927 3.7947 3.05662 2.31611 0.887675 0.754465
threshold=1.0000000180025095e-35 -5.2624186095358114 0.38223562152133589 10.92657326234413 -1.031165122729278 -0.036265605724310694 0.9516928388920165 0.10264066370978546 -0.51111514047614126 0.076775714706749223 0.85381682170862072 1.1516623816681244 0.64961866834829918
decision_type=2 2 2 2 2 2 2 2 2 2 2 2 2
left_child=1 3 9 4 -1 -3 -5 -8 -9 10 12 -4 -2
right_child=2 5 11 6 -6 -7 7 8 -10 -11 -12 -13 -14
leaf_value=0.1145579652920846 0.036820969494680562 -0.11836646763751141 0.12683423842702593 -0.098162419276852764 -0.012206079566052982 -0.037324261547503422 0.033315849976261726 0.012515076758960884 -0.080164817911247882 -0.026529053079762627 0.075882487686780797 0.080746495546191011 -0.0070020453126000415
leaf_weight=31 30 52 35 31 35 49 37 30 43 42 39 32 33
leaf_count=31 30 52 35 31 35 49 37 30 43 42 39 32 33
internal_value=0 -0.0316294 0.0461699 -0.00849227 0.0473346 -0.079049 -0.034624 -0.0167177 -0.0420772 0.0188803 0.0375782 0.104822 0.0138661
internal_weight=0 308 211 207 66 101 141 110 73 144 102 67 63
internal_count=519 308 211 207 66 101 141 110 73 144 102 67 63
is_linear=0
shrinkage=0.2


Tree=6
num_leaves=13
num_cat=0
split_feature=2 119 357 307 324 591 577 356 166 134 350 222
split_gain=11.7038 5.44032 5.1066 5.10197 4.32625 3.92566 2.80222 2.64121 2.63751 1.72429 1.68041 0.600817
threshold=1.5000000000000002 -1.031138784672659 20.920267168562496 0.82333565806071707 0.80208083214883585 4.8160935086400078 3.1835468631897208 5.6877083528920016 1.3352766364153268 231.14014769133365 0.99545760330695565 -0.0052062167612466998
decision_type=2 2 2 2 2 2 2 2 2 2 2 2
left_child=2 5 6 -4 -5 11 7 -1 -3 -7 -8 -2
right_child=1 8 3 4 -6 9 10 -9 -10 -11 -12 -13
leaf_value=0.020458601433182916 -0.0024718903810591313 -0.060718803629279144 -0.055791321128014139 0.068729559921969982 -0.017102594537984416 0.050793622914128582 -0.10202229080048014 -0.062100617515463988 0.023146301632126175 0.10281101962924005 -0.045462681902082344 0.034081897538687504
leaf_weight=31 37 30 44 48 46 52 47 31 30 50 38 35
leaf_count=31 37 30 44 48 46 52 47 31 30 50 38 35
internal_value=0 0.0331455 -0.0272142 0.000416532 0.0267266 0.051053 -0.0531533 -0.020821 -0.0187863 0.0762923 -0.0767368 0.0152973
internal_weight=0 234 285 138 94 174 147 62 60 102 85 72
internal_count=519 234 285 138 94 174 147 62 60 102 85 72
is_linear=0
shrinkage=0.2


Tree=7
num_leaves=14
num_cat=0
split_feature=633 573 87 61 249 9 261 543 184 357 300 674 580
split_gain=8.08074 5.51006 3.70865 3.51678 3.05417 2.31902 2.05235 1.6987 1.47612 1.41248 0.949197 0.706771 0.538766
threshold=1.0000000180025095e-35 65.471004203768814 157.52176910910546 220.86908073489812 -0.14760964405435292 7.8536571136149904 0.03751393407300891 17.681746293657174 -0.16475149594239757 20.90351478699213 0.83152615763851168 0.0043878904484964511 0.85851780990173865
decision_type=2 2 2 2 2 2 2 2 2 2 2 2 2
left_child=1 2 -1 6 -4 8 7 -2 11 -10 -9 -6 -12
right_child=3 -3 4 -5 5 -7 -8 10 9 -11 12 -13 -14
leaf_value=0.026491755800875455 0.060195829636520815 0.041602902100809545 0.0089602522743053928 0.085243787028287596 -0.06552390154451132 -0.01432089613691131 -0.029509728327393531 -0.014367996472300908 -0.058784933044360235 -0.11412890495466335 0.045772084279451522 -0.02310864425292521 0.0093508231312488064
leaf_weight=37 45 48 39 38 30 47 30 33 39 35 32 33 33
leaf_count=37 45 48 39 38 30 47 30 33 39 35 32 33 33
internal_value=0 -0.0206556 -0.0321495 0.0301513 -0.0418792 -0.0526549 0.0180501 0.0280276 -0.065806 -0.0849611 0.0132565 -0.0433064 0.0272813
internal_weight=0 308 260 211 223 184 173 143 137 74 98 63 65
internal_count=519 308 260 211 223 184 173 143 137 74 98 63 65
is_linear=0
shrinkage=0.2


Tree=8
num_leaves=15
num_cat=0
split_feature=94 545 412 80 8 577 246 269 402 36 216 658 651 257
split_gain=5.21305 3.6469 3.64972 3.01892 2.85788 2.84325 2.87462 2.23754 1.27733 0.930909 0.882041 0.875499 0.824985 0.65914
threshold=0.24869055180784846 31.490820997676384 1.0000000180025095e-35 1.2358342375181459 579.447445791777 4.6229775289745545 -0.46996398906096859 -0.099144888613805132 0.17784026063503125 3.0609110169491527 -3.6867495732674627 0.94500000000000017 0.21022727272727273 0.039458778541728405
decision_type=2 2 2 2 2 2 2 2 2 2 2 2 2 2
left_child=1 5 4 13 9 6 -1 10 -9 -3 -5 -8 -7 -2
right_child=3 2 -4 7 -6 12 11 8 -10 -11 -12 -13 -14 -15
leaf_value=0.03736890000441382 -0.031878647257884349 -0.016945628379471601 0.053674044840513392 0.047922154541260434 0.027384240514167199 -0.083930037924792714 -0.05879018677069861 0.047166146319960398 -0.008218196660487188 -0.065984874193867046 0.094656522621711092 -0.014613538490314232 -0.041080374480225147 0.0097068940499617212
leaf_weight=31 30 32 47 35 41 41 34 31 36 30 30 38 32 31
leaf_count=31 30 32 47 35 41 41 34 31 36 30 30 38 32 31
internal_value=0 -0.0154228 0.00749085 0.0260509 -0.013583 -0.0349514 -0.0135509 0.043055 0.0174074 -0.0406743 0.0694919 -0.0354747 -0.0651466 -0.010745
internal_weight=0 326 150 193 103 176 103 132 67 62 65 72 73 61
internal_count=519 326 150 193 103 176 103 132 67 62 65 72 73 61
is_linear=0
shrinkage=0.2


Tree=9
num_leaves=14
num_cat=0
split_feature=111 36 480 577 306 387 92 402 83 547 241 570 266
split_gain=3.85023 3.40729 3.58135 3.0115 2.43063 1.6368 1.48596 1.42229 1.37087 1.33963 1.03661 0.874046 0.757544
threshold=-9.795742672589272 3.1368092691622107 3.4483409206743514 5.5070034832933059 1.1459718488658626 0.071358725020898503 0.67927705609420952 0.18019319917344317 162.03221740345364 5.6241140158757092 -0.18126625413914402 17.683922508963395 0.18355345740965198
decision_type=2 2 2 2 2 2 2 2 2 2 2 2 2
left_child=8 2 3 6 5 -3 7 -2 -1 -5 -6 -10 -9
right_child=1 4 -4 9 10 -7 -8 12 11 -11 -12 -13 -14
leaf_value=-0.05257201276530149 -0.044553779757045442 0.033968607698651877 0.059900361007700367 -0.080604221311307733 0.038440216906989622 -0.02185290202717571 0.038708695182294556 -0.010523677680571124 -0.031664075093293519 -0.021319165370271852 0.091016708444803959 0.013863016400606401 0.028076403407436432
leaf_weight=59 33 55 30 31 30 34 33 53 37 30 30 31 33
leaf_count=59 33 55 30 31 30 34 33 53 37 30 30 31 33
internal_value=0 0.00980502 -0.00479595 -0.0139081 0.0336173 0.0126435 0.0011571 -0.00925637 -0.0302643 -0.0514476 0.0647285 -0.0109091 0.00428798
internal_weight=0 392 243 213 149 89 152 119 127 61 60 68 86
internal_count=519 392 243 213 149 89 152 119 127 61 60 68 86
is_linear=0
shrinkage=0.2


Tree=10
num_leaves=13
num_cat=0
split_feature=224 571 239 237 483 573 334 26 582 268 271 340
split_gain=2.70655 2.45727 2.39091 1.86345 2.76904 1.44685 1.36388 1.25286 1.12037 1.36884 0.546045 0.422745
threshold=-0.0094242653726499485 18.264339456960567 -0.025090586846349249 1.4305666382069027 12.859722117458862 17.086539701160572 1.1233477638795166 1102.0000000000002 4.8375272213390001 -0.015090922199400248 0.038592561786948303 0.98869783598254724
decision_type=2 2 2 2 2 2 2 2 2 2 2 2
left_child=5 2 -2 7 6 -1 8 -4 9 10 11 -5
right_child=1 -3 3 4 -6 -7 -8 -9 -10 -11 -12 -13
leaf_value=0.051883464028889485 -0.038746045411848541 -0.053662390504032376 0.0015197854128576095 0.030193250640196369 0.069314520681897793 -0.0021458270088318856 -0.030444118534088939 -0.055813284317652395 -0.016247182064082311 0.052315644474430503 -0.012250421765659537 0.0022195567283779384
leaf_weight=55 59 40 31 47 30 31 37 30 46 38 35 40
leaf_count=55 59 40 31 47 30 31 37 30 46 38 35 40
internal_value=0 -0.00643665 -0.00162996 0.00492647 0.011988 0.0324078 0.00491067 -0.0266768 0.0112608 0.0191693 0.00884508 0.0173318
internal_weight=0 433 393 334 273 86 243 61 206 160 122 87
internal_count=519 433 393 334 273 86 243 61 206 160 122 87
is_linear=0
shrinkage=0.2


Tree=11
num_leaves=13
num_cat=0
split_feature=135 122 161 296 500 119 497 239 403 95 490 311
split_gain=1.92904 1.65653 2.025 1.61811 1.55935 1.45951 1.06547 0.978901 0.982114 0.730022 0.555289 0.343634
threshold=-519.17867731437093 -16.205335375482296 -1.1081718608279216 1.1491701353141113 0.26559264987887049 4.1036549663732655 0.016954022988505704 0.040575327410810554 0.62682443702937207 0.0033524155353212505 0.37742906318794511 0.79532065380806627
decision_type=2 2 2 2 2 2 2 2 2 2 2 2
left_child=3 -2 4 -1 -3 7 -5 -4 9 10 11 -9
right_child=1 2 5 6 -6 -7 -8 8 -10 -11 -12 -13
leaf_value=0.017637647665105761 0.048493976153965508 -0.047938263800460845 0.049418619245050421 -0.016101782894269986 0.010187441598003111 -0.02860085320743648 -0.058697302130664264 -0.016470347301413616 0.034713464501072412 -0.022010278478264811 0.027841204983439852 0.010815926008702566
leaf_weight=32 35 48 31 55 30 33 41 30 54 35 47 48
leaf_count=32 35 48 31 55 30 33 41 30 54 35 47 48
internal_value=0 0.00697643 0.00289465 -0.0213108 -0.0255822 0.0108846 -0.0342936 0.016203 0.0113914 0.00352019 0.0106687 0.000321206
internal_weight=0 391 356 128 78 278 96 245 214 160 125 78
internal_count=519 391 356 128 78 278 96 245 214 160 125 78
is_linear=0
shrinkage=0.2


Tree=12
num_leaves=14
num_cat=0
split_feature=348 680 57 159 127 273 374 86 322 170 162 163 249
split_gain=1.48823 2.04895 1.61947 1.34831 1.19244 1.29504 1.15672 0.944549 0.787135 0.957541 0.612691 0.606873 0.599675
threshold=-0.4179825385653636 1211.5000000000002 14.489085732363177 84.188973484783602 16.429369677788824 -0.12862539117687521 0.13459909114912638 161.47544527201589 1.1137894324459998 -0.0018016497220048999 -14.142606221537385 -20.659274761545802 -0.015691466559343597
decision_type=2 2 2 2 2 2 2 2 2 2 2 2 2
left_child=2 4 6 -3 5 -2 8 10 9 -1 -7 -10 -11
right_child=1 3 -4 -5 -6 7 -8 -9 11 12 -12 -13 -14
leaf_value=-0.032486886789019294 0.018239010196644811 0.070560793702801078 -0.05488763513974846 0.01692880050837994 0.031898985968695746 -0.016776024363934994 -0.031556531410737367 0.00035191638550410669 0.00025848002483447395 -0.012158069233860702 -0.056869545843332051 0.039853371714707465 0.027180820105657463
leaf_weight=39 50 30 30 50 36 30 51 48 30 31 31 32 31
leaf_count=39 50 30 30 50 36 30 51 48 30 31 31 32 31
internal_value=0 0.0100881 -0.0113698 0.0370408 -0.000969388 -0.00841128 -0.00526918 -0.0206362 0.0029557 -0.0079335 -0.0371514 0.0206946 0.00751138
internal_weight=0 275 244 80 195 159 214 109 163 101 61 62 62
internal_count=519 275 244 80 195 159 214 109 163 101 61 62 62
is_linear=0
shrinkage=0.2


Tree=13
num_leaves=14
num_cat=0
split_feature=450 269 32 57 175 278 160 334 553 494 653 198 176
split_gain=1.30385 1.42242 1.2272 1.79548 1.23029 1.06923 1.04294 0.852232 0.845997 0.923138 0.764762 0.308615 0.307536
threshold=5.6606795634920646 -0.16010570823000195 2.014999746668694 12.063261648745522 0.00032756997124120003 1.4274884923407485 1.0000000180025095e-35 1.0128213510184194 15.242711250852384 0.63363095238095246 40.170000000000009 -0.016836264720800898 -0.00059226031580569989
decision_type=2 2 2 2 2 2 2 2 2 2 2 2 2
left_child=1 6 3 4 7 10 -1 -3 9 -7 -4 12 -11
right_child=-2 2 5 -5 -6 8 -8 -9 -10 11 -12 -13 -14
leaf_value=0.0082405023723840717 -0.038469851000065156 0.033611751906573777 -0.0078305273752419229 0.050515400039384498 -0.032011902921230483 -0.037468584738671783 0.054050025281806795 -0.010177758486679523 0.025947817216408167 -0.019621351115347352 -0.049682068978436293 0.016266086837276816 0.0041234428950701844
leaf_weight=50 33 40 31 37 34 35 33 32 34 40 40 32 48
leaf_count=50 33 40 31 37 34 35 33 32 34 40 40 32 48
internal_value=0 0.00261215 -0.00229819 0.0125835 -0.00065682 -0.0104831 0.0264539 0.0141497 -0.00262216 -0.00888913 -0.0314089 -0.00055345 -0.00666965
internal_weight=0 486 403 143 106 260 83 72 189 155 71 120 88
internal_count=519 486 403 143 106 260 83 72 189 155 71 120 88
is_linear=0
shrinkage=0.2


Tree=14
num_leaves=14
num_cat=0
split_feature=82 483 6 435 545 180 568 320 210 273 240 265 87
split_gain=1.06987 0.994421 0.970082 1.35103 1.14797 0.810809 0.672639 0.665391 0.614191 0.711177 0.366074 0.356568 0.239064
threshold=1.3483213355952544 11.893655478113613 1.2753665745237919 0.090748599077422457 41.438698045320983 -0.21528225084569988 8.4191044667912411 0.91713610284842084 50.455613882921703 0.011457187192944102 -0.094496914233647492 0.023914591417390652 162.87812400622198
decision_type=2 2 2 2 2 2 2 2 2 2 2 2 2
left_child=1 -1 3 6 7 -6 -3 -4 12 -10 -8 -11 -9
right_child=-2 2 4 -5 5 -7 10 8 9 11 -12 -13 -14
leaf_value=-0.030347189178412899 0.030212046374935048 -0.020683962258044631 0.0091409886636855935 0.051013300856274951 -0.0045241194896932157 0.039173004477087298 0.031029637418687347 0.0090300215956042786 -0.05022500718219413 -0.0053721889324757893 0.0019565538139786664 -0.031917377305882316 -0.015464970606068771
leaf_weight=47 43 32 44 31 35 33 30 34 36 48 41 35 30
leaf_count=47 43 32 44 31 35 33 30 34 36 48 41 35 30
internal_value=0 -0.00272924 0.000296503 0.0144077 -0.00611333 0.0166818 0.0033905 -0.0129418 -0.0182514 -0.0267485 0.014241 -0.0165659 -0.00245201
internal_weight=0 476 429 134 295 68 103 227 183 119 71 83 64
internal_count=519 476 429 134 295 68 103 227 183 119 71 83 64
is_linear=0
shrinkage=0.2


Tree=15
num_leaves=15
num_cat=0
split_feature=40 66 394 244 134 494 167 543 96 33 401 50 305 677
split_gain=0.92337 1.34177 1.08291 0.976491 0.855195 0.660277 0.670476 0.602146 0.426098 0.592073 0.408349 0.337872 0.33592 0.117563
threshold=2.849242424242425 173.15420648462606 0.18008768318181367 -0.19571109643762777 396.80518338659016 0.6358901515151516 4.3503913698030212 25.034168558962303 -0.022204077025032947 1.9249070755343163 0.28063171886335087 2.0963698308270682 0.8988605991131392 0.84523809523809534
decision_type=2 2 2 2 2 2 2 2 2 2 2 2 2 2
left_child=1 2 4 -4 5 7 8 -1 9 -7 -5 -9 -10 -14
right_child=-2 -3 3 10 -6 6 -8 11 12 -11 -12 -13 13 -15
leaf_value=-0.036450187170079779 -0.032909674471011389 0.04313590144738555 0.048378064806262652 -0.012359009056817742 -0.031619889488105068 -0.033821681101295735 0.02606471126071281 0.0090643971628095541 0.02243388144148363 0.0020984141590694584 0.019654692912145572 -0.019674251393104594 0.0070566595283647381 -0.010649322305495541
leaf_weight=35 32 30 30 30 44 31 45 36 37 45 34 30 30 30
leaf_count=35 32 30 30 30 44 31 45 36 37 45 34 30 30 30
internal_value=0 0.00216244 -0.000527281 0.0186046 -0.00548154 -0.00187625 0.00431717 -0.0152442 -0.00133971 -0.0125532 0.00464827 -0.00399862 0.00744612 -0.00179633
internal_weight=0 487 457 94 363 319 218 101 173 76 64 66 97 60
internal_count=519 487 457 94 363 319 218 101 173 76 64 66 97 60
is_linear=0
shrinkage=0.2


Tree=16
num_leaves=13
num_cat=0
split_feature=86 87 480 394 528 283 586 672 324 322 267 267
split_gain=0.756927 0.771159 0.680282 0.925057 1.27728 0.679144 0.563565 0.527722 0.527833 0.410912 0.263142 0.286682
threshold=153.98033813279622 157.18017658084173 3.4500211010330064 0.17490743964898697 0.85174543527725499 0.91674419921601713 1.1241494825702734 0.014274078973153002 1.0399442591347825 1.1605625774795645 -0.11780445767218854 -0.034269567763056445
decision_type=2 2 2 2 2 2 2 2 2 2 2 2
left_child=-1 -2 3 4 -3 -5 -6 8 9 10 -8 -12
right_child=1 2 -4 5 6 -7 7 -9 -10 -11 11 -13
leaf_value=-0.025412209503092739 0.032281395146856087 -0.044251122333419823 0.025014121471904217 -0.00038311399053782226 -0.02874211796248953 0.03748176646638765 0.016485706856221204 -0.022330072159982391 0.023407472267916257 -0.018910302431322634 -0.01205308710285373 0.0094993823287176336
leaf_weight=43 32 33 40 40 30 36 46 36 44 40 52 47
leaf_count=43 32 33 40 40 30 36 46 36 44 40 52 47
internal_value=0 0.00229564 0.000134505 -0.00232882 -0.00693556 0.0175529 -0.00276128 0.000179951 0.00371864 -0.000964103 0.00398657 -0.00182111
internal_weight=0 476 444 404 328 76 295 265 229 185 145 99
internal_count=519 476 444 404 328 76 295 265 229 185 145 99
is_linear=0
shrinkage=0.2


Tree=17
num_leaves=13
num_cat=0
split_feature=134 92 559 282 290 118 171 220 176 331 136 49
split_gain=0.750274 0.843464 0.974121 0.7881 0.733018 0.737039 0.584583 0.556296 0.348789 0.336669 0.262126 0.111162
threshold=-241.85684475575547 1.1416102185228725 53.254566812742588 1.2112711292599327 0.97328247569104065 -0.66848217852504133 8.7193338717066185e-05 -0.0047126615018175987 -0.00019086062749234996 0.89819268880111724 -428.2414445822738 2.1317656200009147
decision_type=2 2 2 2 2 2 2 2 2 2 2 2
left_child=-1 2 3 4 6 -6 8 10 -2 -9 -7 -11
right_child=1 -3 -4 -5 5 7 -8 9 -10 11 -12 -13
leaf_value=0.028277745981301578 -0.013261215353448845 -0.03452426368991534 0.034322736871939513 -0.032084008921502219 0.031183168563681349 0.022161154824102094 -0.029447370374818212 -0.024859799526518945 0.0092963497369335252 0.0088606654045482475 0.00030829729056111664 -0.00742514098651315
leaf_weight=35 58 30 31 33 42 54 46 33 52 30 37 38
leaf_count=35 58 30 31 33 42 54 46 33 52 30 37 38
internal_value=0 -0.00204488 0.000101337 -0.00240661 0.00010455 0.00718416 -0.0105149 0.00193438 -0.00259764 -0.00828425 0.0132759 -0.000240226
internal_weight=0 484 454 423 390 234 156 192 110 101 91 68
internal_count=519 484 454 423 390 234 156 192 110 101 91 68
is_linear=0
shrinkage=0.2


Tree=18
num_leaves=14
num_cat=0
split_feature=450 104 32 39 69 290 93 447 89 136 259 317 176
split_gain=0.659843 0.70827 0.598151 1.16164 1.0956 0.625205 0.591025 0.549822 0.716914 0.437235 0.253983 0.195725 0.279218
threshold=5.6606795634920646 -102.18922340565415 2.014999746668694 2.2288314176245216 7.603517046337104 1.1904510550115071 -0.2124672031870565 1.2767606764928197 160.06856360574912 -386.44323421958342 -0.038794606818480591 1.1529482847723891 0.00012260942032455002
decision_type=2 2 2 2 2 2 2 2 2 2 2 2 2
left_child=1 -1 3 9 -5 6 7 8 -4 10 -3 12 -10
right_child=-2 2 5 4 -6 -7 -8 -9 11 -11 -12 -13 -14
leaf_value=-0.024738806768043624 -0.027367034610925302 -0.0040473127933709245 -0.034967728947057984 0.0084027091128518801 0.060738049889914693 0.024180542235262694 -0.030430633426206468 0.015485422088425946 -0.021677169239809436 -0.019250389017284878 0.017552502444196566 0.0083827436534472961 0.0051661474818590044
leaf_weight=37 33 38 31 32 32 32 33 55 31 31 51 52 31
leaf_count=37 33 38 31 32 32 32 33 55 31 31 51 52 31
internal_value=0 0.00185826 0.00405 0.0128104 0.0345704 -0.00203273 -0.00563284 -0.0015412 -0.00799958 0.00120515 0.00833011 -0.000666132 -0.00825551
internal_weight=0 486 449 184 64 265 233 200 145 120 89 114 62
internal_count=519 486 449 184 64 265 233 200 145 120 89 114 62
is_linear=0
shrinkage=0.2


Tree=19
num_leaves=15
num_cat=0
split_feature=243 338 334 675 88 265 108 128 37 534 560 529 87 36
split_gain=0.59398 0.758201 0.97194 0.532122 0.539023 0.552457 0.360823 0.556451 0.323353 0.25212 0.25154 0.177435 0.105524 0.137755
threshold=0.15021406804716994 1.1172826066938091 0.96941450292306131 0.33354077516477409 158.96030715238484 0.036889314909150456 14.600500922219672 -69.840721990341891 2.463327370304115 23.993431096650117 11.55832145920578 0.92071730864211065 164.79306262527805 3.3303030303030305
decision_type=2 2 2 2 2 2 2 2 2 2 2 2 2 2
left_child=1 3 9 -1 -5 6 8 -8 -6 -3 11 -10 13 -13
right_child=-2 2 -4 4 5 -7 7 -9 10 -11 -12 12 -14 -15
leaf_value=0.020564449598130429 -0.024420517110627624 0.016697343979030849 0.047822243406747782 -0.026206336771138011 -0.020443235581521602 -0.025629328178954039 -0.0040909072369686326 0.033206912795139945 -0.014885191163844675 -0.0092317670987298091 0.014593305852173305 0.014553785877411858 -0.0086512073453876275 -0.0029696236707662284
leaf_weight=38 37 30 30 40 34 34 32 32 38 30 41 34 31 38
leaf_count=38 37 30 30 40 34 34 32 32 38 30 41 34 31 38
internal_value=0 0.0018746 0.0184293 -0.00192621 -0.00434046 -0.001555 0.00136831 0.014558 -0.00253975 0.00373279 0.000804856 -0.00320455 0.00110481 0.00530532
internal_weight=0 482 90 392 354 314 280 64 216 60 182 141 103 72
internal_count=519 482 90 392 354 314 280 64 216 60 182 141 103 72
is_linear=0
shrinkage=0.2


Tree=20
num_leaves=13
num_cat=0
split_feature=82 86 526 528 490 108 669 526 220 189 231 525
split_gain=0.546532 0.504708 0.435384 0.535573 0.282899 0.458773 0.329543 0.180569 0.177202 0.164156 0.110447 0.0697176
threshold=1.3483213355952544 154.35308639261027 0.53241334042094646 0.85174543527725499 0.31475102967113427 14.600500922219672 0.024964387464387453 0.72669717270407996 -0.0045048570034834498 -0.039745672154463348 -0.0087506036106516968 0.27091564178178368
decision_type=2 2 2 2 2 2 2 2 2 2 2 2
left_child=1 -1 -3 -4 6 7 9 8 -6 -5 -9 -10
right_child=-2 2 3 4 5 -7 -8 10 11 -11 -12 -13
leaf_value=-0.022616667148852073 0.021593510589107526 0.01827629774888145 -0.024991460884543692 -0.0075686151840550419 0.018227747530909257 0.023204386377230633 -0.024019006834201079 -0.015646892814247897 0.0065001799666788429 0.009568723441205091 -0.00067908894769581299 -0.0068079093876745435
leaf_weight=43 43 47 37 59 32 43 34 33 32 36 49 31
leaf_count=43 43 47 37 59 32 43 34 33 32 36 49 31
internal_value=0 -0.00195067 0.000101607 -0.00211137 0.000314309 0.00467461 -0.00712186 0.000173026 0.00610788 -0.00107447 -0.00670272 -4.8245e-05
internal_weight=0 476 433 386 349 220 129 177 95 95 82 63
internal_count=519 476 433 386 349 220 129 177 95 95 82 63
is_linear=0
shrinkage=0.2


Tree=21
num_leaves=12
num_cat=0
split_feature=168 291 671 243 181 132 161 26 394 605 29
split_gain=0.472293 0.999393 0.656412 0.566207 0.481618 0.312258 0.329616 0.196556 0.133599 0.122427 0.108088
threshold=0.014500325235649153 1.1349557068285643 0.011076055021367501 0.10373431784819806 -0.080760489246956488 89.284901494565247 4.8600279844067904 1109.0000000000002 0.17368600974429757 0.59521755777888619 3.8874119718309865
decision_type=2 2 2 2 2 2 2 2 2 2 2
left_child=1 2 -1 4 5 6 -2 -4 9 10 -8
right_child=3 -3 7 -5 -6 -7 8 -9 -10 -11 -12
leaf_value=0.022733067773650726 -0.015819124298286625 0.041470194769402349 0.0019655779176211015 -0.030279500890643369 -0.021217104954518042 0.020606004918615025 -0.0012495699820333514 -0.014571948484476788 0.014341212334957991 -0.0081498399495761441 0.012264557238668204
leaf_weight=43 48 30 58 31 44 30 58 57 33 47 40
leaf_count=43 48 30 58 31 44 30 58 57 33 47 40
internal_value=0 0.00800548 0.00165142 -0.00454692 -0.00188789 0.00143432 -0.00111059 -0.00623128 0.00285576 0.000241826 0.0042664
internal_weight=0 188 158 331 300 256 226 115 178 145 98
internal_count=519 188 158 331 300 256 226 115 178 145 98
is_linear=0
shrinkage=0.2


Tree=22
num_leaves=14
num_cat=0
split_feature=147 526 340 114 339 226 487 169 102 98 69 174 218
split_gain=0.428324 0.672535 0.433068 0.467288 0.371353 0.365776 0.412326 0.341149 0.146353 0.125722 0.152574 0.136367 0.0726723
threshold=-1.042344129057206 0.53241334042094646 1.1640013518110524 4.613635511382844 1.0234631296258181 -0.0013282954399182997 545.50000000000011 -0.0038975514310396497 12.315515493004689 0.019010628172661505 7.8796952556929085 -0.0009908859500145997 -1.8511713993501442
decision_type=2 2 2 2 2 2 2 2 2 2 2 2 2
left_child=-1 -2 3 4 -3 7 8 9 -7 11 -11 -6 -10
right_child=1 2 -4 -5 5 6 -8 -9 12 10 -12 -13 -14
leaf_value=-0.021045279196308306 0.022825989645097477 0.022996318833354644 -0.020342961219804629 -0.022113550375797788 0.005294308292546443 -0.009996881742873007 -0.026050112472677772 0.026583165420840184 0.011961144765518839 0.017615002754311531 -0.0013564775853107374 -0.011608994704272067 -0.00089871810558132641
leaf_weight=36 53 34 42 32 42 42 33 30 32 39 30 35 39
leaf_count=36 53 34 42 32 42 42 33 30 32 39 30 35 39
internal_value=0 0.00156859 -0.00105151 0.00103674 0.00311767 0.00101868 -0.0063823 0.00715814 -0.000638605 0.00316669 0.00936653 -0.00238901 0.00489728
internal_weight=0 483 430 388 356 322 146 176 113 146 69 77 71
internal_count=519 483 430 388 356 322 146 176 113 146 69 77 71
is_linear=0
shrinkage=0.2


Tree=23
num_leaves=14
num_cat=0
split_feature=41 580 671 392 156 265 143 591 344 271 163 284 290
split_gain=0.40996 0.532221 0.388951 0.500916 0.351177 0.453591 0.431672 0.23817 0.147629 0.184193 0.131271 0.0972163 0.0990508
threshold=2.7951277650648367 1.6459315948601667 0.019899533887629054 1.3267929793692048 -3.4814481705058911 0.023914591417390652 -0.18641144940575968 2.568182795820142 0.99174219696936694 -0.048997170763152638 -8.5887674732032782 0.68953879346400992 1.0431100047845037
decision_type=2 2 2 2 2 2 2 2 2 2 2 2 2
left_child=1 2 3 4 6 7 -1 -6 10 -10 11 -9 -13
right_child=-2 -3 -4 -5 5 -7 -8 8 9 -11 -12 12 -14
leaf_value=0.030976529096563662 0.021229929705698262 -0.026842627723911602 -0.018590054616797715 0.025700970691148985 -0.016136172107390819 -0.021157868016187267 -0.0011163650435934726 0.010409759010442278 0.0046518489450175808 -0.013783679933219059 0.0170461151363062 -0.0095535968486784098 0.0055176851968910248
leaf_weight=30 34 31 40 33 31 46 38 44 46 41 35 33 37
leaf_count=30 34 31 40 33 31 46 38 44 46 41 35 33 37
internal_value=0 -0.00148828 0.00024296 0.00206257 1.51548e-05 -0.00281502 0.0130423 0.000345176 0.0025101 -0.00403616 0.00633241 0.00304311 -0.00158735
internal_weight=0 485 454 414 381 313 68 267 236 87 149 114 70
internal_count=519 485 454 414 381 313 68 267 236 87 149 114 70
is_linear=0
shrinkage=0.2


Tree=24
num_leaves=15
num_cat=0
split_feature=40 40 43 181 69 606 251 222 95 507 305 171 161 125
split_gain=0.47671 0.573738 0.374994 0.410448 0.252619 0.242333 0.250785 0.268472 0.220441 0.112281 0.16898 0.15004 0.189513 0.0647411
threshold=2.849242424242425 2.7573593073593079 2.4965219957252693 0.14908943428125407 7.5170317892102334 0.13758916401368201 0.059087029214296656 -0.0010535990937194997 0.017965469738927403 0.022465569617769902 1.0603346618944298 -0.0072045329641764995 10.096074955777471 1.4158790170132203
decision_type=2 2 2 2 2 2 2 2 2 2 2 2 2 2
left_child=1 2 -1 4 -4 -6 7 8 9 10 -7 -11 -13 -14
right_child=-2 -3 3 -5 5 6 -8 -9 -10 11 -12 12 13 -15
leaf_value=0.019097162725252883 -0.023646297358209268 0.02834665437694639 -0.017428068585333325 -0.023676351187168623 0.016953618620108399 0.019076284578477501 -0.016592831427560135 0.019151261265975453 -0.015552337014335484 0.010731327155714527 -0.001817059060558677 -0.015209611312353186 -0.0045790453138761225 0.0065383554012937986
leaf_weight=37 32 30 31 32 36 32 34 31 34 34 30 42 40 44
leaf_count=37 32 30 31 32 36 32 34 31 34 34 30 42 40 44
internal_value=0 0.00155376 -0.000205072 -0.00190551 -0.000109974 0.00139384 -0.000351184 0.00157291 -0.000555714 0.00174107 0.0089666 -0.00105883 -0.0042403 0.00124436
internal_weight=0 487 457 420 388 357 321 287 256 222 62 160 126 84
internal_count=519 487 457 420 388 357 321 287 256 222 62 160 126 84
is_linear=0
shrinkage=0.2


Tree=25
num_leaves=14
num_cat=0
split_feature=568 559 41 543 340 213 320 447 668 437 163 47 668
split_gain=0.361077 0.408145 0.416706 0.329366 0.259292 0.321826 0.313821 0.208321 0.123671 0.122026 0.0914958 0.10076 0.0816789
threshold=27.133065519259809 53.549131352857835 2.7180246913580253 49.225406321658646 1.1640013518110524 -2.2278857370387422 0.99598974657091288 1.2908547487398503 0.043749999999999956 2.2216386631813232 -14.212694610286833 2.4625275289583475 0.034459203036053106
decision_type=2 2 2 2 2 2 2 2 2 2 2 2 2
left_child=1 2 3 4 5 7 9 8 12 -7 11 -11 -1
right_child=-2 -3 -4 -5 -6 6 -8 -9 -10 10 -12 -13 -14
leaf_value=-0.0035471925356735791 -0.019924047370509738 0.019538798381884895 0.019560182084770582 -0.022509934712822241 -0.017649038145883065 -0.0073110040725441654 0.022687733926608958 -0.020346304452554746 -0.0099515588640275866 -0.0058712663331206361 0.01284575524826556 0.0083289325135055842 0.011211209620038669
leaf_weight=30 34 45 38 30 33 40 37 33 46 39 43 41 30
leaf_count=30 34 45 38 30 33 40 37 33 46 39 43 41 30
internal_value=0 0.00139674 -0.000458701 -0.00235103 -0.000725315 0.000922127 0.0060594 -0.00646963 -0.00214954 0.00228487 0.00540548 0.00140634 0.00383201
internal_weight=0 485 440 402 372 339 200 139 106 163 123 80 60
internal_count=519 485 440 402 372 339 200 139 106 163 123 80 60
is_linear=0
shrinkage=0.2


Tree=26
num_leaves=14
num_cat=0
split_feature=90 82 608 450 153 150 223 154 354 71 71 155 523
split_gain=0.407086 0.403537 0.402901 0.225408 0.25237 0.273536 0.208041 0.245333 0.137073 0.128007 0.209286 0.109047 0.0619294
threshold=158.63103904241007 1.3483213355952544 0.21339896751247467 5.6606795634920646 -5.4782097338804396 16.30975059755297 -0.0019293830918492498 -3.4046485670365976 1.264270155210611 7.4962417711111113 7.4586299934762348 -1.1995979391486753 4.3197508654151902
decision_type=2 2 2 2 2 2 2 2 2 2 2 2 2
left_child=-1 2 3 4 -2 6 9 -8 -9 10 -6 12 -11
right_child=1 -3 -4 -5 5 -7 7 8 -10 11 -12 -13 -14
leaf_value=-0.021155385174514617 -0.017703940527093027 0.022494195575264338 0.021902209741153547 -0.01785855996859027 0.00058325226532249914 0.019386180061846975 -0.021836123463105074 -0.011169656399740942 0.0048226454014064016 -0.0001971876414285766 0.022165395197498584 -0.007089785568781995 0.011419922165993241
leaf_weight=34 31 34 31 32 41 30 33 36 53 45 32 56 31
leaf_count=34 31 34 31 32 41 30 33 36 53 45 32 56 31
internal_value=0 0.00148306 -0.00010093 -0.00172497 -0.000394366 0.00110871 -0.000568126 -0.00710737 -0.00164615 0.00332352 0.0100439 -0.000393059 0.00454137
internal_weight=0 485 451 420 388 357 327 122 89 205 73 132 76
internal_count=519 485 451 420 388 357 327 122 89 205 73 132 76
is_linear=0
shrinkage=0.2


Tree=27
num_leaves=15
num_cat=0
split_feature=604 503 528 398 398 97 231 33 499 588 398 533 147 223
split_gain=0.325553 0.307258 0.266505 0.235594 0.248384 0.205384 0.185714 0.165154 0.144544 0.142236 0.130423 0.123863 0.106704 0.119777
threshold=14.649880471834713 0.93299009229593877 0.83894920730898592 1.7444846602031769 1.5901740333834515 -0.082959458643240044 -0.0087506036106516968 1.8943239908337743 0.67554282279569355 3.6602355216755522 2.3300590661878839 22.287726918224504 -0.27571547816225411 -0.0045221329744904492
decision_type=2 2 2 2 2 2 2 2 2 2 2 2 2 2
left_child=1 2 -1 4 6 -5 9 -7 -8 -4 -9 -10 -13 -14
right_child=-2 -3 3 5 -6 7 8 10 11 -11 -12 12 13 -15
leaf_value=0.01622310433335401 -0.017821239814848493 0.019179971653890487 0.00086661661043763161 -0.02302266769266377 0.018985933813576897 -0.016329265551100817 0.016030039270408452 0.0095954095867152034 -0.010421103482405025 -0.016265280912852006 -0.0076775108655805103 -0.0047872660404725655 -0.00060941080155316749 0.015900248709397439
leaf_weight=37 38 36 36 30 30 31 30 36 31 42 34 37 32 39
leaf_count=37 38 36 36 30 30 31 30 36 31 42 34 37 32 39
internal_value=0 0.00140791 -2.98246e-05 -0.00150374 0.0018013 -0.00849227 -0.000285898 -0.00417632 0.0034398 -0.00835825 0.00120571 0.000722486 0.00392111 0.00845928
internal_weight=0 481 445 408 277 131 247 101 169 78 70 139 108 71
internal_count=519 481 445 408 277 131 247 101 169 78 70 139 108 71
is_linear=0
shrinkage=0.2


Tree=28
num_leaves=12
num_cat=0
split_feature=586 87 162 213 397 165 363 281 578 401 204
split_gain=0.286062 0.327869 0.207844 0.435079 0.178436 0.178224 0.191583 0.173486 0.135556 0.104805 0.0902321
threshold=3.6878604419247289 157.05276378158095 -12.875265308135786 -3.5647036390362463 6.4663327649041475 -16.70222956779973 10.936494464763156 0.9372903718549298 3.5479169658017287 0.29056656372060774 -0.22898893669858367
decision_type=2 2 2 2 2 2 2 2 2 2 2
left_child=1 -1 3 7 5 -4 -7 -3 -9 10 -8
right_child=-2 2 4 -5 -6 6 9 8 -10 -11 -12
leaf_value=0.021180014888523148 -0.01336779274013743 0.013563472707755864 0.0094417457702716256 0.027418560724735502 -0.014152167828634699 -0.013273199409115734 0.012072147677342097 0.0029898725905352173 -0.013605768765722002 -0.0082326386401147932 -0.00071763628276816588
leaf_weight=32 57 30 54 31 47 57 36 45 35 38 57
leaf_count=32 57 30 54 31 47 57 36 45 35 38 57
internal_value=0 0.00164927 0.000195823 0.00649094 -0.0028755 -0.000685398 -0.00359426 0.00059315 -0.00427072 0.000617189 0.00423325
internal_weight=0 462 430 141 289 242 188 110 80 131 93
internal_count=519 462 430 141 289 242 188 110 80 131 93
is_linear=0
shrinkage=0.2


Tree=29
num_leaves=15
num_cat=0
split_feature=557 87 87 460 181 480 497 609 145 71 201 129 291 136
split_gain=0.308315 0.287661 0.230302 0.301755 0.254004 0.167328 0.106691 0.155866 0.139999 0.0852691 0.0687793 0.0683554 0.0463847 0.0386466
threshold=11.564261918143545 156.93365211526023 158.38619490593433 9.5897781909804092 0.14908943428125407 3.4500211010330064 0.024969949134129903 1.7651453633133236 0.34183712000000116 7.4356856758136916 -0.069300432812300541 -159.42603550295857 0.94205763282658517 -693.97814539845137
decision_type=2 2 2 2 2 2 2 2 2 2 2 2 2 2
left_child=1 -1 -3 4 5 6 8 -8 9 -4 -9 -12 13 -11
right_child=-2 2 3 -5 -6 -7 7 10 -10 12 11 -13 -14 -15
leaf_value=0.020405004459122817 -0.016427744398935743 -0.015401333581124034 -0.010148291354998947 0.020472594451219326 -0.017710342590386671 0.015250402633682825 0.014687839309335688 0.0081782013333092148 -0.015715391887351871 0.0034635610381762191 0.0027715531082298512 -0.0091473835152818973 0.0064728600322268908 -0.006454767798299366
leaf_weight=30 42 35 30 31 30 32 40 30 30 30 39 38 49 33
leaf_count=30 42 35 30 31 30 32 40 30 30 30 39 38 49 33
internal_value=0 0.00144647 0.000174083 0.00149724 -4.66894e-05 0.00146302 7.99647e-05 0.00403639 -0.0033014 -0.000678726 5.45424e-05 -0.00311052 0.00185776 -0.00173175
internal_weight=0 477 447 412 381 351 319 147 172 142 107 77 112 63
internal_count=519 477 447 412 381 351 319 147 172 142 107 77 112 63
is_linear=0
shrinkage=0.2


Tree=30
num_leaves=13
num_cat=0
split_feature=40 41 526 527 340 298 87 514 7 281 321 102
split_gain=0.294668 0.294834 0.299352 0.257653 0.126693 0.152135 0.147666 0.106007 0.0621043 0.0723394 0.0572474 0.0893663
threshold=2.8789543789543797 2.6620318642665017 0.53365763789206344 0.75856285755971242 1.1640013518110524 1.2190061260474108 158.38619490593433 0.016249532070892806 4.1591138077250926 0.84831461680538023 1.1511072609416884 15.629050068941069
decision_type=2 2 2 2 2 2 2 2 2 2 2 2
left_child=1 2 -1 -4 5 6 -5 -8 9 -9 11 -11
right_child=-2 -3 3 4 -6 -7 7 8 -10 10 -12 -13
leaf_value=0.014037147770583068 -0.019240080934638779 0.020056637436632191 -0.018883906510856117 -0.010863455053671109 -0.012906491405641039 0.014252082761377098 0.011799292751785482 0.0083867067315926153 -0.0064031245661541258 -0.0094552190009077712 0.0066538942091527485 0.0023543389782902193
leaf_weight=53 30 31 33 48 30 30 33 45 52 48 31 55
leaf_count=53 30 31 33 48 30 30 33 45 52 48 31 55
internal_value=0 0.00118037 -9.7278e-05 -0.00194697 -0.000444498 0.000648659 -0.000659362 0.00119593 -0.000318839 0.00144866 -0.000881277 -0.00314914
internal_weight=0 489 458 405 372 342 312 264 231 179 134 103
internal_count=519 489 458 405 372 342 312 264 231 179 134 103
is_linear=0
shrinkage=0.2


end of trees

feature_importances:
Column_87=8
Column_2=5
Column_363=5
Column_545=5
Column_40=4
Column_136=4
Column_176=4
Column_231=4
Column_340=4
Column_357=4
Column_394=4
Column_490=4
Column_526=4
Column_591=4
Column_5=3
Column_36=3
Column_41=3
Column_69=3
Column_71=3
Column_82=3
Column_86=3
Column_119=3
Column_134=3
Column_161=3
Column_163=3
Column_181=3
Column_239=3
Column_265=3
Column_290=3
Column_311=3
Column_322=3
Column_334=3
Column_361=3
Column_398=3
Column_436=3
Column_450=3
Column_480=3
Column_494=3
Column_528=3
Column_543=3
Column_573=3
Column_577=3
Column_633=3
Column_26=2
Column_32=2
Column_33=2
Column_57=2
Column_92=2
Column_93=2
Column_95=2
Column_102=2
Column_104=2
Column_107=2
Column_108=2
Column_147=2
Column_154=2
Column_155=2
Column_162=2
Column_171=2
Column_184=2
Column_213=2
Column_220=2
Column_222=2
Column_223=2
Column_240=2
Column_243=2
Column_249=2
Column_251=2
Column_267=2
Column_269=2
Column_271=2
Column_273=2
Column_281=2
Column_291=2
Column_305=2
Column_320=2
Column_324=2
Column_374=2
Column_384=2
Column_401=2
Column_402=2
Column_447=2
Column_483=2
Column_497=2
Column_500=2
Column_523=2
Column_559=2
Column_568=2
Column_580=2
Column_586=2
Column_668=2
Column_671=2
Column_673=2
Column_6=1
Column_7=1
Column_8=1
Column_9=1
Column_29=1
Column_37=1
Column_39=1
Column_43=1
Column_45=1
Column_47=1
Column_49=1
Column_50=1
Column_52=1
Column_61=1
Column_66=1
Column_80=1
Column_83=1
Column_88=1
Column_89=1
Column_90=1
Column_91=1
Column_94=1
Column_96=1
Column_97=1
Column_98=1
Column_111=1
Column_112=1
Column_114=1
Column_115=1
Column_118=1
Column_122=1
Column_125=1
Column_127=1
Column_128=1
Column_129=1
Column_132=1
Column_135=1
Column_143=1
Column_145=1
Column_150=1
Column_151=1
Column_153=1
Column_156=1
Column_157=1
Column_159=1
Column_160=1
Column_165=1
Column_166=1
Column_167=1
Column_168=1
Column_169=1
Column_170=1
Column_174=1
Column_175=1
Column_177=1
Column_180=1
Column_189=1
Column_198=1
Column_199=1
Column_201=1
Column_204=1
Column_206=1
Column_210=1
Column_216=1
Column_218=1
Column_224=1
Column_226=1
Column_230=1
Column_237=1
Column_241=1
Column_244=1
Column_246=1
Column_257=1
Column_259=1
Column_261=1
Column_266=1
Column_268=1
Column_278=1
Column_279=1
Column_282=1
Column_283=1
Column_284=1
Column_289=1
Column_296=1
Column_298=1
Column_300=1
Column_304=1
Column_306=1
Column_307=1
Column_317=1
Column_321=1
Column_331=1
Column_338=1
Column_339=1
Column_344=1
Column_348=1
Column_350=1
Column_354=1
Column_356=1
Column_360=1
Column_364=1
Column_387=1
Column_390=1
Column_392=1
Column_397=1
Column_403=1
Column_406=1
Column_412=1
Column_435=1
Column_437=1
Column_460=1
Column_476=1
Column_487=1
Column_499=1
Column_503=1
Column_507=1
Column_514=1
Column_525=1
Column_527=1
Column_529=1
Column_533=1
Column_534=1
Column_539=1
Column_547=1
Column_553=1
Column_557=1
Column_560=1
Column_570=1
Column_571=1
Column_572=1
Column_578=1
Column_582=1
Column_588=1
Column_604=1
Column_605=1
Column_606=1
Column_608=1
Column_609=1
Column_651=1
Column_653=1
Column_658=1
Column_666=1
Column_669=1
Column_672=1
Column_674=1
Column_675=1
Column_677=1
Column_680=1

parameters:
[boosting: gbdt]
[objective: regression]
[metric: rmse]
[tree_learner: serial]
[device_type: cpu]
[linear_tree: 0]
[data: ]
[valid: ]
[num_iterations: 10000]
[learning_rate: 0.2]
[num_leaves: 95]
[num_threads: 0]
[deterministic: 0]
[force_col_wise: 0]
[force_row_wise: 0]
[histogram_pool_size: -1]
[max_depth: -1]
[min_data_in_leaf: 30]
[min_sum_hessian_in_leaf: 0.001]
[bagging_fraction: 0.9]
[pos_bagging_fraction: 1]
[neg_bagging_fraction: 1]
[bagging_freq: 0]
[bagging_seed: 300]
[feature_fraction: 0.8]
[feature_fraction_bynode: 1]
[feature_fraction_seed: 561]
[extra_trees: 0]
[extra_seed: 32272]
[early_stopping_round: 50]
[first_metric_only: 0]
[max_delta_step: 0]
[lambda_l1: 0]
[lambda_l2: 0]
[linear_lambda: 0]
[min_gain_to_split: 0]
[drop_rate: 0.1]
[max_drop: 50]
[skip_drop: 0.5]
[xgboost_dart_mode: 0]
[uniform_drop: 0]
[drop_seed: 25900]
[top_rate: 0.2]
[other_rate: 0.1]
[min_data_per_group: 100]
[max_cat_threshold: 32]
[cat_l2: 10]
[cat_smooth: 10]
[max_cat_to_onehot: 4]
[top_k: 20]
[monotone_constraints: ]
[monotone_constraints_method: basic]
[monotone_penalty: 0]
[feature_contri: ]
[forcedsplits_filename: ]
[refit_decay_rate: 0.9]
[cegb_tradeoff: 1]
[cegb_penalty_split: 0]
[cegb_penalty_feature_lazy: ]
[cegb_penalty_feature_coupled: ]
[path_smooth: 0]
[interaction_constraints: ]
[verbosity: -1]
[saved_feature_importance_type: 0]
[max_bin: 255]
[max_bin_by_feature: ]
[min_data_in_bin: 3]
[bin_construct_sample_cnt: 200000]
[data_random_seed: 10827]
[is_enable_sparse: 1]
[enable_bundle: 1]
[use_missing: 1]
[zero_as_missing: 0]
[feature_pre_filter: 1]
[pre_partition: 0]
[two_round: 0]
[header: 0]
[label_column: ]
[weight_column: ]
[group_column: ]
[ignore_column: ]
[categorical_feature: ]
[forcedbins_filename: ]
[objective_seed: 1860]
[num_class: 1]
[is_unbalance: 0]
[scale_pos_weight: 1]
[sigmoid: 1]
[boost_from_average: 1]
[reg_sqrt: 0]
[alpha: 0.9]
[fair_c: 1]
[poisson_max_delta_step: 0.7]
[tweedie_variance_power: 1.5]
[lambdarank_truncation_level: 30]
[lambdarank_norm: 1]
[label_gain: ]
[eval_at: ]
[multi_error_top_k: 1]
[auc_mu_weights: ]
[num_machines: 1]
[local_listen_port: 12400]
[time_out: 120]
[machine_list_filename: ]
[machines: ]
[gpu_platform_id: -1]
[gpu_device_id: -1]
[gpu_use_dp: 0]
[num_gpu: 1]

end of parameters

pandas_categorical:null
