tree
version=v4
num_class=1
num_tree_per_iteration=1
label_index=0
max_feature_idx=1021
objective=regression
feature_names=Column_0 Column_1 Column_2 Column_3 Column_4 Column_5 Column_6 Column_7 Column_8 Column_9 Column_10 Column_11 Column_12 Column_13 Column_14 Column_15 Column_16 Column_17 Column_18 Column_19 Column_20 Column_21 Column_22 Column_23 Column_24 Column_25 Column_26 Column_27 Column_28 Column_29 Column_30 Column_31 Column_32 Column_33 Column_34 Column_35 Column_36 Column_37 Column_38 Column_39 Column_40 Column_41 Column_42 Column_43 Column_44 Column_45 Column_46 Column_47 Column_48 Column_49 Column_50 Column_51 Column_52 Column_53 Column_54 Column_55 Column_56 Column_57 Column_58 Column_59 Column_60 Column_61 Column_62 Column_63 Column_64 Column_65 Column_66 Column_67 Column_68 Column_69 Column_70 Column_71 Column_72 Column_73 Column_74 Column_75 Column_76 Column_77 Column_78 Column_79 Column_80 Column_81 Column_82 Column_83 Column_84 Column_85 Column_86 Column_87 Column_88 Column_89 Column_90 Column_91 Column_92 Column_93 Column_94 Column_95 Column_96 Column_97 Column_98 Column_99 Column_100 Column_101 Column_102 Column_103 Column_104 Column_105 Column_106 Column_107 Column_108 Column_109 Column_110 Column_111 Column_112 Column_113 Column_114 Column_115 Column_116 Column_117 Column_118 Column_119 Column_120 Column_121 Column_122 Column_123 Column_124 Column_125 Column_126 Column_127 Column_128 Column_129 Column_130 Column_131 Column_132 Column_133 Column_134 Column_135 Column_136 Column_137 Column_138 Column_139 Column_140 Column_141 Column_142 Column_143 Column_144 Column_145 Column_146 Column_147 Column_148 Column_149 Column_150 Column_151 Column_152 Column_153 Column_154 Column_155 Column_156 Column_157 Column_158 Column_159 Column_160 Column_161 Column_162 Column_163 Column_164 Column_165 Column_166 Column_167 Column_168 Column_169 Column_170 Column_171 Column_172 Column_173 Column_174 Column_175 Column_176 Column_177 Column_178 Column_179 Column_180 Column_181 Column_182 Column_183 Column_184 Column_185 Column_186 Column_187 Column_188 Column_189 Column_190 Column_191 Column_192 Column_193 Column_194 Column_195 Column_196 Column_197 Column_198 Column_199 Column_200 Column_201 Column_202 Column_203 Column_204 Column_205 Column_206 Column_207 Column_208 Column_209 Column_210 Column_211 Column_212 Column_213 Column_214 Column_215 Column_216 Column_217 Column_218 Column_219 Column_220 Column_221 Column_222 Column_223 Column_224 Column_225 Column_226 Column_227 Column_228 Column_229 Column_230 Column_231 Column_232 Column_233 Column_234 Column_235 Column_236 Column_237 Column_238 Column_239 Column_240 Column_241 Column_242 Column_243 Column_244 Column_245 Column_246 Column_247 Column_248 Column_249 Column_250 Column_251 Column_252 Column_253 Column_254 Column_255 Column_256 Column_257 Column_258 Column_259 Column_260 Column_261 Column_262 Column_263 Column_264 Column_265 Column_266 Column_267 Column_268 Column_269 Column_270 Column_271 Column_272 Column_273 Column_274 Column_275 Column_276 Column_277 Column_278 Column_279 Column_280 Column_281 Column_282 Column_283 Column_284 Column_285 Column_286 Column_287 Column_288 Column_289 Column_290 Column_291 Column_292 Column_293 Column_294 Column_295 Column_296 Column_297 Column_298 Column_299 Column_300 Column_301 Column_302 Column_303 Column_304 Column_305 Column_306 Column_307 Column_308 Column_309 Column_310 Column_311 Column_312 Column_313 Column_314 Column_315 Column_316 Column_317 Column_318 Column_319 Column_320 Column_321 Column_322 Column_323 Column_324 Column_325 Column_326 Column_327 Column_328 Column_329 Column_330 Column_331 Column_332 Column_333 Column_334 Column_335 Column_336 Column_337 Column_338 Column_339 Column_340 Column_341 Column_342 Column_343 Column_344 Column_345 Column_346 Column_347 Column_348 Column_349 Column_350 Column_351 Column_352 Column_353 Column_354 Column_355 Column_356 Column_357 Column_358 Column_359 Column_360 Column_361 Column_362 Column_363 Column_364 Column_365 Column_366 Column_367 Column_368 Column_369 Column_370 Column_371 Column_372 Column_373 Column_374 Column_375 Column_376 Column_377 Column_378 Column_379 Column_380 Column_381 Column_382 Column_383 Column_384 Column_385 Column_386 Column_387 Column_388 Column_389 Column_390 Column_391 Column_392 Column_393 Column_394 Column_395 Column_396 Column_397 Column_398 Column_399 Column_400 Column_401 Column_402 Column_403 Column_404 Column_405 Column_406 Column_407 Column_408 Column_409 Column_410 Column_411 Column_412 Column_413 Column_414 Column_415 Column_416 Column_417 Column_418 Column_419 Column_420 Column_421 Column_422 Column_423 Column_424 Column_425 Column_426 Column_427 Column_428 Column_429 Column_430 Column_431 Column_432 Column_433 Column_434 Column_435 Column_436 Column_437 Column_438 Column_439 Column_440 Column_441 Column_442 Column_443 Column_444 Column_445 Column_446 Column_447 Column_448 Column_449 Column_450 Column_451 Column_452 Column_453 Column_454 Column_455 Column_456 Column_457 Column_458 Column_459 Column_460 Column_461 Column_462 Column_463 Column_464 Column_465 Column_466 Column_467 Column_468 Column_469 Column_470 Column_471 Column_472 Column_473 Column_474 Column_475 Column_476 Column_477 Column_478 Column_479 Column_480 Column_481 Column_482 Column_483 Column_484 Column_485 Column_486 Column_487 Column_488 Column_489 Column_490 Column_491 Column_492 Column_493 Column_494 Column_495 Column_496 Column_497 Column_498 Column_499 Column_500 Column_501 Column_502 Column_503 Column_504 Column_505 Column_506 Column_507 Column_508 Column_509 Column_510 Column_511 Column_512 Column_513 Column_514 Column_515 Column_516 Column_517 Column_518 Column_519 Column_520 Column_521 Column_522 Column_523 Column_524 Column_525 Column_526 Column_527 Column_528 Column_529 Column_530 Column_531 Column_532 Column_533 Column_534 Column_535 Column_536 Column_537 Column_538 Column_539 Column_540 Column_541 Column_542 Column_543 Column_544 Column_545 Column_546 Column_547 Column_548 Column_549 Column_550 Column_551 Column_552 Column_553 Column_554 Column_555 Column_556 Column_557 Column_558 Column_559 Column_560 Column_561 Column_562 Column_563 Column_564 Column_565 Column_566 Column_567 Column_568 Column_569 Column_570 Column_571 Column_572 Column_573 Column_574 Column_575 Column_576 Column_577 Column_578 Column_579 Column_580 Column_581 Column_582 Column_583 Column_584 Column_585 Column_586 Column_587 Column_588 Column_589 Column_590 Column_591 Column_592 Column_593 Column_594 Column_595 Column_596 Column_597 Column_598 Column_599 Column_600 Column_601 Column_602 Column_603 Column_604 Column_605 Column_606 Column_607 Column_608 Column_609 Column_610 Column_611 Column_612 Column_613 Column_614 Column_615 Column_616 Column_617 Column_618 Column_619 Column_620 Column_621 Column_622 Column_623 Column_624 Column_625 Column_626 Column_627 Column_628 Column_629 Column_630 Column_631 Column_632 Column_633 Column_634 Column_635 Column_636 Column_637 Column_638 Column_639 Column_640 Column_641 Column_642 Column_643 Column_644 Column_645 Column_646 Column_647 Column_648 Column_649 Column_650 Column_651 Column_652 Column_653 Column_654 Column_655 Column_656 Column_657 Column_658 Column_659 Column_660 Column_661 Column_662 Column_663 Column_664 Column_665 Column_666 Column_667 Column_668 Column_669 Column_670 Column_671 Column_672 Column_673 Column_674 Column_675 Column_676 Column_677 Column_678 Column_679 Column_680 Column_681 Column_682 Column_683 Column_684 Column_685 Column_686 Column_687 Column_688 Column_689 Column_690 Column_691 Column_692 Column_693 Column_694 Column_695 Column_696 Column_697 Column_698 Column_699 Column_700 Column_701 Column_702 Column_703 Column_704 Column_705 Column_706 Column_707 Column_708 Column_709 Column_710 Column_711 Column_712 Column_713 Column_714 Column_715 Column_716 Column_717 Column_718 Column_719 Column_720 Column_721 Column_722 Column_723 Column_724 Column_725 Column_726 Column_727 Column_728 Column_729 Column_730 Column_731 Column_732 Column_733 Column_734 Column_735 Column_736 Column_737 Column_738 Column_739 Column_740 Column_741 Column_742 Column_743 Column_744 Column_745 Column_746 Column_747 Column_748 Column_749 Column_750 Column_751 Column_752 Column_753 Column_754 Column_755 Column_756 Column_757 Column_758 Column_759 Column_760 Column_761 Column_762 Column_763 Column_764 Column_765 Column_766 Column_767 Column_768 Column_769 Column_770 Column_771 Column_772 Column_773 Column_774 Column_775 Column_776 Column_777 Column_778 Column_779 Column_780 Column_781 Column_782 Column_783 Column_784 Column_785 Column_786 Column_787 Column_788 Column_789 Column_790 Column_791 Column_792 Column_793 Column_794 Column_795 Column_796 Column_797 Column_798 Column_799 Column_800 Column_801 Column_802 Column_803 Column_804 Column_805 Column_806 Column_807 Column_808 Column_809 Column_810 Column_811 Column_812 Column_813 Column_814 Column_815 Column_816 Column_817 Column_818 Column_819 Column_820 Column_821 Column_822 Column_823 Column_824 Column_825 Column_826 Column_827 Column_828 Column_829 Column_830 Column_831 Column_832 Column_833 Column_834 Column_835 Column_836 Column_837 Column_838 Column_839 Column_840 Column_841 Column_842 Column_843 Column_844 Column_845 Column_846 Column_847 Column_848 Column_849 Column_850 Column_851 Column_852 Column_853 Column_854 Column_855 Column_856 Column_857 Column_858 Column_859 Column_860 Column_861 Column_862 Column_863 Column_864 Column_865 Column_866 Column_867 Column_868 Column_869 Column_870 Column_871 Column_872 Column_873 Column_874 Column_875 Column_876 Column_877 Column_878 Column_879 Column_880 Column_881 Column_882 Column_883 Column_884 Column_885 Column_886 Column_887 Column_888 Column_889 Column_890 Column_891 Column_892 Column_893 Column_894 Column_895 Column_896 Column_897 Column_898 Column_899 Column_900 Column_901 Column_902 Column_903 Column_904 Column_905 Column_906 Column_907 Column_908 Column_909 Column_910 Column_911 Column_912 Column_913 Column_914 Column_915 Column_916 Column_917 Column_918 Column_919 Column_920 Column_921 Column_922 Column_923 Column_924 Column_925 Column_926 Column_927 Column_928 Column_929 Column_930 Column_931 Column_932 Column_933 Column_934 Column_935 Column_936 Column_937 Column_938 Column_939 Column_940 Column_941 Column_942 Column_943 Column_944 Column_945 Column_946 Column_947 Column_948 Column_949 Column_950 Column_951 Column_952 Column_953 Column_954 Column_955 Column_956 Column_957 Column_958 Column_959 Column_960 Column_961 Column_962 Column_963 Column_964 Column_965 Column_966 Column_967 Column_968 Column_969 Column_970 Column_971 Column_972 Column_973 Column_974 Column_975 Column_976 Column_977 Column_978 Column_979 Column_980 Column_981 Column_982 Column_983 Column_984 Column_985 Column_986 Column_987 Column_988 Column_989 Column_990 Column_991 Column_992 Column_993 Column_994 Column_995 Column_996 Column_997 Column_998 Column_999 Column_1000 Column_1001 Column_1002 Column_1003 Column_1004 Column_1005 Column_1006 Column_1007 Column_1008 Column_1009 Column_1010 Column_1011 Column_1012 Column_1013 Column_1014 Column_1015 Column_1016 Column_1017 Column_1018 Column_1019 Column_1020 Column_1021
feature_infos=[0:4] [0:3] [0:38] [0:39] [18:150] [10:79] [0:1] [0:6] [0:18] [4:71] [8:61] [0:8] [0:15] [0:3] [0:7] [0:4] [0:2] [0:2] [0:7] [84:1066.8888888888889] [86:932.66666666666686] [94:1610] [76:1592.3333333333337] [48:1672.7777777777778] [32:1654.6666666666663] [10.333333333333332:1974] [0:1651.6666666666663] [0:1453] [54:491] [66:623] [98:1002] [99:1210] [71:1295] [55:1339] [23:1350] [9:1480] [1:1588] [386:7488] [446:5001] [548:6079] [502:7153] [382:7662] [310:8176] [190:8361] [54:7790] [2:8061] [1507.7819699999991:42147.005223000015] [1628.0312460000005:23088.733741999986] [1914.317211:22732.175006670404] [1669.2428409999995:26424.67704000001] [1222.1113620000001:32876.96849900089] [1017.071581:29500.346485835194] [524.46443799999997:30366.246073467199] [90.93168:28210.254950999999] [2.0321280000000002:27698.089846999999] [4247.7684936091673:32819.477372529909] [5245.987840384917:41971.115880313744] [6932.2774641028027:62209.875430488428] [6736.9776510639658:75037.013874177821] [5137.4189478887984:82464.407848253686] [3808.2392109285629:86280.199316112412] [1752.3473709557741:84465.698347129248] [703.98427628596858:84355.083373986723] [62.167488861860527:92530.365114811706] [148.92040900000003:1151.845378] [145.11786200000003:1212.3312639999997] [223.67486:2174.432053999999] [258.43433500000003:2856.4039440000001] [221.54729499999999:3271.6257830000004] [170.06452700000003:3600.8073280000003] [107.50120200000001:3776.9806760000001] [51.668114000000003:4155.3128160000006] [7.6645440000000002:4732.0316679999996] [121.30549999999999:931.39769999999999] [122.961:1008.8726999999996] [187.10300000000001:1786.0667999999998] [214.62200000000001:2316.2220000000007] [182.92089999999999:2645.2193000000007] [138.35150000000002:2888.3362999999999] [84.626000000000005:3023.2617] [38.897000000000006:3322.6075000000001] [5.676000000000001:3768.7991999999999] [116.77079999999999:920.4065999999998] [116.25:983.1028] [177.46500000000003:1755.5979999999995] [200.01689999999999:2279.0819999999994] [168.55090000000004:2601.692500000001] [128.8109:2839.1868000000004] [82.597999999999999:2995.5390000000002] [37.384:3287.8379000000004] [5.3680000000000003:3729.5019000000002] [30.066554858187992:665.0626820969801] [37.580515689999999:296.07795997999989] [52.705553484547004:444.00617884201688] [54.849974568188003:550.10148648433585] [43.84011146788599:616.22692172203392] [32.304501297885999:655.34826066350411] [15.364254499396001:636.19160792042703] [5.6119826025470001:635.31018072867187] [0.88922580969799991:706.76220909929293] [2679.9782177477964:24318.324538534383] [2489.2742316466001:22729.300158825601] [3942.2070731709491:43349.539481635853] [4498.5335214350207:58628.212923762709] [3928.7743376654798:69871.833891077127] [3214.6155702947271:74802.258623345377] [2388.8145761932783:79733.674893886433] [1062.254688757688:88656.897127552846] [140.88000546443001:101708.84272946714] [2.0014392048393264:15.282051282051285] [2.1000000000000001:12.212121212121213] [1.1754385964912282:12.89300411522634] [0.69135802469135799:9.3047619047619037] [0.53846153846153844:10.057471264367816] [0.5423728813559322:12.031746031746032] [0.14457831325301199:9.8371212121212128] [0:9.6060606060606073] [0:8.7903225806451619] [2.098360655737705:4.2926829268292686] [2.75:5.1538461538461542] [2.2982456140350882:4.9150943396226419] [1.8765432098765431:4.2696629213483144] [1.7681159420289856:3.90625] [1.5833333333333333:3.8095238095238089] [1.2666666666666666:3.7619047619047619] [1:3.5454545454545454] [1:3.3870967741935485] [14.050000000000001:226] [17.300000000000001:78.140625] [11.456140350877194:52.407407407407405] [7.9506172839506171:60.733333333333327] [7.4038461538461542:65.07692307692308] [6.806451612903226:57.142857142857146] [4.5421686746987948:69.375] [1.8333333333333333:187] [1:343.5] [54.405883699999997:1190.7367417767168] [61.763364566666631:360.76146471874972] [37.72062367543861:219.09284445074067] [25.065642895061721:252.17058427233329] [22.855991012820507:266.72203380961543] [20.411989612903227:241.34166972238091] [10.396831831325301:305.03681695875002] [2.8645679999999998:875.4600654599999] [1.0160640000000001:1644.1806766074999] [171.42074004485076:373.4176680008261] [222.83072831188568:361.53735299328696] [160.1541035728753:319.34956596461268] [118.73168820896352:303.33348113024016] [102.08234448850681:277.07770915747346] [91.879231427418006:293.06993155720068] [80.033424974806081:297.89140653931702] [45.025889754194992:396.2075469997755] [31.083744430930263:510.58996730806354] [7.0642350666666651:9.0832069743589727] [7.3169221609195398:8.3635709268292651] [7.2130424912280677:8.9390375999999971] [7.0536860493827156:8.6144778333333338] [7.027764564102565:8.6045796712328766] [7.0169171428571451:8.6861628] [6.9997834216867476:9.3266208000000006] [6.784991999999999:8.7204305454545459] [6.718464:9.6002342916666681] [5.4952349999999992:7.8652512820512772] [5.9997250000000006:7.1725121951219508] [5.7391929824561396:7.7373864197530864] [5.4540339506172844:7.197815189873416] [5.3961597938144319:7.2356808219178079] [5.3825764705882353:7.361027173913044] [5.3046867469879517:7.5966933333333309] [4.9683333333333346:7.3072390476190492] [4.8400000000000016:8.082052083333334] [5.4099149999999989:7.9475615384615326] [5.8462500000000004:7.0635121951219508] [5.6286052631578931:7.7393679012345666] [5.3768888888888879:7.1828987341772175] [5.3154226804123708:7.1991095890410968] [5.3166823529411777:7.3383695652173913] [5.249301204819278:7.730466666666663] [4.9500000000000002:7.3390571428571389] [4.8400000000000016:8.062811764705879] [1.2325615493726072:13.572707797897554] [1.5796759795737711:2.9062892751562504] [1.2799808498604848:2.4186198050684817] [1.0370560921607035:2.3944742895333331] [0.89512162473363788:2.3254919029230767] [0.73508490884055022:2.2658705740260481] [0.62043138572136658:2.8380075331061247] [0.51018023659518186:4.719020433999999] [0.4446129048489999:6.9513606374999988] [148.88767876376647:182.2984624986947] [136.74016528192303:156.76111650364098] [140.17900936518808:171.86035134469864] [146.06022673641309:173.22135061896341] [145.96310190378304:181.76087326596431] [146.61098622983661:179.75589448158237] [149.30091101207989:183.11003183186835] [143.76524488390601:189.37554644455369] [135.33816579224501:208.91332052219039] [0.097479755086107095:3.6390110140183984] [-1.8921007951861604:0.033361748406046499] [-0.70287792368224833:0.84278703409616673] [-0.63302502541409189:1.4260199597864869] [-1.0206417172927791:0.905527041271046] [-0.91016607949758921:0.91851081477586505] [-0.80312126663052874:0.98915674543880761] [-1.0883400489267756:0.90949414112898397] [-1.2744475204510279:1.3538369961737011] [49.913043478260896:597.54370370370373] [-5.9596443290137024:184.45372781065083] [-76.845207100591722:264.57704533228991] [-176.49562232300323:180.1937716262976] [-275.6840513983372:191.22811316551571] [-189.09274673008329:264.38674556213016] [-260.3963667098721:482.42214532871969] [-224.56496152105024:236.73964497041416] [-343.32596543209871:164.82627269490922] [7.4545454545454533:97.340000000000003] [-2.1242603550295827:39.697500301895907] [-17.029333333333327:19.849172805216764] [-38.228180473372781:20.594493418669249] [-33.606799999999993:15.832503395201446] [-37.686511290906907:27.001275510204085] [-42.576500422654242:24.604970414201176] [-55.15227629513344:26.650517751479285] [-58.540514430624327:18.069943289224941] [147.9130434782609:5855.9354838709714] [-128.11117494972706:1815.2934443288248] [-234.64669421487605:957.8387864366448] [-2079.9469302809571:859.49379108838582] [-1042.9094693028098:2727.3497164461246] [-1358.9090909090912:992.99226650803098] [-1285.7647999999999:724.4809688581314] [-2038.4075:802.12345679012344] [-2447.2577777777783:1076.7850040311739] [712.92353086956473:35505.83674896774] [-670.16291485524141:9107.2116077596329] [-1230.2362535904465:5220.0854257463507] [-11775.115767828309:3932.5608789240337] [-5484.2096762611845:15952.162212225125] [-7783.353181430306:5520.0489060020491] [-6911.7218116011481:3559.4851697986701] [-10626.961213589377:4271.3557468281406] [-13845.314076255374:5583.3832565755874] [760.82196947148157:7745.8013834672756] [-258.94545620155083:449.17966123787113] [-1308.8402375145497:1904.2548511880768] [-3429.8382366955875:2367.5335188106442] [-3221.6115521351021:2970.1442835596868] [-2453.305733815117:3133.4534583420404] [-2722.9823364270592:3142.3758356054705] [-3644.5534660825488:2355.2456441811341] [-2542.1936430427759:2999.446160789425] [0.40245894999999982:14.32213875409836] [-2.5402275350981545:2.4265587541270013] [-2.3171625656804755:12.809108449972957] [-3.3283379841440528:8.1382910799444552] [-5.1878313846153858:5.0578588828402351] [-4.3925932781065073:8.2703569227233604] [-5.2958647066789757:19.953023461072664] [-7.2420309276700534:5.2228941871455543] [-9.9010954285714288:8.20293177928089] [0.91225499999999915:20.745593442622948] [-2.9104704937537136:2.5127738492444851] [-2.9996271946805435:19.1072687398594] [-5.2441749260951251:11.10524009876543] [-9.0995266581632706:8.4068170604914965] [-7.1118068040692028:11.341506894570518] [-7.9406389143964748:29.493180730968824] [-10.759326746691285:8.2275364260354689] [-14.888385714285706:11.071288323246696] [0.83209499999999914:23.730068852459009] [-3.4163220107079022:2.2903744037023892] [-3.5292293491124198:22.62553423472146] [-5.513124428916945:13.222291209876538] [-9.4872251594387684:9.2672285444234337] [-7.4321769586470801:13.226031255386372] [-8.8880177285318585:34.055230817473998] [-12.523497506925189:8.9875183837429091] [-17.243310714285702:13.053621146315397] [4.8326895755399972:531.53521484433509] [-4.1072126244358191:17.890835135892214] [-6.2714815911928845:16.379899151421302] [-34.943364196551023:15.121993780644599] [-24.45122982429104:25.680965048430028] [-16.90165022800657:22.012422789735179] [-14.548394950822036:18.167319348883986] [-17.306317068303652:27.086636092766621] [-23.128453036472688:23.226334685598559] [22.562483969819091:244.62424203751129] [-45.292342189358848:16.409267638270052] [-48.393496475159779:193.94560119402439] [-107.7194433843591:74.056009927918495] [-94.687435592982894:65.828359309062449] [-163.39969290414575:120.76868260960474] [-102.9129405094636:298.69325281491751] [-133.76681847738624:87.038727735851381] [-133.4814279489899:106.31406146319959] [0.0020817216232447999:0.061665127951183403] [-0.043596383975617797:0.00090166887583899996] [-0.0094539261342598997:0.0128667574771288] [-0.0081512827112282995:0.013006708850715301] [-0.0097170250911934996:0.0062013997267405] [-0.0075095672988733002:0.0133250532742659] [-0.012355711794315801:0.029440210122559901] [-0.0644874930049575:0.0121549511206581] [-0.013430987925422499:0.087790840964325698] [1.3215903950772123:6.4352399737015133] [-0.15281139305163341:2.1200941915227629] [-0.87736422293349625:2.8791071583572041] [-1.0852122854561881:2.0476564957533814] [-1.8125:1.5319228900642581] [-2.2632575757575761:1.3629629629629629] [-1.7904974489795915:1.7621343117748891] [-3.8520710059171601:3.0776643990929688] [-5.5017301038062278:5.6863905325443787] [0.2655555555555556:1.0740941049215793] [-0.0518112281714532:0.530306077303624] [-0.1932666666666667:0.1582072284696191] [-0.24183765445235911:0.093611111111111103] [-0.25678432972862669:0.10964696416572869] [-0.3238636363636363:0.16527777777777769] [-0.2688659793814433:0.1827797425655843] [-0.22064837692766451:0.3482142857142857] [-0.50226165454316518:0.5625] [5.9275000000000002:136.80246913580245] [-2.9752066115702487:27.927591451212699] [-2.7605493437044242:12.545166666666663] [-11.885411030176895:10.232068941528402] [-29.528964862298206:19.621220981626795] [-9.5028607755880508:7.8218694885361568] [-13.1983024691358:5.925914375314032] [-47.746913580246897:12.371900826446282] [-53.691358024691368:18.325500925404366] [28.643153210000001:787.65422585949182] [-13.765680582644642:140.11094781168666] [-14.473367689299373:68.403923678624992] [-67.286375816161765:46.816200939571829] [-161.49973717162692:114.7637569224829] [-54.429043226785353:40.889251155570733] [-71.49731665809378:31.152824470554371] [-273.35653029529499:57.957703125516574] [-345.11911444531245:83.866790095715075] [36.229617593880072:75.165776023564518] [-5.6712008981289923:7.5395857417514192] [-11.48105471503991:16.821824017883436] [-20.131494655489789:18.777605820333712] [-26.338008818767968:22.331911906463809] [-22.054956132086275:17.382210154584374] [-25.74586261212897:24.16476003778234] [-33.179485392135582:31.534855604452467] [-88.793392905648304:60.105209792625608] [0.0058592875598780002:0.26870273767258379] [-0.043943372781064999:0.024194790621980301] [-0.028283638888888799:0.1581371413576908] [-0.030066799375583798:0.050366313306071102] [-0.066510658777120299:0.053642854135798397] [-0.049504919742883298:0.060792869430878797] [-0.0527724379455538:0.1194106556213017] [-0.14415677514792891:0.1035323752834466] [-0.14513241322314019:0.099613071005917098] [0.0302649150820147:0.38853228139381968] [-0.059825443786982298:0.034163696409499997] [-0.0267626001741386:0.23589220666493069] [-0.048868860003303503:0.098276461051021502] [-0.087631459566074807:0.079466691361205904] [-0.073093186409549996:0.082979971059827295] [-0.075335918414140904:0.16123301896516179] [-0.20270618612157071:0.16025972222222221] [-0.2144794550173009:0.1816071005917165] [0.0222354478153577:0.45260236686390498] [-0.0677955621301774:0.040899542923256899] [-0.0302612034574468:0.2793275831447094] [-0.053042122432873803:0.1170114266360755] [-0.10509142011834301:0.091342939509115498] [-0.083016877869605099:0.096546428335833503] [-0.076620842487343604:0.19814960832817949] [-0.22126601667563189:0.1757294217687074] [-0.22567936851211079:0.18127943786982201] [0.1939831449527884:10.847657445802756] [-0.082144252488716304:0.27524361747526482] [-0.092923634313055406:0.1927046958990741] [-0.19967636683743439:0.15121993780644599] [-0.43880837121337601:0.17834003505854179] [-0.1355581374267788:0.17751953862689659] [-0.15358616350860399:0.13974861037603059] [-0.3077366957816885:0.2116143444747392] [-1.0605947720031472:0.24635561004497619] [1.2047492587245141:4.3961371201077313] [-0.82349713071561548:0.5946937109942132] [-0.63063063419931464:2.3943901381978314] [-0.95240896448624279:0.90093832874485957] [-0.81948423468831855:0.58097388449327381] [-1.063950822826252:0.79979260006360753] [-0.92413057774746521:1.7779360286602233] [-1.1264583330636051:1.0864416993126853] [-2.5742948782613446:1.7302719361345316] [-0.8336756605083856:0.15874720216125321] [-0.36467646013423721:0.55884553549812044] [-0.35403697939051237:0.4088979605336866] [-0.27843508523972482:0.32641732577572391] [-0.29340707276313271:0.3710478040631433] [-0.32876078661071578:0.47742072546846848] [-1.0457692239933138:0.52792944765237093] [-0.8589981952460497:1.4236707825178661] [-0.052393814086113197:0.49640636356294932] [-0.2531168667890214:0.48620103328755487] [-0.32642205474377528:0.3263461538461539] [-0.3862695924764889:0.2792316072287867] [-0.485529103675512:0.30061302681992341] [-0.46791757505175119:0.33927960878934221] [-0.74655963302752293:0.61567087037419876] [-1.2895377128953769:1.102064220183486] [-0.083944281524926501:0.77495004114258859] [-0.2684881602914389:0.28333333333333333] [-0.33620137299771158:0.1620971620971621] [-0.4343065693430655:0.1499087020257005] [-0.53605015673981193:0.22410546139359691] [-0.47093596059113269:0.2131755818474699] [-0.43157894736842101:0.71428571428571419] [-0.8170259028171678:1.1538461538461535] [-0.14702883362601249:0.39326314904704868] [-0.2066734417344174:0.27606214488500658] [-0.48008794301292751:0.44280528485023651] [-0.39350912778904662:0.35431499348109508] [-0.41125712360274841:0.2945020325203252] [-0.48719102962841709:0.30713792197999978] [-1.0392972723069809:0.72294968986905572] [-3.4433656957928802:1.3033419023136248] [-0.14694708964728739:0.3734173947190651] [-0.20405192118951129:0.3017791438834535] [-0.48035736845254429:0.44194932044153501] [-0.39217098647626758:0.36027673816180122] [-0.40974362224049088:0.29553733364400508] [-0.49042557338349752:0.30691700285860329] [-1.0064542527199729:0.72215158435527316] [-3.4143015673435606:1.3039973845263482] [-0.1147235261158337:0.18022102949577229] [-0.2119895873713428:0.33213992521654528] [-0.38195436036365149:0.33256093676314991] [-0.49482984220311271:0.41376327175116051] [-0.40005412258704831:0.33012539378989531] [-0.53077949696091875:0.4575640144997894] [-0.60272978628515583:0.61100578771551539] [-1.6880703333867288:1.2699737613669633] [-0.25928315401247859:0.43347150280860369] [-0.34292818783778312:0.77551332338096601] [-0.39798603537451449:0.3578361339317524] [-0.38752693132524541:0.35282003944223761] [-0.34213180934582321:0.39911257993731331] [-0.37974025139476381:0.65648316461541423] [-0.79252974081303718:0.99628777084023623] [-2.091385589730764:0.72049747432457645] [-0.2646349960186562:0.34013605442176931] [-0.26905957161981348:0.76390819560760481] [-0.37088901131282659:0.42024863474156521] [-0.38639790891726172:0.35596413969229868] [-0.43009683675889898:0.35774218259506391] [-0.46857449387789701:0.57579125985139168] [-0.85151189759553436:0.99344379478072642] [-2.1399431075631958:0.85714285714285798] [-0.28497409326424988:0.3859905737038844] [-0.30046845584694021:0.77866271608988435] [-0.39418539162183702:0.44107943836632552] [-0.3716513332293776:0.35030849219032711] [-0.46963446405397141:0.3671759760116447] [-0.47452850999296398:0.60170749892986541] [-0.83331705023121727:0.8251858526695226] [-1.6465859205585245:0.73652142472351267] [-0.22748490197193941:0.26467309833798069] [-0.28423014782849138:0.37884731617813272] [-0.4213897829712509:0.38702627482343982] [-0.41362760802917059:0.3899930070168014] [-0.41523131845732358:0.3366212839494197] [-0.4807648363116222:0.36195718048889991] [-0.820039483429431:0.47459220009469327] [-3.0926846300189683:1.0592116600064625] [-0.50579558925959622:0.40126059025512889] [-0.26915923056570878:0.58895053456484203] [-0.3924440004104004:0.31116649280406411] [-0.28623047934581503:0.39651305288503269] [-0.39636401925879999:0.34801845848101748] [-0.49805764270483638:0.48653652340210662] [-0.5055295690215722:0.37500008157545578] [-1.5971384474327937:0.76442763246790746] [0.27951417712944038:2.1763448214461936] [0.24888897036672189:2.2143345018852902] [0.1563854222981145:2.1115717231520308] [0.15628145184286249:2.0054655336426559] [0.15226461881767589:1.9718023087752352] [0.1545832295965297:2.007182488277961] [0.14866865606865931:2.6071532966135851] [1.5962474028301912e-08:4.2631424320057292] [0.3046875:1.085378824521793] [0.4787517780938832:1.6341041201249258] [0.56378154574132489:1.5925689156152525] [0.4509960408744505:1.6755631980463102] [0.5137020103799339:1.8547193383332541] [0.46796465968586382:1.8256847673473828] [0.29175536108483141:2.0668265221017514] [0:3.7323220802919694] [0.5027758501040942:1.6873783148707615] [0.74419674960448745:2.2270331325301211] [0.77224560894179151:1.9464963989739537] [0.51899313501144162:1.804436883766144] [0.53917050691244228:1.6502083815698083] [0.2983362019506598:1.5642982971227248] [0:1.555341087431614] [0:3.4649272074116091] [0.1192905627326472:1.3815118665013326] [0.18319246770308739:1.4592027290138092] [0.22334136194438359:2.1640840735203586] [0.17715315558100761:1.7857421984033941] [0.13900536457192911:1.6177097525601021] [0.12030191984333879:1.943770226537217] [0.18406961178045511:4.3920480813684701] [0:8.6468446601941746] [0.093283765368378999:1.4753134250315325] [0.14046618247352211:1.4158885479911871] [0.17411573057683749:2.1079986315020891] [0.1390006110702712:1.7317748560854489] [0.1107912365493071:1.5966399689529658] [0.096427734166055698:1.8827962586817699] [0.1507428651314294:4.2054291749218828] [0:8.3101088991815821] [0.5531917841436671:1.3835698231028182] [0.55038510290969644:1.3510359940665819] [0.61769312298014767:1.496477570404684] [0.50245645894195989:1.4981232752093323] [0.52856227382210474:1.3788033672091089] [0.61738125939941824:1.5165393886261442] [0.32721342380795709:1.6977075064528973] [0:3.2099534942557075] [0.32640231690010352:1.360343434782161] [0.151178440331354:2.1489759181991923] [0.32526675908181218:2.1021758780879467] [0.3299975688658307:2.3449793257172704] [0.1525497834129447:2.4108674793754763] [0.14092771684178329:2.2682609102451692] [0.092816481216706395:3.4080372833869141] [0:6.1446691622573333] [0.40178362519262117:1.2852233676975944] [0.21261148557553769:1.7642967515848873] [0.34798365877767612:1.8131622102930061] [0.38068887295595671:1.82576434155808] [0.34109458518344982:1.9964685946553848] [0.23873731678484161:1.9925705709172776] [0.1331293190478896:2.8367563119701256] [0:5.14712726704074] [0.36869678052383142:1.342807480918996] [0.18140263194256709:1.9290022490222201] [0.31931360496803451:2.0261404905711675] [0.35202260561091298:1.9777207718090848] [0.25808215041542171:2.2806262667541035] [0.19505843379037449:2.0455820385046755] [0.15611624239693611:2.5910027532344824] [0:5.2613629073612334] [0.0400580336909305:1.527351810940063] [0.023140877703649799:2.0440351091583047] [0.030559849898402301:1.8750124083237163] [0.030963205943827999:1.6511928089977486] [0.031658021265100998:1.5642490442937478] [0.036610959439547702:1.6875457935151967] [0.032243522955575102:3.4589726007054682] [0:6.9077677036543861] [0.70778074074503738:1.8054516752544096] [0.45060689674515508:1.441959890450317] [0.5112868720577034:1.556816747637723] [0.53103346667466145:1.3598993859406363] [0.38024738118372547:1.4058740409687385] [0.29046546418751218:1.5667793916261674] [0.0001071092259609:1.8001064185884377] [0:3.0906349692399333] [2.4781605831504152e-07:2.8540446131532078] [159.64172284395269:3595.9323615752942] [18:157] [10:86] [8:121] [0:8] [0:2] [0:39] [0:46] [14:132] [0:25] [0.053692127816562102:0.58331774133900383] [0.019779131427315799:0.37174718939627799] [0:2] [0:2] [0:7] [0:28] [0:9] [0:16] [0:20] [0:8] [0:3] [0:1] [0:1] [0:0.57735026918962573] [0:0.65390258069014295] [0:1.2953428019373612] [0.055555555555555497:2.387401970105353] [0.058925565098878897:4.5416636448708685] [0:0.57735026918962573] [0:0.64101086915853867] [0:1.0680186509646612] [0.020833333333333301:2.0631660273061074] [0.016037507477489599:3.6799470823266383] [0.20412414523193151:8.0316460255399917] [0:4.3982640562744741] [0:3.2600017382792235] [0:1.4142135623730951] [0.11785113019775791:6.9967182219356099] [0:0.84726450584049784] [0:1.8276807055652629] [0:0.42363225292024892] [0.4330127018922193:14.121454238689726] [0.61237243569579458:22.634338984384438] [0.72168783648703227:34.952805477602048] [0.2194160968212876:16.294807362757762] [0.25574284172936218:25.868441753614945] [0.2462239593073394:30.345564854468368] [4.787693700234704:37.869059261349619] [3.646264369941973:35.172231517465228] [2.5294827255159542:28.68662959984227] [1.9686140808000401:24.063197015603251] [1.4545677683854246:19.47985167568244] [0.59552203082849764:15.456378777543724] [0.31903559372884921:12.215874456865013] [0.38842081212246071:0.4969023478444608] [0.22528926140783551:0.34671832254632151] [0.13238546088187911:0.23711127907002741] [0.076501648673269307:0.16413484604514081] [0.044484523526572201:0.1137579917129278] [0.025240575747682001:0.081635797570028604] [0.0148501110561033:0.058076952088222902] [5.8783151775108493:47.519439305103127] [3.4064655183043202:30.116746887467663] [2.1897227048854204:27.78848995054172] [1.4005021979026939:28.0440942656206] [0.8611835887884669:24.995207997184959] [0.4946255113273989:17.867656931975407] [0.17446106100181891:14.154717162567543] [0.082206622013989303:11.063179473410052] [0.502998218005552:0.79387711772298486] [0.26192261644257731:0.68289670739488917] [0.12902437617143339:0.61752199890092696] [0.067657207338582701:0.48351886664863097] [0.0347347687957415:0.3471556666275688] [0.017826879564097099:0.2102077286114753] [0.0089214968109980995:0.1522012598125542] [0.0044790432181112004:0.0925765018176819] [12.333333333333332:98.666666666666686] [11.257180917492304:92.864074864707362] [12.766893954813764:94.23652452676572] [18.91442097596504:150.5833940276766] [18.560784313725492:145.13333333333333] [18.199999999999999:147.03999999999996] [14.108692215568862:101.42952275449105] [19.422988019857371:168.75905819560762] [0.47499999999999998:1.5740740740740742] [0.42258762800765959:1.6715440013321119] [0.53421153063301452:0.86949957030101543] [0.96720077688759443:1.0811810185444568] [0.91627450980392144:1.0722976370035189] [0.92779999999999996:1.0950769230769235] [0.60452269033361872:1.0109504990019962] [1.0790548899920764:1.1854327712535493] [0:11] [0:2] [0:18] [0:2] [0:4] [0:20] [0:12] none [0:3] [0:9] [0:14] [0:4] [0:4] [0:2] none [0:3] [0:2] [0:2] [0:2] [0:5] [0:5] [0:1] [0:2] none [0:8] [0:6] [0:9] [0:1] [0:7] none none [0:2] [0:2] [0:1] [0:2] [0:4] [0:2] [0:2] [0:21.639964288924428] [0:7.6018473290244577] [-1.6365665298072396:21.263038609397192] [0:10.774163443946092] [0:9.2267998866213166] [0:39.415865116345891] [-19.959990016276304:9.5510614016548363] none [0:7.1196989166036779] [-4.058217592592591:3.7949502615696118] [-10.285227519127227:11.320916612390649] [0:5.1303930461073328] [-11.047446601390227:0.6455142983119172] [0:11.730543167884438] none [0:9.3191699547387259] [0:6.6484293464545026] [0:18.67240213475197] [0:8.6959985291833313] [0:20.473407888697089] [0:10.442727066088461] [-0.50135570200302304:0] [0:4.0049348072562356] none [0:81.248706935265091] [0:80.709259178942091] [0:60.488222124228422] [0:6.5333274604839886] [0:91.819077368026882] none none [-0.15851109417956999:4.0418462028677826] [0:3.4651042827676601] [-2.0789506172839509:0] [-9.4850142658513459:0] [0:25.170568980381727] [0:7.1498523715041573] [0:4.6368306084621382] [-0.093051646557758202:1.4682541257243638] [0.88965881414294112:2.4450925925925926] [-0.22694727891156449:1.6304629629629632] [-1.3045414462081126:1.2486707923910303] [0.081347187214340505:2.3066710986123864] [-1.4009723971893282:1.5650519652305368] [92:12200000000] [10.01:1234.1800000000001] [0.098360655737704902:0.61904761904761907] [0:15] [0:9] [0.99150178668555455:2.103330616177709] [1.9635080846562896:4.4193448360685084] [2.754636215098623:5.4836175279040802] [3.1887218755408671:6.40801220694674] [3.1887218755408671:6.571956523742676] [3.1887218755408671:6.571956523742676] [27.406883640496289:239.87668048090589] [45.135592988940793:557.08680480677822] [60.032189941180548:808.07777930381053] [71.058650025961612:961.038591059238] [73.058650025961626:985.79347856140157] [73.058650025961626:985.79347856140157] [0.15552873003580289:0.44997395369001819] [0.33373715831758538:0.83421590363347131] [0.4663428534035417:0.94845017046935276] [0.56544178933767597:1] [0.64675873774439563:1] [0.6954739270036171:1.0000000000000002] [0.1502295273276644:0.41479649393934448] [0.3298070204342981:0.79144271610920813] [0.46085113134298089:0.88490438652227987] [0.5587830636258837:0.92138385626753216] [0.63914241168298191:0.93797162692786895] [0.65638829767738327:0.93797162692786895] [2.2935673619524599:5.6296408206231749] [0.73930284120411072:4.0408857627877488] [0.2264232143887365:3.1522543805098961] [0:2.5668878078057475] [0:2.086557489998512] [-8.8817841970012523e-16:1.8398689103118848] [6.7165772805032624:54.870942038951533] [15.367735313851297:69.624540313530815] [18.915063701489206:72.797371079557792] [21.302319214521017:79.669983669235634] [23.477154646211648:83.609205891457862] [25.486524026477621:83.609205891457862] [35.600426357204128:257.89788473123212] [23.73922344041468:123.57213911871608] [17.566027323548816:71.685867818278595] [16.11266308835436:59.886980566886209] [15.552806165317334:59.886980566886209] [15.552806165317334:59.886980566886209] [7.6388888888888893:64.98593834505138] [2.5:30.076873048907387] [1.1111111111111112:16.548319559228649] [0:1] [0:1] [-18.495123841234427:1.4340081005954921] [119.78000000000009:840.34000000000265] [61.021176249145917:463.20124457634859] [0:69.853322531732218] [0:24.070696764989783] [0:30.5236297402646] [0:31.604381840787411] [0:29.252507439467973] [0:106.06445815037112] [0:162.49926380483458] [0:102.58181571049212] [0:58.35387320533976] [0:54.525659096834872] [0:34.700198022989397] [0:29.535898646757527] [0:15.930470882759089] [0:74.12560829586954] [0:10.523783109476971] [0:40.51791337786338] [0:47.343248369291139] [0:173.25953026520477] [0:102.80499364960831] [0:149.19214713367541] [0:36.186592095519615] [0:48.53088597686407] [0:131.96258086385228] [0:62.204226577551943] [0:53.160469210337041] [0:125.69586104253295] [0:135.53545925732115] [0:20.090533254965305] [0:44.546749233466457] [0:36.420291608407297] [0:23.455796266616002] [0:73.350395136560536] [0:72.372130134400905] [0:82.149115838757766] [0:118.30620955961489] [0:106.72968349370193] [0:73.035600540004111] [0:102.45396344873301] [0:140.9781306753942] [0:60.614348422330217] [0:50.441293526869281] [0:98.18147240168436] [-0.57770786092214665:73.581700986794203] [-0.32416666666666649:86.934569918298763] [-4.8809954736425887:21.724023573987161] [-9.4946705463381154:10.67200792106456] [0:35.740215961646683] [-19.356140966918769:24.421409586565744] [-1.6323073087259603:21.639964288924428] [-9.7128419351238104:8.6691285631483357] [0:53.520913273117571] [0:51.501855527054175] [0.0001107566343248:35.274052957846763] [11:124] [12:165] [13:220] [14:293] [8:380] [6:549] [4:681] [0:801] [0:898] [90:3908] [2.5649493574615367:4.7318028369214575] [2.9444389791664403:5.3729609095438029] [3.218875824868201:5.9375362050824263] [3.3672958299864741:6.5510803350434044] [3.3322045101752038:7.1903934020819866] [3.044522437723423:7.6765315955677433] [2.7080502011022101:8.2360501097550998] [2.3025850929940459:8.7689096222166345] [0:9.2687693866810008] [0:9.6783536184032606] [5.1357984370502621:10.639152663703404] [23.56151599999998:169.38730300000091] [9.3924489999999992:98.568697000000199] [1:9] [0:2] [0:2] [0:6] [0:7] [0:2] [0:1] [0:2] [0:6] [0:1] [0:4] [0:4] [0:2] [0:1] [0:2] [0:7] [0:2] [0:7] [0:4] [0:2] [0:2] [0:7] [0:2] [0:2] [0:6] [0:4] [0:2] [0:1] [0:2] [0:5] [0:1] [0:3] [0:3] [0:2] [0:1] [0:2] [0:3] [0:1] [0:1] [0:2] [0:2] [0:2] [0:1] [0:1] [0:2] [0:3] [0:1] [0:1] [0:2] [0:2] [0:2] [0:1] [0:1] [0:2] [0:2] [0:1] [0:2] [0:2] [0:1] [0:2] [0:1] [0:2] [0:2] [0:1] [0:3] [0:1] [0:1] [0:2] [0:2] [0:1] [0:1] [0:1] [0:2] [0:3] [0:1] [0:1] [0:2] [0:2] [0:1] [0:1] [0:1] [0:2] [0:26] [0:0.68181818181818177] [-1.0360999999999996:11.120399999999989] [42.336100000000009:307.69510000000031] [0:254.16] [0:282.39999999999992] [1:19] [0.44444444444444459:10.888888888888893] [0.15972222222222221:6.479166666666667] [0.15111111111111111:5.5022222222222226] [0.041666666666666602:4.3305555555555557] [0:3.0710657596371886] [0:2.4271541950113376] [0:1.6752566767447721] [0:1.2143750000000002] [0:1.022246709519437] [0.0454545454545454:0.39473684210526311] [0.019323671497584499:0.2074074074074074] [0.0089285714285714003:0.10496031746031741] [0.0083950617283949994:0.082666666666666597] [0.0013888888888888:0.054398148148148098] [0:0.060408163265306097] [0:0.044270833333333301] [0:0.036869068615100302] [0:0.025624999999999998] [0:0.021655953474135198] [0.10010956217540171:0.74500150574849822] [6:100000000] [3:100000000] [0:1] [0:0.5] [4.3219280948873617:7.4262647547020979] [10:86] [3.7612001156935615:6.0426328336823811] [4.4886363697321396:6.9067547786485539] [5.2417470150596426:7.8115684893451798] [5.9939614273065693:8.7016790710395693] [6.7580945044277305:9.6176038620257263] [7.5180641812330782:10.522530607088802] [8.2857654205143305:11.446475785398915] [9.0484095048299622:12.390071960766656] [9.8174393479106765:13.455021205553344] [80.913317886707702:251.70126853587973] [3.044522437723423:5.1532915944977793] [0:2.5649493574615367] [4.1743872698956368:6.5057840601282289] [0:4.7957905455967413] [5.5174528964647074:8.0529330367975671] [0:6.8741984954532942] [6.9555926083962971:9.6950478675871139] [0:9.3104571633109554] [8.4383664108702661:11.393499830987569] [38.130321623350326:134.10825211285294] [135.10479941599999:1114.4707980720025] [5.071664610601518:19.990958099333341] [126:31900002633] [9:139] [42:420] [44:499] [2.333333333333333:17.402777777777782]
tree_sizes=1475 1455 1455 1468 1452 1465 1482 1478 1477 1477 1466 1471 1467 1473 1475 1491 1472 1496 1482 1492 1473 1474 1468 1487 1529 1512 1509 1515 1491 1480 1510 1489 1460 1510 1497 1515 1495 1472 1506 1501 1480 1480 1482 1473 1476 1509 1495 1482 1481 1486 1468 1513 1484 1510 1519 1496 1524 1506 1510 1509 1524 1509 1480 1487 1451 1499 1549 1488 1535 1517 1505 1479 1505 1507 1477 1530 1500 1490 1544 1499 1568 1534 1499 1529 1549 1530 1533 1525 1525 1461 1583 1499 1508 1512 1491 1569 1469 1506 1550 1572 1502 1519 1502 1531 1535 1535 1511 1535 1549 1517 1563 1543 1504 1569 1511 1542 1557 1532 1512 1515 1529 1491 1545 1510 1544 1508 1510 1538 1565 1514 1552 1578 1573 1553 1572 1582 1520 1564 1564 1583 1547 1534 1538 1578 1540 1564 1564 1625 1545 1554 1528 1557 1562 1533 1572 1587 1520 1530 1558 1500 1506 1585 1536 1517 1567 1551 1525 1518 1536 1605 1584 1568 1579 1538 1537 1556 1570 1532 1540 1544 1496 1555 1543 1488 1539 1560 1553 1546 1571 1603 1564 1542 1526 1521 1553 1583 1582 1560 1567 1565 1556 1574 1549 1550 1538 1539 1545 1557 1559 1609 1556 1527 1565 1540 1580 1519 1573 1528 1566 1591 1592 1616 1519 1588 1561 1586 1573 1558 1522 1527 1589 1539 1581 1552 1573 1561 1551 1571 1607 1563 1540 1610 1535 1622 1571 1547 1597 1592 1538 1606 1556 1576 1553 1611 1578 1558 1531 1553 1600 1572 1540 1524 1534 1587 1574 1555 1521 1525 1609 1554 1586 1587 1570 1547 1544 1549 1559 1609 1556 1571 1524 1580 1563 1581 1605 1574 1542 1590 1578 1573 1588 1598 1565 1541 1651 1544 1530 1625 1573 1579 1559 1568 1626 1597 1582 1576 1552 1606 1607 1582 1593 1607 1544 1604 1587 1609 1588 1569 1555 1547 1540 1549 1613 1601 1555 1586 1550 1595 1601 1555 1599 1583 1582 1522 1566 1597 1576 1587 1569 1603 1640 1565 1615 1581 1603 1553 1583 1612 1664 1603 1582 1562 1633 1647 1619 1611 1633 1601 1571 1572 1640 1596 1587 1582 1639 1578 1566 1618 1608 1598 1590 1546 1613 1572 1561 1602 1532 1554 1565 1587 1546 1605 1608 1578 1547 1637 1602 1675 1594 1552 1578 1573 1588 1610 1599 1599 1626 1538 1544 1589 1577 1626 1601 1581 1610 1567 1588 1575 1596 1606 1592 1646 1597 1613 1600 1604 1585 1577 1642 1657 1552 1593 1590 1602 1602 1618 1595 1579 1579 1602 1558 1580 1552 1552 1632 1620 1566 1602 1596 1611 1594 1596 1619 1626 1604 1641 1607 1603 1582 1580 1600 1561 1596 1600 1594 1650 1628 1634 1648 1621 1553 1580 1624 1627 1639 1584 1615 1559

Tree=0
num_leaves=15
num_cat=0
split_feature=1 786 716 711 774 446 512 758 604 632 875 416 441 489
split_gain=531.301 408.627 240.731 181.953 155.393 138.965 109.499 95.8939 86.4137 79.8372 87.4869 75.6337 74.5446 74.4253
threshold=1.0000000180025095e-35 33.306631746719702 1.5887797462996776 -0.015934744268078248 0.75391763813692603 -0.078093481489578995 0.47315491341462818 4.7246301999965681 0.75831358204615262 0.073125288973929267 6.7133333765551297 -0.16439718588047877 0.17581232489047274 0.84348290263218229
decision_type=2 2 2 2 2 2 2 2 2 2 2 2 2 2
left_child=7 2 13 9 5 -5 -6 -1 11 -3 -11 -8 -13 -2
right_child=1 3 -4 4 6 -7 8 -9 -10 10 -12 12 -14 -15
leaf_value=-0.46095950871334229 -0.03532975248900859 -0.12642891544983051 0.054207373790904102 0.098893846353436773 0.37523144051108531 -0.030132862094041615 -0.041628083370319424 -0.19439348491316 0.27780010737970368 -0.049355113813112465 0.11479824227836782 0.10018681172130742 -0.071590083299222493 -0.16349949499395955
leaf_weight=69 237 288 376 492 54 1039 190 248 91 420 188 1818 107 770
leaf_count=69 237 288 376 492 54 1039 190 248 91 420 188 1818 107 770
internal_value=-1.30177e-10 0.0131822 -0.0823469 0.0413701 0.0605276 0.011331 0.0938551 -0.252416 0.0869673 -0.0396859 0.00140283 0.0787566 0.0906387 -0.133334
internal_weight=0 6070 1383 4687 3791 1531 2260 317 2206 896 608 2115 1925 1007
internal_count=6387 6070 1383 4687 3791 1531 2260 317 2206 896 608 2115 1925 1007
is_linear=0
shrinkage=1


Tree=1
num_leaves=15
num_cat=0
split_feature=1 574 774 219 62 1012 257 455 322 201 515 964 838 980
split_gain=340.032 272.948 160.601 177.962 129.93 98.6489 112.425 83.1152 70.1885 68.6236 64.3875 59.8573 55.1782 49.6851
threshold=1.0000000180025095e-35 447.6678176391153 0.72048874092134751 1.0176568561308792 29348.897293903105 8.6865978431920325 0.25953306304550194 0.034569255284040555 -0.096169645665036288 -0.10203014291685589 0.62584860509914797 2.1282500000000004 18.86125436005452 0.064455907229344717
decision_type=2 2 2 2 2 2 2 2 2 2 2 2 2 2
left_child=7 12 9 4 5 6 11 -1 -5 -3 -8 -4 -2 -10
right_child=1 2 3 8 -6 -7 10 -9 13 -11 -12 -13 -14 -15
leaf_value=-0.14094077039860253 -0.19102252277165888 0.0047620583692715122 -0.11948690833414302 -0.11968281243124679 -0.15777497898676607 0.25208539294741922 0.39183240626987659 -0.3738854489412653 0.029077910812291493 -0.082578215045687103 0.12354560385429306 0.051467014419505477 -0.059627130550374698 -0.12129926363302168
leaf_weight=234 271 822 85 276 101 118 38 83 492 640 613 2265 242 107
leaf_count=234 271 822 85 276 101 118 38 83 492 640 613 2265 242 107
internal_value=0 0.0105457 0.0234316 0.0437473 0.0654815 0.072711 0.0656579 -0.201933 -0.0362345 -0.0334717 0.139206 0.0452836 -0.129039 0.00221588
internal_weight=0 6070 5557 4095 3220 3119 3001 317 875 1462 651 2350 513 599
internal_count=6387 6070 5557 4095 3220 3119 3001 317 875 1462 651 2350 513 599
is_linear=0
shrinkage=0.2


Tree=2
num_leaves=15
num_cat=0
split_feature=756 318 822 477 249 275 995 581 720 815 12 489 654 55
split_gain=218.433 134.469 128.239 108.439 102.284 111.492 85.1462 67.8056 66.5909 61.1419 56.6793 54.0456 46.0309 60.902
threshold=4.1592624003069485 0.020076773207599156 11.63827927124634 -0.12067601216862749 1407.4959208640378 -0.65829881889259478 4.5432381923768999 11.500000000000002 2.8771386910097685 1.0000000180025095e-35 1.5000000000000002 0.92435819102061123 48.274399126001462 8681.5750645638564
decision_type=2 2 2 2 2 2 2 2 2 2 2 2 2 2
left_child=2 4 10 -4 5 -2 -7 8 -8 12 -1 -9 13 -5
right_child=1 -3 3 9 -6 6 7 11 -10 -11 -12 -13 -14 -15
leaf_value=-0.11662984816983382 -0.0052520594612958937 -0.053483867688463395 -0.11735919042936163 -0.017441035050037756 -0.10595149614456062 -0.084826846558253968 0.057828739578417582 0.09576164961720407 0.17764448104169939 -0.13467607744038107 -0.29195166434282843 0.022138366156367106 -0.077128628408536321 0.10988984725274338
leaf_weight=372 1216 785 374 265 190 137 323 707 436 100 92 915 128 347
leaf_count=372 1216 785 374 265 190 137 323 707 436 100 92 915 128 347
internal_value=0 0.0220787 -0.0619597 -0.027778 0.037195 0.0444788 0.068495 0.077317 0.126656 0.0121069 -0.151392 0.0542294 0.0319425 0.0547547
internal_weight=0 4709 1678 1214 3924 3734 2518 2381 759 840 464 1622 740 612
internal_count=6387 4709 1678 1214 3924 3734 2518 2381 759 840 464 1622 740 612
is_linear=0
shrinkage=0.2


Tree=3
num_leaves=15
num_cat=0
split_feature=1 786 711 773 937 346 446 807 50 596 348 716 838 30
split_gain=182.469 149.846 86.7033 95.8175 79.6933 67.0056 60.8141 57.0515 54.2588 50.9416 55.7849 50.0404 53.4889 44.2008
threshold=1.0000000180025095e-35 32.74074802515873 -1.0000000180025095e-35 0.56034182168564484 1.0000000180025095e-35 0.11615183843585061 -0.093074143034014026 5.0809497666331938 6191.6257313450033 0.46547619047619054 7.2164883448238593 2.2352799823633167 30.616375476981268 247.50000000000003
decision_type=2 2 2 2 2 2 2 2 2 2 2 2 2 2
left_child=8 4 11 6 7 9 -4 -2 -1 10 -5 12 -3 -11
right_child=1 2 3 5 -6 -7 -8 -9 -10 13 -12 -13 -14 -15
leaf_value=-0.24847007472999394 -0.091619470614893006 -0.089520239351793346 0.058726684449985626 0.071469264371843672 0.070972614628603548 0.0024847266990340299 -0.024181982507993808 0.11994592987897773 -0.079830782079980497 -0.0042220323719084265 -0.092424990071190732 0.10659877341828848 0.010935574313825979 0.15679752889141699
leaf_weight=128 913 493 500 1079 164 557 1211 54 189 80 90 95 372 462
leaf_count=128 913 493 500 1079 164 557 1211 54 189 80 90 95 372 462
internal_value=0 0.00772524 0.0227625 0.0357785 -0.0579416 0.0627354 4.61493e-05 -0.0798051 -0.147925 0.0823494 0.0588512 -0.031186 -0.0463184 0.133031
internal_weight=0 6070 4939 3979 1131 2268 1711 967 317 1711 1169 960 865 542
internal_count=6387 6070 4939 3979 1131 2268 1711 967 317 1711 1169 960 865 542
is_linear=0
shrinkage=0.2


Tree=4
num_leaves=15
num_cat=0
split_feature=1 964 774 592 135 178 581 124 26 999 780 551 608 1
split_gain=116.78 111.244 82.1518 63.4835 57.7421 49.6473 49.2779 48.4313 48.0314 47.7562 45.1991 43.8141 39.5688 34.8425
threshold=1.0000000180025095e-35 3.1811500000000019 0.69457832534334607 6.5000000000000009 10.351574960127595 6.1476625094482253 11.500000000000002 3.006558641975309 57.055555555555564 8.0481490505633637 1.1284379943923215 0.82354630048248356 0.20064646444031739 1.5000000000000002
decision_type=2 2 2 2 2 2 2 2 2 2 2 2 2 2
left_child=11 5 -3 4 -4 8 9 -8 -2 -6 -10 -1 -13 -12
right_child=1 2 3 -5 6 -7 7 -9 10 -11 13 12 -14 -15
leaf_value=-0.23461975000150828 -0.12553217272615172 -0.040246071985698829 -0.018475384384701376 -0.053171709222318259 -0.010477386794867011 -0.15841253726476451 0.04413816263529588 -0.091765178529207014 0.026001259472295913 0.1260465842462978 -0.079656103428090569 -0.10241430069740654 0.15167443305253983 0.0427994960712062
leaf_weight=92 183 732 563 316 127 134 2257 110 548 531 452 197 28 117
leaf_count=92 183 732 563 316 127 134 2257 110 548 531 452 197 28 117
internal_value=0 0.00618019 0.0212385 0.0327669 0.0403356 -0.0425021 0.0512812 0.0378224 -0.0305544 0.0996962 -0.014994 -0.11834 -0.0707944 -0.0544763
internal_weight=0 6070 4636 3904 3588 1434 3025 2367 1300 658 1117 317 225 569
internal_count=6387 6070 4636 3904 3588 1434 3025 2367 1300 658 1117 317 225 569
is_linear=0
shrinkage=0.2


Tree=5
num_leaves=15
num_cat=0
split_feature=965 219 194 716 672 184 489 600 488 852 720 707 611 825
split_gain=86.1231 72.592 67.432 67.0106 71.6473 66.851 53.1304 50.4546 43.0954 39.8294 37.6959 37.119 35.1451 33.7334
threshold=76.631550000000047 6.3431407407407407 166.07701951132245 2.1719037870415492 7.5000000000000009 1.3312905921147922 0.83228442907532751 0.22813470683586931 1.0054840788368262 1.0000000180025095e-35 2.5044175508434172 6.0091060788038133 1.2377737197567487 5.2278811708071373
decision_type=2 2 2 2 2 2 2 2 2 2 2 2 2 2
left_child=7 2 3 4 5 -2 13 -1 -7 -8 -10 12 -5 -6
right_child=1 -3 -4 11 6 8 9 -9 10 -11 -12 -13 -14 -15
leaf_value=-0.11675722791979166 -0.040683422057806756 -0.12552964273383424 0.10966575210793734 0.064604599500054746 -0.047796031000285316 0.063236206077769433 -0.15291394169131917 -0.013800505198650623 -0.057290895739986025 -0.041622225399997624 0.032856991036710415 0.00014519678935727578 0.20275534273946985 0.072852709324095502
leaf_weight=365 586 157 271 552 145 1065 144 398 280 1205 550 327 85 257
leaf_count=365 586 157 271 552 145 1065 144 398 280 1205 550 327 85 257
internal_value=0 0.00855423 0.0124048 0.00733213 -0.00350796 0.0183539 -0.0344841 -0.0630524 0.0366103 -0.0535021 0.00244566 0.0549206 0.0830392 0.0293351
internal_weight=0 5624 5467 5196 4232 2481 1751 763 1895 1349 830 964 637 402
internal_count=6387 5624 5467 5196 4232 2481 1751 763 1895 1349 830 964 637 402
is_linear=0
shrinkage=0.2


Tree=6
num_leaves=15
num_cat=0
split_feature=1 974 720 720 512 322 705 730 612 299 909 565 854 490
split_gain=68.0723 64.0335 54.0696 57.9234 53.2132 50.1249 45.3809 47.3261 45.0827 39.9205 37.7547 35.777 31.8813 29.7065
threshold=1.0000000180025095e-35 0.14625850340136051 3.2676255913165186 3.5984194215237539 1.1089129989840762 -0.10741957513620788 3.6285468226293207 11.647909188030001 0.03589933876931866 -0.0021288965324751997 2.5000000000000004 1.282751174027879 24.471966892875894 0.96541192511448481
decision_type=2 2 2 2 2 2 2 2 2 2 2 2 2 2
left_child=-1 -2 5 4 11 -3 7 10 9 -8 12 -4 -7 -13
right_child=1 2 3 -5 -6 6 8 -9 -10 -11 -12 13 -14 -15
leaf_value=-0.090350698481081793 -0.063398851095418082 -0.068435247477804648 0.095344364557362768 -0.027186857535457361 -0.089273908340382846 0.016350665387871513 0.065186840933444914 -0.052063762757640623 -0.045863039488614352 -0.033106485324925883 0.11819738861236534 0.074510496297247111 -0.065311238814398445 -0.041843994079481167
leaf_weight=317 506 406 834 381 87 926 1000 780 241 198 118 185 241 167
leaf_count=317 506 406 834 381 87 926 1000 780 241 198 118 185 241 167
internal_value=0 0.00471848 0.0109132 0.0412265 0.0617022 -0.00190989 0.00579824 -0.0132018 0.0330638 0.0489414 0.0103875 0.0727771 -0.000513532 0.0193082
internal_weight=0 6070 5564 1654 1273 3910 3504 2065 1439 1198 1285 1186 1167 352
internal_count=6387 6070 5564 1654 1273 3910 3504 2065 1439 1198 1285 1186 1167 352
is_linear=0
shrinkage=0.2


Tree=7
num_leaves=15
num_cat=0
split_feature=743 489 842 184 634 847 545 584 152 446 223 748 629 446
split_gain=50.8362 50.5142 46.0862 48.7664 40.8878 36.3974 42.0166 39.532 31.2148 34.2728 30.5161 28.5594 25.4843 25.1965
threshold=0.97004003104596104 0.86717084782957954 4.9419441258988437 1.2754237328555222 0.038486889481464157 3.5515589812706594 1.096834887024877 0.30165591257326929 133.47004517149824 -0.081348841302196037 -13.055763802119483 0.59308038518212969 0.30652938756862419 1.0000000180025095e-35
decision_type=2 2 2 2 2 2 2 2 2 2 2 2 2 2
left_child=1 4 -3 -4 10 6 13 8 -7 -10 -1 -2 -12 -5
right_child=11 2 3 5 -6 7 -8 -9 9 -11 12 -13 -14 -15
leaf_value=-0.083843974024057397 0.11211557060986524 -0.10505216986448927 -0.080904853490845766 -0.028436681466885438 -0.13662623277594965 0.069069541822786309 -0.074860051683118753 0.068768175087312644 0.032726143544423394 -0.03244945450825381 0.026848038306613184 -0.092647856089376646 0.11149111713688725 0.036651797546933859
leaf_weight=92 225 220 363 639 62 224 503 410 480 985 1618 31 156 379
leaf_count=92 225 220 363 639 62 224 503 410 480 985 1618 31 156 379
internal_value=0 -0.00364605 -0.0159415 -0.0110195 0.0231578 -0.00401167 -0.0275704 0.0130597 -0.000463343 -0.011095 0.0284668 0.08732 0.0342913 -0.00420433
internal_weight=0 6131 4203 3983 1928 3620 1521 2099 1689 1465 1866 256 1774 1018
internal_count=6387 6131 4203 3983 1928 3620 1521 2099 1689 1465 1866 256 1774 1018
is_linear=0
shrinkage=0.2


Tree=8
num_leaves=15
num_cat=0
split_feature=986 974 669 449 786 711 245 599 842 975 869 876 372 937
split_gain=41.8462 41.9312 51.6197 40.4068 39.9874 30.596 28.9429 25.8913 23.9207 25.0719 24.2327 26.5377 20.7733 20.6196
threshold=0.0059668255131964014 0.55911635487528344 4.5000000000000009 -0.15335200757884687 32.440049010166746 0.63222694633408916 39.678508076101444 0.066095705826967763 29.583684000018106 0.097257653061224414 4.4013693039217072 6.0770191847233201 -0.0041156910803536494 1.0000000180025095e-35
decision_type=2 2 2 2 2 2 2 2 2 2 2 2 2 2
left_child=5 3 7 -2 12 6 -1 -3 -6 -10 -11 -12 -5 -8
right_child=1 2 -4 4 8 -7 13 -9 9 10 11 -13 -14 -15
leaf_value=-0.077647771391560982 -0.070444761736437753 0.028511318737684296 0.0066001447020282381 0.0043169973192341404 0.014656510366916762 0.015241826469859771 -0.029642904379477905 -0.14286206277011304 -0.058199770241437188 0.12521446702113853 -0.083565582982340805 0.051815606542252639 -0.073297626663486673 0.077669566328681661
leaf_weight=567 203 43 380 330 1934 465 486 196 83 172 61 1146 237 84
leaf_count=567 203 43 380 330 1934 465 486 196 83 172 61 1146 237 84
internal_value=0 0.00936699 -0.0392034 0.0165838 0.0210417 -0.0279782 -0.0456539 -0.112029 0.0292506 0.0485564 0.0549819 0.0449736 -0.0281251 -0.0138284
internal_weight=0 4785 619 4166 3963 1602 1137 239 3396 1462 1379 1207 567 570
internal_count=6387 4785 619 4166 3963 1602 1137 239 3396 1462 1379 1207 567 570
is_linear=0
shrinkage=0.2


Tree=9
num_leaves=15
num_cat=0
split_feature=676 219 869 720 981 256 376 626 937 429 489 770 974 223
split_gain=37.3846 31.7734 34.2008 34.5223 41.7365 31.8871 27.5469 27.5045 27.364 35.4094 27.4547 25.6746 23.1106 21.4861
threshold=2.5000000000000004 6.3431407407407407 4.1791829842939459 3.1841511872521724 0.038851648351648303 0.61517259861631524 -0.0026491696707376497 4.3628511627038016 1.0000000180025095e-35 0.029251861692330055 0.8000716085150209 0.95807485178639362 0.16799532312925172 -13.055763802119483
decision_type=2 2 2 2 2 2 2 2 2 2 2 2 2 2
left_child=1 2 6 4 -4 11 -1 -2 9 -5 -11 12 -6 -14
right_child=7 -3 3 8 5 -7 -8 -9 -10 10 -12 -13 13 -15
leaf_value=-0.081509662719419729 -0.18815753675169417 -0.086221754296293751 -0.026775530829788896 0.056861095365268982 -0.060435205268430284 -0.07719167299275459 0.0028114397817856659 -0.013341772864158783 0.10012859199822953 0.052148335197180068 -0.023551177660713799 -0.089812097824239115 -0.038944722749542873 0.040473579044028457
leaf_weight=314 72 158 1533 712 111 135 306 72 208 267 679 77 149 1594
leaf_count=314 72 158 1533 712 111 135 306 72 208 267 679 77 149 1594
internal_value=0 0.00232387 0.00462301 0.00967332 -0.00177257 0.01678 -0.0398931 -0.10075 0.0317493 0.023171 -0.00218567 0.0233497 0.0280495 0.0336845
internal_weight=0 6243 6085 5465 3599 2066 620 144 1866 1658 946 1931 1854 1743
internal_count=6387 6243 6085 5465 3599 2066 620 144 1866 1658 946 1931 1854 1743
is_linear=0
shrinkage=0.2


Tree=10
num_leaves=15
num_cat=0
split_feature=964 775 806 490 194 601 909 285 814 530 948 725 1015 981
split_gain=29.0036 30.3287 25.6424 26.3192 24.9647 26.6173 23.2269 28.5378 23.7148 22.1296 21.8477 25.5005 24.8714 21.2615
threshold=3.3730300000000026 0.778541284833414 4.4529064706452219 0.56291976395868348 166.07701951132245 0.22843473684308827 2.5000000000000004 5.5757008707453508 5.7548796260791741 1.1630182956721984 1.0000000180025095e-35 2.4137342592592597 348.0912797000006 0.037782828282828258
decision_type=2 2 2 2 2 2 2 2 2 2 2 2 2 2
left_child=2 -2 -1 -4 5 -3 7 8 10 -10 11 12 -7 -12
right_child=1 4 3 -5 -6 6 -8 -9 9 -11 13 -13 -14 -15
leaf_value=-0.0088743232865690445 -0.065787481267504291 -0.08782158821217112 0.17699073535554552 -0.07742511135813325 0.079482072256283745 0.021722620705461215 0.074791395365070235 -0.064400462882204107 -0.031862310707439993 0.1441885356605053 -0.13535898711000169 0.000472595509029142 0.073426610098636533 0.015136711998486225
leaf_weight=1462 209 111 17 376 210 1094 219 207 595 30 70 1142 564 81
leaf_count=1462 209 111 17 376 210 1094 219 207 595 30 70 1142 564 81
internal_value=0 0.00862252 -0.0210659 -0.0664198 0.0122199 0.00878571 0.0114652 0.00779923 0.0119786 -0.0234119 0.019474 0.0234703 0.0393107 -0.0546295
internal_weight=0 4532 1855 393 4323 4113 4002 3783 3576 625 2951 2800 1658 151
internal_count=6387 4532 1855 393 4323 4113 4002 3783 3576 625 2951 2800 1658 151
is_linear=0
shrinkage=0.2


Tree=11
num_leaves=15
num_cat=0
split_feature=811 588 673 225 292 777 600 605 529 243 985 574 731 302
split_gain=24.544 25.3401 29.6869 21.2581 21.8366 34.0775 24.5629 24.9527 19.6893 19.4259 18.9679 20.839 24.6807 18.7618
threshold=11.469094418201566 2.5000000000000004 4.5000000000000009 4.1102646968297973 -24.513308448127784 0.84049842528149732 0.22663270390328347 0.10552594737353817 1.0469003272188642 894.85090074269965 0.0062336132369614008 635.41125191710455 5.8888923532375914 0.00015544705978300002
decision_type=2 2 2 2 2 2 2 2 2 2 2 2 2 2
left_child=-1 2 3 4 -2 -6 7 8 -7 -3 -8 -12 -13 -14
right_child=1 9 -4 -5 5 6 10 -9 -10 -11 11 12 13 -15
leaf_value=-0.032057866320870231 0.052528978326022491 -0.068296745534293185 -0.078065433464265283 -0.026020748123717109 -0.045767561976346328 -0.036473184751494206 -0.023891321016670346 -0.20911239478047247 0.045552465158054632 0.14659937296269671 0.05877115802552433 -0.00036840967148383884 0.012856307417782898 0.072145665888028385
leaf_weight=831 547 258 156 567 396 397 306 27 166 18 686 1175 403 454
leaf_count=831 547 258 156 567 396 397 306 27 166 18 686 1175 403 454
internal_value=0 0.00479483 0.00788293 0.0104996 0.0150436 0.00993029 0.0160333 -0.0212952 -0.012288 -0.0542818 0.0233163 0.0286311 0.0184559 0.0442651
internal_weight=0 5556 5280 5124 4557 4010 3614 590 563 276 3024 2718 2032 857
internal_count=6387 5556 5280 5124 4557 4010 3614 590 563 276 3024 2718 2032 857
is_linear=0
shrinkage=0.2


Tree=12
num_leaves=15
num_cat=0
split_feature=743 806 968 816 617 768 980 711 901 745 777 40 103 26
split_gain=21.1835 22.5475 38.9293 24.6799 22.159 24.9623 27.6918 23.1636 18.6838 17.0041 16.6298 16.195 15.5337 17.8091
threshold=0.97004003104596104 4.4529064706452219 5.7500000000000009 5.9664970038407068 3.5676324132360304 0.79350461801715955 0.039990421455938653 -0.0118376876603203 1.0000000180025095e-35 1.1346799452167873 0.89558818635909498 2601.5000000000005 14875.362737746507 415.32222222222225
decision_type=2 2 2 2 2 2 2 2 2 2 2 2 2 2
left_child=1 4 10 -4 -1 6 8 -7 -6 -2 11 -3 -9 -14
right_child=9 2 3 -5 5 7 -8 12 -10 -11 -12 -13 13 -15
leaf_value=-0.090185961689915245 0.077887512699844008 -0.093151708225587548 0.011633566370351966 -0.20319128014485943 0.089234842266362246 -0.027630802129649301 -0.023342780031269939 0.0038791838488807396 0.0086027241966889472 -0.067092131999762439 -0.011746518480961199 0.034441109137101605 0.050117101368157835 -0.066421915865079936
leaf_weight=97 218 416 773 22 133 308 1562 543 847 38 199 44 1132 55
leaf_count=97 218 416 773 22 133 308 1562 543 847 38 199 44 1132 55
internal_value=0 -0.00235361 -0.0241064 0.00568873 0.00440897 0.0064124 -0.00680829 0.0229026 0.0195457 0.0563671 -0.0600505 -0.0809472 0.0318993 0.0447172
internal_weight=0 6131 1454 795 4677 4580 2542 2038 980 256 659 460 1730 1187
internal_count=6387 6131 1454 795 4677 4580 2542 2038 980 256 659 460 1730 1187
is_linear=0
shrinkage=0.2


Tree=13
num_leaves=15
num_cat=0
split_feature=937 298 123 816 235 490 744 241 809 672 69 557 676 261
split_gain=19.3332 33.4928 19.4762 16.7467 17.3426 18.9632 17.7583 17.5196 15.516 14.4817 14.2382 16.9592 15.4723 13.9932
threshold=1.0000000180025095e-35 0.023045540317154403 2.4105810234541583 6.2179547922230141 2332.6472439591835 0.75368419446952406 1.953605472655364 1298.6313118504363 20.091068745075059 8.5000000000000018 950.33341299999995 1.0496576191082367 2.5000000000000004 -0.25760138048269299
decision_type=2 2 2 2 2 2 2 2 2 2 2 2 2 2
left_child=3 2 9 4 5 -1 -6 8 -8 -2 12 -12 -10 -7
right_child=1 -3 -4 -5 6 13 7 -9 10 -11 11 -13 -14 -15
leaf_value=0.022953838965800104 0.01383841286977412 -0.37234898097813129 0.056535590756914028 -0.11440313254931458 -0.073484868339752568 -0.037574341530779924 0.049732243142124377 -0.11906232729745217 0.032999825436294331 -0.14335350871618305 -0.029883819505148776 0.021644115182529997 -0.12684422640502455 -0.0079566231484441887
leaf_weight=525 71 7.9999999999999991 487 54 97 990 443 39 779 35 586 453 25 1795
leaf_count=525 71 8 487 54 97 990 443 39 779 35 586 453 25 1795
internal_value=0 0.0341418 0.0396256 -0.00354635 -0.00250199 -0.0119124 0.0103586 0.0138566 0.0161242 -0.0380646 0.00804592 -0.00741784 0.0280296 -0.018485
internal_weight=0 601 593 5786 5732 3310 2422 2325 2286 106 1843 1039 804 2785
internal_count=6387 601 593 5786 5732 3310 2422 2325 2286 106 1843 1039 804 2785
is_linear=0
shrinkage=0.2


Tree=14
num_leaves=15
num_cat=0
split_feature=53 717 796 125 399 842 391 856 243 549 383 871 499 978
split_gain=15.9278 21.3742 17.9756 17.0278 16.0485 17.0562 16.2519 19.5548 15.8882 14.6482 14.4713 14.9486 14.8328 16.6619
threshold=2794.8964617527995 0.3282690066767448 16.282879818594107 1.9672043010752689 -0.12246528945294217 45.24681379846492 -0.10216376514440033 6.1644999465025743 571.42724118152671 0.66222441611158611 -0.017173698065190948 5.94542059522204 1.0099815380298023 0.17165178571428572
decision_type=2 2 2 2 2 2 2 2 2 2 2 2 2 2
left_child=1 2 3 -1 -2 6 7 -6 9 -7 12 -12 -8 -14
right_child=4 -3 -4 -5 5 8 10 -9 -10 -11 11 -13 13 -15
leaf_value=-0.063479168096587366 -0.045797555464008523 0.12657359956818467 -0.21807836648963749 0.00091042687619361711 0.028374461317151236 -0.05972390730054148 -0.016840665229569569 -0.039069183133088242 0.083162974754210431 0.022575645290782695 -0.017579107481484231 -0.085597810496206156 -0.0051179706698518948 0.056548898306795117
leaf_weight=317 252 34 21 341 1067 93 682 205 162 1239 1126 146 364 338
leaf_count=317 252 34 21 341 1067 93 682 205 162 1239 1126 146 364 338
internal_value=0 -0.0281747 -0.0359235 -0.0301101 0.00354046 0.00583356 -0.00108445 0.017505 0.0240223 0.0168295 -0.00998724 -0.0253863 0.00416564 0.0245735
internal_weight=0 713 679 658 5674 5422 3928 1272 1494 1332 2656 1272 1384 702
internal_count=6387 713 679 658 5674 5422 3928 1272 1494 1332 2656 1272 1384 702
is_linear=0
shrinkage=0.2


Tree=15
num_leaves=15
num_cat=0
split_feature=828 537 148 716 536 383 181 836 611 195 847 838 111 811
split_gain=14.2975 18.8414 19.1472 17.1975 14.7089 12.7825 13.0532 12.6862 12.8359 12.6327 12.1209 13.709 13.5205 12.8523
threshold=1.0000000180025095e-35 0.90146047445743649 213.16880521581868 2.1767073558456143 1.3411714734581055 -0.025456157526508694 1.8127840470737373 5.8935840328934388 1.2698843202572123 157.64321116593084 1.7608982416099399 11.97200999496618 2.445109211775879 5.8353798264540915
decision_type=2 2 2 2 2 2 2 2 2 2 2 2 2 2
left_child=1 2 5 7 -5 9 -7 -3 -9 -1 13 -12 -13 -2
right_child=10 3 -4 4 -6 6 -8 8 -10 -11 11 12 -14 -15
leaf_value=0.1151041916312857 -0.091620951768470141 -0.0053755447007744336 0.068338570374616256 -0.013207759670508296 0.09149735508220537 0.011480400782483861 -0.17108458131551743 -0.049051159198498666 -0.13979258708655837 -0.059317634897198268 -0.029017387145565871 0.20771123250325521 0.017290882377404157 -0.0048205106868269374
leaf_weight=18 73 244 167 230 70 749 15.999999999999998 571 70 215 269 14.999999999999998 2635 1045
leaf_count=18 73 244 167 230 70 749 16 571 70 215 269 15 2635 1045
internal_value=0 -0.0124024 0.00565888 -0.0301589 0.0112234 -0.00482961 0.00766205 -0.0441868 -0.0589605 -0.045843 0.00721964 0.0140019 0.0183687 -0.0104882
internal_weight=0 2350 1165 1185 300 998 765 885 641 233 4037 2919 2650 1118
internal_count=6387 2350 1165 1185 300 998 765 885 641 233 4037 2919 2650 1118
is_linear=0
shrinkage=0.2


Tree=16
num_leaves=15
num_cat=0
split_feature=921 814 482 516 445 714 407 746 1008 195 822 223 248 974
split_gain=12.533 12.5429 15.678 13.6604 13.1674 12.555 12.278 11.9492 12.6783 11.0753 12.9334 11.9374 11.8699 14.3189
threshold=1.5000000000000002 5.7548796260791741 -0.080268034502291877 0.98861620096256353 -0.024984570409682445 1.5093073664651053 0.099110202493949209 0.31079645988331067 4.3285645158568782 154.17334489135385 6.5758191852127474 -13.055763802119483 -1343.5014051976248 0.61633715986394566
decision_type=2 2 2 2 2 2 2 2 2 2 2 2 2 2
left_child=1 5 3 -3 6 7 -4 -1 9 10 -9 -11 -13 -14
right_child=-2 2 4 -5 -6 -7 -8 8 -10 11 -12 12 13 -15
leaf_value=0.077367108373829485 0.085404081516625263 -0.059253269482565964 0.0045606368835143284 0.026981026260564995 -0.064409202774426813 -0.068279078206978747 -0.098754352986536648 -0.10923951110419106 0.065802548646809553 -0.032842953986992073 0.07594182803803784 0.04201589685391139 0.0030749864472482628 -0.051710274272519563
leaf_weight=89 68 92 311 365 366 96 54 17 127 403 134 293 3771 201
leaf_count=89 68 92 311 365 366 96 54 17 127 403 134 293 3771 201
internal_value=0 -0.00091905 -0.0194372 0.00962095 -0.0376035 0.00336852 -0.0107243 0.00473459 0.00342762 0.00178379 0.0550936 5.93308e-05 0.00316827 0.000302621
internal_weight=0 6319 1188 457 731 5131 365 5035 4946 4819 151 4668 4265 3972
internal_count=6387 6319 1188 457 731 5131 365 5035 4946 4819 151 4668 4265 3972
is_linear=0
shrinkage=0.2


Tree=17
num_leaves=15
num_cat=0
split_feature=863 986 668 548 394 120 197 200 731 633 779 495 788 665
split_gain=10.7809 10.8236 12.6532 11.8179 11.4351 13.7947 10.7334 11.4662 10.6567 18.4091 14.4601 14.1986 14.1514 11.5813
threshold=274.50000000000006 0.0059668255131964014 1.0000000180025095e-35 0.44113869537637612 -0.40000186475801996 3.5318778306816867 155.39940672450484 -0.28916712707690923 5.8456944444444447 0.055419257201873205 2.2928002462112804 1.1201730846654803 30.736140523868695 0.63452630988023973
decision_type=2 2 2 2 2 2 2 2 2 2 2 2 2 2
left_child=1 2 -1 -3 5 -5 7 -6 9 10 -8 13 -11 -12
right_child=-2 3 -4 4 6 -7 8 -9 -10 12 11 -13 -14 -15
leaf_value=-0.015504859553413495 -0.066517222995753397 0.10257767075486482 0.12257758064402476 0.1399279994503507 -0.26263257026672365 -0.028032154843751947 0.015505015591654729 -0.03791552965312895 0.017331942519453834 0.15584921300411225 0.054126457846920807 0.012869092246242712 -0.091051542365636964 -0.038052339933322639
leaf_weight=1575 96 50 27 53 9.9999999999999982 31 1337 99 1718 9.9999999999999982 59 474 130 718
leaf_count=1575 96 50 27 53 10 31 1337 99 1718 10 59 474 130 718
internal_value=0 0.00101505 -0.0131776 0.00586398 0.00482158 0.0779427 0.00347314 -0.0585318 0.00499328 -0.00277719 0.00104406 -0.014411 -0.0734158 -0.0310529
internal_weight=0 6291 1602 4689 4639 84 4555 109 4446 2728 2588 1251 140 777
internal_count=6387 6291 1602 4689 4639 84 4555 109 4446 2728 2588 1251 140 777
is_linear=0
shrinkage=0.2


Tree=18
num_leaves=15
num_cat=0
split_feature=469 183 844 937 434 230 577 779 875 964 875 391 714 806
split_gain=10.3249 12.5516 12.3358 10.5602 16.0689 11.4256 10.9773 22.0962 16.6936 14.2577 13.6377 15.0546 12.8714 12.3446
threshold=-0.12898176389594521 1.3776031178733616 17.758744321460025 1.0000000180025095e-35 -0.025065367766768997 -170.4303703703703 51.500000000000007 2.2826267264840934 6.3380693406379249 3.7622500000000034 5.9033571390361406 -0.17226563395727523 1.4963463718820864 4.4529064706452219
decision_type=2 2 2 2 2 2 2 2 2 2 2 2 2 2
left_child=-1 -2 3 6 -5 -6 7 9 10 13 11 -9 -11 -3
right_child=1 2 -4 4 5 -7 -8 8 -10 12 -12 -13 -14 -15
leaf_value=-0.061026943652728288 0.06897285338491202 0.0021860777116034275 -0.048479347627646496 0.055748340783001331 0.086059217936382063 -0.029104779277824695 0.02179882716967636 0.049515508625494399 -0.038483715062766807 0.025845390954636973 0.026694480677635316 -0.040296193445571747 -0.09716764496905464 -0.044618847642752889
leaf_weight=109 107 1210 204 335 41 216 716 92 1036 1220 393 396 35 277
leaf_count=109 107 1210 204 335 41 216 716 92 1036 1220 393 396 35 277
internal_value=0 0.00105956 -0.000117997 0.00153538 0.0268877 -0.0107323 -0.0012569 -0.00480013 -0.0212729 0.00671635 -0.00103398 -0.0233645 0.0224147 -0.0065328
internal_weight=0 6278 6171 5967 592 257 5375 4659 1917 2742 881 488 1255 1487
internal_count=6387 6278 6171 5967 592 257 5375 4659 1917 2742 881 488 1255 1487
is_linear=0
shrinkage=0.2


Tree=19
num_leaves=15
num_cat=0
split_feature=743 731 317 751 600 673 299 850 207 842 730 461 194 140
split_gain=8.81573 8.16168 7.92546 8.01168 14.3392 14.6456 10.6952 12.1664 11.4607 10.3471 9.66823 9.61715 9.64116 9.11362
threshold=1.3596321162778542 28.577194627082111 0.4186139436321254 0.32583417593528818 0.16838506051330479 1.0000000180025095e-35 -0.0089062226569385488 8.5247935956790144 0.22698536365605274 4.9419441258988437 26.546025289745533 0.056736102461546513 163.92548838458507 59.905754159494819
decision_type=2 2 2 2 2 2 2 2 2 2 2 2 2 2
left_child=1 2 3 4 5 10 7 13 -9 -8 -1 -6 -13 -5
right_child=-2 -3 -4 6 11 -7 9 8 -10 -11 -12 12 -14 -15
leaf_value=0.057424171357800105 0.1119762645535437 -0.21633285496916091 -0.088999518186319626 -0.14743633709020085 0.045236820890396372 -0.043700994097500175 -0.046926826962315649 -0.021470854753329431 0.13981848245388584 0.0015418285210685599 -0.18505268948418754 -0.045311968560676062 0.11459907127751245 -0.039977150948987787
leaf_weight=109 28 6.9999999999999991 40 54 542 241 183 243 19 4727 6.9999999999999991 93 18 76
leaf_count=109 28 7 40 54 542 241 183 243 19 4727 7 93 18 76
internal_value=0 -0.000493055 -0.000255196 0.000307189 0.0166327 -0.0155968 -0.00280273 -0.0345936 -0.0097743 -0.000264641 0.0427919 0.0342529 -0.0193804 -0.084614
internal_weight=0 6359 6352 6312 1010 357 5302 392 262 4910 116 653 111 130
internal_count=6387 6359 6352 6312 1010 357 5302 392 262 4910 116 653 111 130
is_linear=0
shrinkage=0.2


Tree=20
num_leaves=15
num_cat=0
split_feature=248 295 600 986 777 22 473 501 975 506 966 722 763 565
split_gain=8.37898 11.9809 11.2499 13.7286 13.3931 12.0371 11.2939 11.2025 11.1607 9.61309 9.41903 10.3799 9.75687 12.7888
threshold=383.46773706537601 -31.467319647446971 0.22663270390328347 0.011017316017315952 0.82711724970217626 290.11111111111114 0.028143705991468756 1.0968543749169466 0.073318216175359011 0.89089912197303367 92.770000000000053 9.2369272748078348 329.03947513267025 1.4434568966948527
decision_type=2 2 2 2 2 2 2 2 2 2 2 2 2 2
left_child=2 7 3 -1 -4 8 -5 -2 -6 -10 11 12 13 -7
right_child=1 -3 4 6 5 10 -8 -9 9 -11 -12 -13 -14 -15
leaf_value=-0.039957834040236437 0.11122519790356898 0.0087214606472335414 -0.047559096750293704 -0.013833665102720261 -0.0037966506914882403 -0.00010886668234853265 0.059826650452179886 -0.027790961342473188 0.11138018425987212 0.034316235268044191 -0.066848401581666564 -0.13263629648996436 0.021800509968793777 -0.059212466288478142
leaf_weight=635 92 731 212 295 225 2652 116 31 86 262 83 23 789 155
leaf_count=635 92 731 212 295 225 2652 116 31 86 262 83 23 789 155
internal_value=0 0.0184386 -0.00284594 -0.0215242 0.00150829 0.00394157 0.00695611 0.0761886 0.0309168 0.0533608 -0.000233684 0.00129409 0.00215071 -0.00337251
internal_weight=0 854 5533 1046 4487 4275 411 123 573 348 3702 3619 3596 2807
internal_count=6387 854 5533 1046 4487 4275 411 123 573 348 3702 3619 3596 2807
is_linear=0
shrinkage=0.2


Tree=21
num_leaves=15
num_cat=0
split_feature=302 478 103 850 538 791 823 150 54 654 215 133 804 804
split_gain=7.474 7.34329 7.7169 9.23409 7.5906 7.3258 9.63423 9.26371 7.78859 20.1597 14.0317 11.6301 10.7233 11.8611
threshold=0.0031972483093706005 -0.12002799461300449 14993.574624008308 13.735304975065864 0.95499020294473269 67.320069467463384 65.223602583750477 150.84558183850206 5071.509642500002 48.274399126001462 -36.929191836734688 18.897265077138851 9.8564644131687285 13.965851200022451
decision_type=2 2 2 2 2 2 2 2 2 2 2 2 2 2
left_child=1 2 -1 4 -4 8 -7 -8 9 12 -11 -10 -3 -14
right_child=-2 5 3 -5 -6 6 7 -9 11 10 -12 -13 13 -15
leaf_value=-0.10955553343924491 -0.058561673523251749 -0.008690749940108081 0.064451995355387523 -0.074581910682431724 -0.083630455368094977 -0.19933231274286908 0.024338795116145007 -0.037733311795708865 0.019963882053297934 0.00027681901572596397 -0.057837053878029114 -0.025564219927877302 0.027419366247069768 -0.0071576237171427325
leaf_weight=46 86 1245 60 59 18 11.999999999999998 142 298 1725 293 384 258 1157 604
leaf_count=46 86 1245 60 59 18 12 142 298 1725 293 384 258 1157 604
internal_value=0 0.000799286 -0.0386782 -0.01488 0.0302791 0.00198013 -0.022523 -0.017701 0.00393484 -0.00150619 -0.0326859 0.0140404 0.00551597 0.0155599
internal_weight=0 6301 183 137 78 6118 452 440 5666 3683 677 1983 3006 1761
internal_count=6387 6301 183 137 78 6118 452 440 5666 3683 677 1983 3006 1761
is_linear=0
shrinkage=0.2


Tree=22
num_leaves=15
num_cat=0
split_feature=746 745 815 739 389 374 232 594 514 823 1 720 822 925
split_gain=6.43134 15.4645 9.95296 11.1067 9.82896 8.7838 8.65236 8.46615 8.56617 10.3253 8.95975 10.8607 10.5908 9.96331
threshold=0.45033682917611489 1.1292238052776316 5.7736792857225199 -3.2650394995416629 -0.17498716206930248 0.0040861647508399013 217.90086327189323 1.0000000180025095e-35 0.79783091148403285 63.89410026793383 1.5000000000000002 3.5647308043587809 26.210088402950475 1.5000000000000002
decision_type=2 2 2 2 2 2 2 2 2 2 2 2 2 2
left_child=1 -1 6 -4 5 -5 7 8 9 -2 13 12 -12 -10
right_child=2 -3 3 4 -6 -7 -8 -9 10 -11 11 -13 -14 -15
leaf_value=-0.079461192825942162 0.03759704031593477 0.070071036485376575 0.040766192857514733 -0.045024101779604642 -0.01142708815286978 -0.16443498692026848 -0.073674499963299708 0.027472665813799597 -0.011190400827652627 -0.018881493180927786 0.063506909539090828 -0.091060919953244071 0.0075888481351652562 0.023657127455682367
leaf_weight=35 468 132 110 282 590 27 59 523 2904 179 188 35 485 370
leaf_count=35 468 132 110 282 590 27 59 523 2904 179 188 35 485 370
internal_value=0 0.0387319 -0.00103991 -0.0192213 -0.0265612 -0.0554581 0.00248052 0.00335264 0.000627479 0.0219716 -0.00284054 0.0175604 0.0232093 -0.00725223
internal_weight=0 167 6220 1009 899 309 5211 5152 4629 647 3982 708 673 3274
internal_count=6387 167 6220 1009 899 309 5211 5152 4629 647 3982 708 673 3274
is_linear=0
shrinkage=0.2


Tree=23
num_leaves=15
num_cat=0
split_feature=344 985 572 487 469 419 65 98 975 843 115 630 386 301
split_gain=5.79409 5.74885 9.15318 6.36783 7.42038 8.7436 7.54178 12.2503 10.8261 10.3183 10.0207 9.90917 8.66923 8.17811
threshold=-2.8733538498808646 0.019383123619818254 0.99552682528625325 0.72775309293120038 0.081263643581872019 -0.241156194553135 376.88129299999974 125.23675001196149 0.13025951121189214 4.537922405331857 3.4280423280423284 0.18331164540724301 -0.037158071782626693 -0.0015562675638614999
decision_type=2 2 2 2 2 2 2 2 2 2 2 2 2 2
left_child=-1 3 -3 -2 5 -5 8 11 10 -9 -7 -8 -11 -14
right_child=1 2 -4 4 -6 6 7 9 -10 12 -12 -13 13 -15
leaf_value=-0.066488395144159981 0.025448841100996253 -0.014913977184958422 -0.14064487133707321 -0.04555021380910125 -0.038859733049806285 0.0012157022418826957 -0.0065029026830897623 -0.02861586462765427 0.02369976482314394 -0.043599431645125156 -0.092718520332524118 -0.10122076374195194 -0.049690053331110866 0.010747285430340495
leaf_weight=52 415 134 28 156 192 1357 85 457 1243 140 47 92 94 1895
leaf_count=52 415 134 28 156 192 1357 85 457 1243 140 47 92 94 1895
internal_value=0 0.000545761 -0.0366452 0.00152178 -0.000202734 0.00113074 0.00247681 -0.00483213 0.0101061 -0.00134808 -0.00192882 -0.0557348 0.00450508 0.00789102
internal_weight=0 6335 162 6173 5758 5566 5410 2763 2647 2586 1404 177 2129 1989
internal_count=6387 6335 162 6173 5758 5566 5410 2763 2647 2586 1404 177 2129 1989
is_linear=0
shrinkage=0.2


Tree=24
num_leaves=15
num_cat=0
split_feature=248 972 511 634 753 445 731 846 508 438 490 450 232 418
split_gain=5.87252 7.25373 9.83791 8.63644 10.9201 12.4793 11.0025 10.1513 9.7349 8.58555 8.75077 8.68159 7.87805 7.48979
threshold=-1246.7163088012869 1.1637499999999998 0.71201177986504471 0.028935361452592106 1.0000000180025095e-35 0.029463876213511504 10.897151065287227 22.459099727704853 1.3009102978539169 0.19241730293019274 0.75368419446952406 -0.11342838331737275 217.90086327189323 -0.12846819601516227
decision_type=2 2 2 2 2 2 2 2 2 2 2 2 2 2
left_child=-1 3 -3 -2 6 7 8 9 12 10 -6 13 -5 -12
right_child=1 2 -4 4 5 -7 -8 -9 -10 -11 11 -13 -14 -15
leaf_value=0.019207373688951302 0.016964569325620842 -0.17689780443906786 -0.018063146919413242 -0.027764709248564581 0.021941564652276622 0.040484343834991297 0.018908410751969335 -0.07038899777856257 -0.21151028672854105 0.082309461742639548 -0.0094626987839557149 -0.012667237728220662 -0.21598993142445885 0.046677179233280616
leaf_weight=579 1029 15.999999999999998 621 759 522 308 209 84 11.999999999999998 50 178 1807 8.9999999999999982 204
leaf_count=579 1029 16 621 759 522 308 209 84 12 50 178 1807 9 204
internal_value=0 -0.00191478 -0.0220527 0.000565947 -0.00350797 0.00224344 -0.0218439 -0.00189653 -0.0327634 0.000187271 -0.00132734 -0.00687616 -0.0299705 0.0205178
internal_weight=0 5808 637 5171 4142 3153 989 2845 780 2761 2711 2189 768 382
internal_count=6387 5808 637 5171 4142 3153 989 2845 780 2761 2711 2189 768 382
is_linear=0
shrinkage=0.2


Tree=25
num_leaves=15
num_cat=0
split_feature=487 628 201 207 669 203 632 561 976 855 124 713 847 777
split_gain=5.38146 5.36296 9.87214 11.5988 8.78819 11.3866 9.04586 10.6075 9.42755 8.66382 8.59903 11.6554 8.22148 8.62192
threshold=1.7109369721633547 0.45074328539806557 -0.27308886232770363 -0.051498718969455147 2.5000000000000004 -0.35804755834445179 0.081311185792100463 1.13797468266234 0.25703703703703712 21.614080138796883 2.5821840166257326 1.0000000180025095e-35 15.480517593405253 0.90103898689289708
decision_type=2 2 2 2 2 2 2 2 2 2 2 2 2 2
left_child=1 4 -3 -4 5 -1 12 8 -8 -7 -5 -12 13 -6
right_child=-2 2 3 10 6 9 7 -9 -10 -11 11 -13 -14 -15
leaf_value=-0.2454492185264826 -0.10358192272484304 -0.058219918409096343 0.050053714136016808 -0.0017819919331800258 -0.00049524304651592623 -0.032198298880380026 -0.068384116698976566 0.2505495381355286 0.024692493803420312 0.013974804373507481 0.075462225529256174 -0.12469471910825143 -0.05757069401014811 0.022147752332108417
leaf_weight=8.9999999999999982 20 77 299 879 2989 579 166 4.9999999999999991 59 226 111 12.999999999999998 87 868
leaf_count=9 20 77 299 879 2989 579 166 5 59 226 111 13 87 868
internal_value=0 0.000325371 0.0113648 0.01548 -0.00272662 -0.0217366 0.000980632 -0.0375746 -0.0439774 -0.0192354 0.00517338 0.054478 0.00322904 0.00460046
internal_weight=0 6367 1379 1302 4988 814 4174 230 225 805 1003 124 3944 3857
internal_count=6387 6367 1379 1302 4988 814 4174 230 225 805 1003 124 3944 3857
is_linear=0
shrinkage=0.2


Tree=26
num_leaves=15
num_cat=0
split_feature=886 743 352 343 839 495 404 628 146 166 536 434 277 925
split_gain=4.6782 4.79473 6.56927 5.26816 4.88471 10.0719 7.5264 8.28907 6.60953 7.49997 6.17213 6.22179 6.01691 6.73052
threshold=1.0000000180025095e-35 0.96625051501992432 0.04791586109425601 50.520050520934014 24.036787666391231 1.1161358740327769 0.0012450954730022002 0.42461540204451881 272.6634547983578 5.8658950336228637 1.2135656997846935 -0.024443563326044946 0.77655255271041768 1.5000000000000002
decision_type=2 2 2 2 2 2 2 2 2 2 2 2 2 2
left_child=1 4 -3 -4 12 6 7 -6 10 -10 11 -7 13 -1
right_child=-2 2 3 -5 5 8 -8 -9 9 -11 -12 -13 -14 -15
leaf_value=-0.0032642419285096322 -0.13668757855892183 0.081932112631889487 0.061331470037327598 -0.012352577208176903 -0.16839029913147291 -0.031666480701815033 -0.036898227790600945 -0.00031297768358463235 0.28619266351064049 0.051847105235105655 0.096728577844246669 0.022083085763733835 0.019139059392365803 0.027203361705148921
leaf_weight=3528 9.9999999999999982 65 54 138 11.999999999999998 159 566 535 5.9999999999999991 61 27 188 722 316
leaf_count=3528 10 65 54 138 12 159 566 535 6 61 27 188 722 316
internal_value=0 0.000214345 0.026976 0.00837106 -0.00090947 -0.0105948 -0.02073 -0.00400023 0.0149845 0.0728333 0.00462118 -0.00254568 0.00238686 -0.000759621
internal_weight=0 6377 257 192 6120 1554 1113 547 441 67 374 347 4566 3844
internal_count=6387 6377 257 192 6120 1554 1113 547 441 67 374 347 4566 3844
is_linear=0
shrinkage=0.2


Tree=27
num_leaves=15
num_cat=0
split_feature=863 828 849 491 237 722 477 813 409 988 853 874 532 448
split_gain=4.69322 6.33055 6.76505 6.83981 6.58376 6.00292 5.97559 6.05645 5.92102 5.86965 5.85183 10.9402 7.0282 6.60268
threshold=274.50000000000006 11.78546948976504 -0.68613627435150393 0.89340861984528763 -644.75594222469942 9.1562065096983503 -0.21329663923911266 5.8175418094404625 0.080349606264223258 0.41463986666101121 3.6508825690770137 6.7835374597444202 1.240840911563746 -0.031848787831742394
decision_type=2 2 2 2 2 2 2 2 2 2 2 2 2 2
left_child=1 2 3 -1 -3 -6 7 -4 -7 -2 13 12 -12 -8
right_child=9 4 6 -5 5 8 10 -9 -10 -11 11 -13 -14 -15
leaf_value=0.00044608838604947567 0.017209806440300065 -0.17874399083001274 -0.047708681250730772 -0.071481869738918166 0.019482838163872623 -0.077035022061318167 0.0081437341940002843 0.0009163327190784081 0.080034796831508492 -0.083916870530309357 0.037026768708196676 -0.055346528452176316 -0.10220393300056459 -0.0081488886333185833
leaf_weight=101 38 6.9999999999999991 209 111 1015 48 1732 201 11.999999999999998 58 437 65 14.999999999999998 2338
leaf_count=101 38 7 209 111 1015 48 1732 201 12 58 437 65 15 2338
internal_value=0 0.00066972 -0.00222181 -0.0372143 0.0145902 0.0158491 -0.000737237 -0.0238706 -0.0456211 -0.0438876 0.00133049 0.0213735 0.0324063 -0.00121552
internal_weight=0 6291 5209 212 1082 1075 4997 410 60 96 4587 517 452 4070
internal_count=6387 6291 5209 212 1082 1075 4997 410 60 96 4587 517 452 4070
is_linear=0
shrinkage=0.2


Tree=28
num_leaves=15
num_cat=0
split_feature=983 982 122 225 852 296 613 823 189 659 374 813 921 118
split_gain=4.46171 6.35504 7.77554 8.5036 8.05334 7.70109 6.94167 6.91983 6.85303 6.79663 7.87007 7.64497 6.65678 6.51309
threshold=0.010756210530189053 0.015454144620811202 2.7030476485148518 -5.1317798852274015 1.1104724505542962 -21.043319215463896 0.091802116518753515 30.210854057077213 0.76601033202762092 0.61650943396226421 0.0082394817780208508 17.931056736631778 1.5000000000000002 3.3283179878733442
decision_type=2 2 2 2 2 2 2 2 2 2 2 2 2 2
left_child=-1 -2 3 9 8 12 7 -6 -5 10 -3 -11 -4 -7
right_child=1 2 5 4 6 13 -8 -9 -10 11 -12 -13 -14 -15
leaf_value=0.019625971812638456 -0.032313587057687269 0.016538956387908501 -0.028212020514187915 -0.052981721571731304 -0.081205870146736692 -0.014651463437922905 0.0010714649439133442 -0.01590914462104907 0.029575886434883389 0.034126946960844222 -0.078424685517031911 0.12178770017040813 0.14491584888762898 0.0084414458249190815
leaf_weight=432 255 429 687 44 81 860 1285 327 468 295 38 46 8.9999999999999982 1131
leaf_count=432 255 429 687 44 81 860 1285 327 468 295 38 46 9 1131
internal_value=0 -0.00142375 -4.18342e-05 0.00693393 0.000502125 -0.00786394 -0.00614479 -0.0288725 0.0224811 0.0244861 0.00881172 0.0459522 -0.0259733 -0.00153339
internal_weight=0 5955 5700 3013 2205 2687 1693 408 512 808 467 341 696 1991
internal_count=6387 5955 5700 3013 2205 2687 1693 408 512 808 467 341 696 1991
is_linear=0
shrinkage=0.2


Tree=29
num_leaves=15
num_cat=0
split_feature=248 250 837 12 286 247 854 505 563 346 342 462 537 980
split_gain=4.19863 6.83602 7.18009 5.68741 5.58757 6.80626 7.41053 6.75863 6.96742 6.63066 7.73222 6.35559 8.61788 7.0498
threshold=395.95504086765555 -469.12259341187104 5.9798734376546774 3.5000000000000004 -1.7203126789502072 -922.22498485926633 13.771911831746877 0.91293575918598446 1.0278836372033442 -4.4016124571248243 5.4974972484223095 0.060948395612131008 0.90939954967322045 0.048809685911401557
decision_type=2 2 2 2 2 2 2 2 2 2 2 2 2 2
left_child=4 2 -2 -4 5 6 -1 -7 -9 11 -11 -6 13 -13
right_child=1 -3 3 -5 9 7 -8 8 -10 10 -12 12 -14 -15
leaf_value=-0.030131441634148361 0.071326005232334136 -0.0052157293680222382 0.0078058810366304424 0.13419083493451278 -0.0035590778464702024 -0.046768498201128272 0.0474385240354026 0.00018761869736238579 -0.025839696881751025 0.0050111560440721133 0.044384102625389624 0.03733317309524864 -0.10166251376298641 -0.071815488251244161
leaf_weight=72 125 407 282 14.999999999999998 721 218 156 1112 653 2242 219 56 68 41
leaf_count=72 125 407 282 15 721 218 156 1112 653 2242 219 56 68 41
internal_value=0 0.0132775 0.0311134 0.014189 -0.0019804 -0.00978258 0.0229427 -0.0135452 -0.00944175 0.00317365 0.00851488 -0.0116624 -0.0470717 -0.00880183
internal_weight=0 829 422 297 5558 2211 228 1983 1765 3347 2461 886 165 97
internal_count=6387 829 422 297 5558 2211 228 1983 1765 3347 2461 886 165 97
is_linear=0
shrinkage=0.2


Tree=30
num_leaves=15
num_cat=0
split_feature=894 829 673 606 634 11 572 634 705 130 628 203 613 724
split_gain=4.04847 4.90105 4.54061 5.13383 4.69952 8.1147 9.09725 7.87437 10.2037 7.58851 7.32662 7.26876 7.1142 6.89453
threshold=1.0000000180025095e-35 87.810044784384914 4.5000000000000009 0.39449515161632903 0.028935361452592106 1.0000000180025095e-35 0.95332104954585928 0.027129235723793905 1.4968096982541537 17.066503618332892 0.44895778704946326 0.26478081984509533 0.015277777777777701 8.4269107390500775
decision_type=2 2 2 2 2 2 2 2 2 2 2 2 2 2
left_child=1 2 4 -4 7 6 -6 8 -1 -9 13 12 -12 -7
right_child=-2 -3 3 -5 5 10 -8 9 -10 -11 11 -13 -14 -15
leaf_value=0.031203187321664758 -0.12122854454950854 0.085238966842492436 -0.15304544017865107 -0.022324688819313199 0.0063718157081768438 -0.0056204982412708625 -0.14828749566804619 0.045166237793510429 -0.022312369310996671 0.0054505237851389448 -0.050697701993797507 -0.070754567990926179 0.014507619358079161 -0.066624522032706357
leaf_weight=209 10.999999999999998 27 12.999999999999998 159 29 2972 32 370 448 401 70 44 1526 76
leaf_count=209 11 27 13 159 29 2972 32 370 448 401 70 44 1526 76
internal_value=0 0.000209146 -0.000152455 -0.0322047 0.000740048 -0.00228499 -0.0747609 0.0108002 -0.00528839 0.0245099 -0.00134194 0.00943694 0.0116477 -0.0071416
internal_weight=0 6376 6349 172 6177 4749 61 1428 657 771 4688 1640 1596 3048
internal_count=6387 6376 6349 172 6177 4749 61 1428 657 771 4688 1640 1596 3048
is_linear=0
shrinkage=0.2


Tree=31
num_leaves=15
num_cat=0
split_feature=937 204 426 489 590 256 314 420 815 292 730 202 176 489
split_gain=3.8184 11.6594 9.14821 7.51557 7.3323 6.20818 5.37912 6.34188 4.57212 6.91653 6.8184 6.34556 5.55004 4.60267
threshold=1.0000000180025095e-35 0.17178665006141255 -0.023499231340728496 0.73752238930459779 2.5000000000000004 0.086546668007154118 -0.15571133292995698 -0.023978900161981644 5.8853561292306411 -4.9580836465439582 34.729213633971554 0.09372509176773712 6.0645348391388501 0.63680315270582255
decision_type=2 2 2 2 2 2 2 2 2 2 2 2 2 2
left_child=8 2 3 -2 -3 -4 -5 -8 13 10 11 -10 -11 -1
right_child=1 4 5 6 -6 -7 7 -9 9 12 -12 -13 -14 -15
leaf_value=0.025154034710395758 0.16740011353241771 -0.23594047188758852 0.0085715824140297717 0.066572834357252197 -0.039740106603130702 -0.075084518519944923 0.033078138781110607 -0.065577293153513558 0.028538480339222079 -0.046476903280738419 -0.1777280166745186 -0.028238098689665397 0.005000456010416281 -0.00084857971222345547
leaf_weight=289 19 9.9999999999999982 203 137 32 43 124 33 229 316 7.9999999999999991 120 114 4710
leaf_count=289 19 10 203 137 32 43 124 33 229 316 8 120 114 4710
internal_value=0 0.0151731 0.0228088 0.0454911 -0.0864545 -0.00605123 0.0376126 0.0123416 -0.00157605 -0.0157455 0.0048317 0.00901645 -0.0328294 0.000654672
internal_weight=0 601 559 313 42 246 294 157 5786 787 357 349 430 4999
internal_count=6387 601 559 313 42 246 294 157 5786 787 357 349 430 4999
is_linear=0
shrinkage=0.2


Tree=32
num_leaves=15
num_cat=0
split_feature=148 225 991 525 408 583 24 419 212 531 196 39 343 275
split_gain=3.37968 6.18069 4.86254 4.19657 4.01536 7.29795 5.77257 5.33143 4.50697 4.58298 5.88652 6.78228 6.80461 7.77233
threshold=218.96854163935504 2.1265753760680086 0.84523809523809534 0.79687705710966361 -0.1959377133599314 4.5000000000000009 213.05555555555557 0.11998250986267427 -102.7533686067019 0.95249228836601685 167.62148478316877 2415.5000000000005 51.254413434485897 -1.2007260558312123
decision_type=2 2 2 2 2 2 2 2 2 2 2 2 2 2
left_child=3 -2 -3 -1 5 -5 -7 8 -6 10 11 12 -10 -14
right_child=1 2 -4 4 7 6 -8 -9 9 -11 -12 -13 13 -15
leaf_value=-0.055324537320328618 0.049860547505388104 0.040278607664199981 -0.072582475116124021 0.019358692294918003 0.036054072119569514 -0.14800793887539343 -0.036774680707452261 0.059031159175379627 -0.059139759524577798 0.001950110887654277 0.047807811130387866 0.01244416621569544 -0.088726574497727251 -0.0077067892354555261
leaf_weight=56 135 26 37 88 136 22 123 62 183 4625 61 250 52 531
leaf_count=56 135 26 37 88 136 22 123 62 183 4625 61 250 52 531
internal_value=0 0.0257215 -0.0260049 -0.00082289 -0.000325239 -0.0260768 -0.0536515 0.000691729 7.21603e-05 -0.000786054 -0.0125361 -0.0161591 -0.0254943 -0.0149333
internal_weight=0 198 63 6189 6133 233 145 5900 5838 5702 1077 1016 766 583
internal_count=6387 198 63 6189 6133 233 145 5900 5838 5702 1077 1016 766 583
is_linear=0
shrinkage=0.2


Tree=33
num_leaves=15
num_cat=0
split_feature=487 751 648 361 979 544 123 725 838 266 237 203 121 801
split_gain=3.20393 3.29942 7.40069 5.50397 7.37033 6.61568 5.43032 5.1335 4.91029 4.76151 4.70721 4.63214 4.53625 4.4066
threshold=1.5628564124854523 0.39602987421383651 0.04276855024531951 0.079538401234567818 0.087574462574462567 0.88354106904776386 2.3010536187113866 4.8902368317516665 22.880416403747756 -1.207568885431058 -187.62663196298027 -0.049718599797153838 3.3984279046917223 -5.5990516269069692
decision_type=2 2 2 2 2 2 2 2 2 2 2 2 2 2
left_child=1 12 3 4 5 8 7 -5 11 -7 -6 -3 -1 -8
right_child=-2 2 -4 6 10 9 13 -9 -10 -11 -12 -13 -14 -15
leaf_value=0.0065924987836463132 -0.045616565231371246 -0.2362391233444214 -0.045272970614655891 -0.07766945183728681 -0.071114925444126134 -0.074253475115351061 0.0019585221866279404 0.1024568749325616 0.010985799967216291 0.018356660394589504 0.072800825165584684 -0.040280574634738699 -0.074330415137644323 -0.015619498099351545
leaf_weight=2662 61 4.9999999999999991 162 66 9.9999999999999982 23 1437 6.9999999999999991 98 644 100 138 28 946
leaf_count=2662 61 5 162 66 10 23 1437 7 98 644 100 138 28 946
internal_value=0 0.000439869 -0.00348883 -0.00154034 0.0108246 0.00490149 -0.00666557 -0.0603971 -0.0234992 0.0151632 0.0597176 -0.0471323 0.00575018 -0.00501958
internal_weight=0 6326 3636 3474 1018 908 2456 73 241 667 110 143 2690 2383
internal_count=6387 6326 3636 3474 1018 908 2456 73 241 667 110 143 2690 2383
is_linear=0
shrinkage=0.2


Tree=34
num_leaves=15
num_cat=0
split_feature=318 722 384 634 632 281 422 558 775 334 487 731 515 985
split_gain=3.19219 7.42947 6.40428 6.28751 7.04692 8.44337 6.98618 6.23363 5.50556 5.34202 6.2196 9.73516 7.92339 6.58913
threshold=-0.0053469377770905989 9.12461331543855 -0.011749350613433249 0.033036549730505606 0.069671673630995509 0.61278268827369609 -0.060645162359557546 0.84129539774331763 0.79932912710305193 32.806242043614695 1.0426901119335532 5.0534801482321337 0.90205181877732432 0.006080643505687551
decision_type=2 2 2 2 2 2 2 2 2 2 2 2 2 2
left_child=9 2 -2 4 6 7 -4 -6 -9 -1 -11 -12 -13 -14
right_child=1 -3 3 -5 5 -7 -8 8 -10 10 11 12 13 -15
leaf_value=0.019634739809127444 0.0071881970802932923 -0.10177006288431585 0.12659849077463151 0.012608903689198337 -0.084871796344553954 -0.15365705912311872 -0.0081248239093053825 -0.12240266285481907 -0.017324140354239098 0.0094996265962464677 -0.025475519661574526 0.030424849756125267 -0.071386536544766926 -0.0015659035631038314
leaf_weight=670 994 32 15.999999999999998 267 76 24 408 21 397 1563 740 324 58 797
leaf_count=670 994 32 16 267 76 24 408 21 397 1563 740 324 58 797
internal_value=0 -0.00609419 -0.00470444 -0.0144822 -0.0221608 -0.0378111 -0.00304093 -0.032183 -0.0226032 0.00328047 0.000133613 -0.00749488 0.00379068 -0.00630227
internal_weight=0 2235 2203 1209 942 518 424 494 418 4152 3482 1919 1179 855
internal_count=6387 2235 2203 1209 942 518 424 494 418 4152 3482 1919 1179 855
is_linear=0
shrinkage=0.2


Tree=35
num_leaves=15
num_cat=0
split_feature=721 273 715 498 716 721 219 720 490 630 813 269 153 445
split_gain=3.10734 8.20406 5.78242 5.30149 4.15402 3.88115 5.21499 3.28922 5.90284 6.0665 5.5694 5.48611 6.49464 6.2081
threshold=3.3404346286709417 -0.72130804065688481 5.521740212860645 1.008264542966701 2.5577791790235258 3.293734872245945 -0.48063057703748208 3.2940512730765712 0.71194825369754133 0.20105156985932324 30.477240517501951 0.45734712951907941 143.69654676654548 0.043489802391432804
decision_type=2 2 2 2 2 2 2 2 2 2 2 2 2 2
left_child=5 4 3 -3 -2 7 -7 10 -9 11 -1 13 -13 -10
right_child=1 2 -4 -5 -6 6 -8 8 9 -11 -12 12 -14 -15
leaf_value=-0.0023657753607099889 -0.16187704697899197 0.020117882565792763 -0.18413845683847155 -0.06554334449606973 -0.020434602120747936 0.060018381890323429 -0.076442021131515506 0.0346596913810037 0.0048419178645880195 -0.099368144636568817 -0.15179339647293091 0.0013617884157118715 -0.066511593276465483 0.052020578905940057
leaf_weight=4368 23 132 6.9999999999999991 37 12.999999999999998 81 12.999999999999998 272 1038 23 9.9999999999999982 157 88 125
leaf_count=4368 23 132 7 37 13 81 13 272 1038 23 10 157 88 125
internal_value=0 -0.0238082 -0.00601428 0.00136365 -0.110801 0.000817382 0.0411462 0.00019398 0.00765193 0.00251838 -0.00270709 0.00418272 -0.0230172 0.00991271
internal_weight=0 212 176 169 36 6175 94 6081 1703 1431 4378 1408 245 1163
internal_count=6387 212 176 169 36 6175 94 6081 1703 1431 4378 1408 245 1163
is_linear=0
shrinkage=0.2


Tree=36
num_leaves=15
num_cat=0
split_feature=984 601 512 798 225 776 135 613 811 886 756 161 265 464
split_gain=3.21498 4.1447 3.42103 3.36691 3.23258 5.50899 4.88648 5.01808 5.63289 4.62817 4.42451 3.89736 5.12383 5.99139
threshold=0.0079023373407628005 0.48070282524655122 1.0242259823044979 4.1181532352792063 2.7573696145124731 0.90520566534404578 2.7979797979797985 0.10735734317973207 5.5682780108831329 1.0000000180025095e-35 4.7535815608840055 7.2882792928619731 -0.4386651083995336 -0.14896929565556763
decision_type=2 2 2 2 2 2 2 2 2 2 2 2 2 2
left_child=1 2 -1 -4 9 6 -6 10 -9 -2 -8 12 -10 -14
right_child=4 -3 3 -5 5 -7 7 8 11 -11 -12 -13 13 -15
