tree
version=v3
num_class=1
num_tree_per_iteration=1
label_index=0
max_feature_idx=1360
objective=regression
feature_names=Column_0 Column_1 Column_2 Column_3 Column_4 Column_5 Column_6 Column_7 Column_8 Column_9 Column_10 Column_11 Column_12 Column_13 Column_14 Column_15 Column_16 Column_17 Column_18 Column_19 Column_20 Column_21 Column_22 Column_23 Column_24 Column_25 Column_26 Column_27 Column_28 Column_29 Column_30 Column_31 Column_32 Column_33 Column_34 Column_35 Column_36 Column_37 Column_38 Column_39 Column_40 Column_41 Column_42 Column_43 Column_44 Column_45 Column_46 Column_47 Column_48 Column_49 Column_50 Column_51 Column_52 Column_53 Column_54 Column_55 Column_56 Column_57 Column_58 Column_59 Column_60 Column_61 Column_62 Column_63 Column_64 Column_65 Column_66 Column_67 Column_68 Column_69 Column_70 Column_71 Column_72 Column_73 Column_74 Column_75 Column_76 Column_77 Column_78 Column_79 Column_80 Column_81 Column_82 Column_83 Column_84 Column_85 Column_86 Column_87 Column_88 Column_89 Column_90 Column_91 Column_92 Column_93 Column_94 Column_95 Column_96 Column_97 Column_98 Column_99 Column_100 Column_101 Column_102 Column_103 Column_104 Column_105 Column_106 Column_107 Column_108 Column_109 Column_110 Column_111 Column_112 Column_113 Column_114 Column_115 Column_116 Column_117 Column_118 Column_119 Column_120 Column_121 Column_122 Column_123 Column_124 Column_125 Column_126 Column_127 Column_128 Column_129 Column_130 Column_131 Column_132 Column_133 Column_134 Column_135 Column_136 Column_137 Column_138 Column_139 Column_140 Column_141 Column_142 Column_143 Column_144 Column_145 Column_146 Column_147 Column_148 Column_149 Column_150 Column_151 Column_152 Column_153 Column_154 Column_155 Column_156 Column_157 Column_158 Column_159 Column_160 Column_161 Column_162 Column_163 Column_164 Column_165 Column_166 Column_167 Column_168 Column_169 Column_170 Column_171 Column_172 Column_173 Column_174 Column_175 Column_176 Column_177 Column_178 Column_179 Column_180 Column_181 Column_182 Column_183 Column_184 Column_185 Column_186 Column_187 Column_188 Column_189 Column_190 Column_191 Column_192 Column_193 Column_194 Column_195 Column_196 Column_197 Column_198 Column_199 Column_200 Column_201 Column_202 Column_203 Column_204 Column_205 Column_206 Column_207 Column_208 Column_209 Column_210 Column_211 Column_212 Column_213 Column_214 Column_215 Column_216 Column_217 Column_218 Column_219 Column_220 Column_221 Column_222 Column_223 Column_224 Column_225 Column_226 Column_227 Column_228 Column_229 Column_230 Column_231 Column_232 Column_233 Column_234 Column_235 Column_236 Column_237 Column_238 Column_239 Column_240 Column_241 Column_242 Column_243 Column_244 Column_245 Column_246 Column_247 Column_248 Column_249 Column_250 Column_251 Column_252 Column_253 Column_254 Column_255 Column_256 Column_257 Column_258 Column_259 Column_260 Column_261 Column_262 Column_263 Column_264 Column_265 Column_266 Column_267 Column_268 Column_269 Column_270 Column_271 Column_272 Column_273 Column_274 Column_275 Column_276 Column_277 Column_278 Column_279 Column_280 Column_281 Column_282 Column_283 Column_284 Column_285 Column_286 Column_287 Column_288 Column_289 Column_290 Column_291 Column_292 Column_293 Column_294 Column_295 Column_296 Column_297 Column_298 Column_299 Column_300 Column_301 Column_302 Column_303 Column_304 Column_305 Column_306 Column_307 Column_308 Column_309 Column_310 Column_311 Column_312 Column_313 Column_314 Column_315 Column_316 Column_317 Column_318 Column_319 Column_320 Column_321 Column_322 Column_323 Column_324 Column_325 Column_326 Column_327 Column_328 Column_329 Column_330 Column_331 Column_332 Column_333 Column_334 Column_335 Column_336 Column_337 Column_338 Column_339 Column_340 Column_341 Column_342 Column_343 Column_344 Column_345 Column_346 Column_347 Column_348 Column_349 Column_350 Column_351 Column_352 Column_353 Column_354 Column_355 Column_356 Column_357 Column_358 Column_359 Column_360 Column_361 Column_362 Column_363 Column_364 Column_365 Column_366 Column_367 Column_368 Column_369 Column_370 Column_371 Column_372 Column_373 Column_374 Column_375 Column_376 Column_377 Column_378 Column_379 Column_380 Column_381 Column_382 Column_383 Column_384 Column_385 Column_386 Column_387 Column_388 Column_389 Column_390 Column_391 Column_392 Column_393 Column_394 Column_395 Column_396 Column_397 Column_398 Column_399 Column_400 Column_401 Column_402 Column_403 Column_404 Column_405 Column_406 Column_407 Column_408 Column_409 Column_410 Column_411 Column_412 Column_413 Column_414 Column_415 Column_416 Column_417 Column_418 Column_419 Column_420 Column_421 Column_422 Column_423 Column_424 Column_425 Column_426 Column_427 Column_428 Column_429 Column_430 Column_431 Column_432 Column_433 Column_434 Column_435 Column_436 Column_437 Column_438 Column_439 Column_440 Column_441 Column_442 Column_443 Column_444 Column_445 Column_446 Column_447 Column_448 Column_449 Column_450 Column_451 Column_452 Column_453 Column_454 Column_455 Column_456 Column_457 Column_458 Column_459 Column_460 Column_461 Column_462 Column_463 Column_464 Column_465 Column_466 Column_467 Column_468 Column_469 Column_470 Column_471 Column_472 Column_473 Column_474 Column_475 Column_476 Column_477 Column_478 Column_479 Column_480 Column_481 Column_482 Column_483 Column_484 Column_485 Column_486 Column_487 Column_488 Column_489 Column_490 Column_491 Column_492 Column_493 Column_494 Column_495 Column_496 Column_497 Column_498 Column_499 Column_500 Column_501 Column_502 Column_503 Column_504 Column_505 Column_506 Column_507 Column_508 Column_509 Column_510 Column_511 Column_512 Column_513 Column_514 Column_515 Column_516 Column_517 Column_518 Column_519 Column_520 Column_521 Column_522 Column_523 Column_524 Column_525 Column_526 Column_527 Column_528 Column_529 Column_530 Column_531 Column_532 Column_533 Column_534 Column_535 Column_536 Column_537 Column_538 Column_539 Column_540 Column_541 Column_542 Column_543 Column_544 Column_545 Column_546 Column_547 Column_548 Column_549 Column_550 Column_551 Column_552 Column_553 Column_554 Column_555 Column_556 Column_557 Column_558 Column_559 Column_560 Column_561 Column_562 Column_563 Column_564 Column_565 Column_566 Column_567 Column_568 Column_569 Column_570 Column_571 Column_572 Column_573 Column_574 Column_575 Column_576 Column_577 Column_578 Column_579 Column_580 Column_581 Column_582 Column_583 Column_584 Column_585 Column_586 Column_587 Column_588 Column_589 Column_590 Column_591 Column_592 Column_593 Column_594 Column_595 Column_596 Column_597 Column_598 Column_599 Column_600 Column_601 Column_602 Column_603 Column_604 Column_605 Column_606 Column_607 Column_608 Column_609 Column_610 Column_611 Column_612 Column_613 Column_614 Column_615 Column_616 Column_617 Column_618 Column_619 Column_620 Column_621 Column_622 Column_623 Column_624 Column_625 Column_626 Column_627 Column_628 Column_629 Column_630 Column_631 Column_632 Column_633 Column_634 Column_635 Column_636 Column_637 Column_638 Column_639 Column_640 Column_641 Column_642 Column_643 Column_644 Column_645 Column_646 Column_647 Column_648 Column_649 Column_650 Column_651 Column_652 Column_653 Column_654 Column_655 Column_656 Column_657 Column_658 Column_659 Column_660 Column_661 Column_662 Column_663 Column_664 Column_665 Column_666 Column_667 Column_668 Column_669 Column_670 Column_671 Column_672 Column_673 Column_674 Column_675 Column_676 Column_677 Column_678 Column_679 Column_680 Column_681 Column_682 Column_683 Column_684 Column_685 Column_686 Column_687 Column_688 Column_689 Column_690 Column_691 Column_692 Column_693 Column_694 Column_695 Column_696 Column_697 Column_698 Column_699 Column_700 Column_701 Column_702 Column_703 Column_704 Column_705 Column_706 Column_707 Column_708 Column_709 Column_710 Column_711 Column_712 Column_713 Column_714 Column_715 Column_716 Column_717 Column_718 Column_719 Column_720 Column_721 Column_722 Column_723 Column_724 Column_725 Column_726 Column_727 Column_728 Column_729 Column_730 Column_731 Column_732 Column_733 Column_734 Column_735 Column_736 Column_737 Column_738 Column_739 Column_740 Column_741 Column_742 Column_743 Column_744 Column_745 Column_746 Column_747 Column_748 Column_749 Column_750 Column_751 Column_752 Column_753 Column_754 Column_755 Column_756 Column_757 Column_758 Column_759 Column_760 Column_761 Column_762 Column_763 Column_764 Column_765 Column_766 Column_767 Column_768 Column_769 Column_770 Column_771 Column_772 Column_773 Column_774 Column_775 Column_776 Column_777 Column_778 Column_779 Column_780 Column_781 Column_782 Column_783 Column_784 Column_785 Column_786 Column_787 Column_788 Column_789 Column_790 Column_791 Column_792 Column_793 Column_794 Column_795 Column_796 Column_797 Column_798 Column_799 Column_800 Column_801 Column_802 Column_803 Column_804 Column_805 Column_806 Column_807 Column_808 Column_809 Column_810 Column_811 Column_812 Column_813 Column_814 Column_815 Column_816 Column_817 Column_818 Column_819 Column_820 Column_821 Column_822 Column_823 Column_824 Column_825 Column_826 Column_827 Column_828 Column_829 Column_830 Column_831 Column_832 Column_833 Column_834 Column_835 Column_836 Column_837 Column_838 Column_839 Column_840 Column_841 Column_842 Column_843 Column_844 Column_845 Column_846 Column_847 Column_848 Column_849 Column_850 Column_851 Column_852 Column_853 Column_854 Column_855 Column_856 Column_857 Column_858 Column_859 Column_860 Column_861 Column_862 Column_863 Column_864 Column_865 Column_866 Column_867 Column_868 Column_869 Column_870 Column_871 Column_872 Column_873 Column_874 Column_875 Column_876 Column_877 Column_878 Column_879 Column_880 Column_881 Column_882 Column_883 Column_884 Column_885 Column_886 Column_887 Column_888 Column_889 Column_890 Column_891 Column_892 Column_893 Column_894 Column_895 Column_896 Column_897 Column_898 Column_899 Column_900 Column_901 Column_902 Column_903 Column_904 Column_905 Column_906 Column_907 Column_908 Column_909 Column_910 Column_911 Column_912 Column_913 Column_914 Column_915 Column_916 Column_917 Column_918 Column_919 Column_920 Column_921 Column_922 Column_923 Column_924 Column_925 Column_926 Column_927 Column_928 Column_929 Column_930 Column_931 Column_932 Column_933 Column_934 Column_935 Column_936 Column_937 Column_938 Column_939 Column_940 Column_941 Column_942 Column_943 Column_944 Column_945 Column_946 Column_947 Column_948 Column_949 Column_950 Column_951 Column_952 Column_953 Column_954 Column_955 Column_956 Column_957 Column_958 Column_959 Column_960 Column_961 Column_962 Column_963 Column_964 Column_965 Column_966 Column_967 Column_968 Column_969 Column_970 Column_971 Column_972 Column_973 Column_974 Column_975 Column_976 Column_977 Column_978 Column_979 Column_980 Column_981 Column_982 Column_983 Column_984 Column_985 Column_986 Column_987 Column_988 Column_989 Column_990 Column_991 Column_992 Column_993 Column_994 Column_995 Column_996 Column_997 Column_998 Column_999 Column_1000 Column_1001 Column_1002 Column_1003 Column_1004 Column_1005 Column_1006 Column_1007 Column_1008 Column_1009 Column_1010 Column_1011 Column_1012 Column_1013 Column_1014 Column_1015 Column_1016 Column_1017 Column_1018 Column_1019 Column_1020 Column_1021 Column_1022 Column_1023 Column_1024 Column_1025 Column_1026 Column_1027 Column_1028 Column_1029 Column_1030 Column_1031 Column_1032 Column_1033 Column_1034 Column_1035 Column_1036 Column_1037 Column_1038 Column_1039 Column_1040 Column_1041 Column_1042 Column_1043 Column_1044 Column_1045 Column_1046 Column_1047 Column_1048 Column_1049 Column_1050 Column_1051 Column_1052 Column_1053 Column_1054 Column_1055 Column_1056 Column_1057 Column_1058 Column_1059 Column_1060 Column_1061 Column_1062 Column_1063 Column_1064 Column_1065 Column_1066 Column_1067 Column_1068 Column_1069 Column_1070 Column_1071 Column_1072 Column_1073 Column_1074 Column_1075 Column_1076 Column_1077 Column_1078 Column_1079 Column_1080 Column_1081 Column_1082 Column_1083 Column_1084 Column_1085 Column_1086 Column_1087 Column_1088 Column_1089 Column_1090 Column_1091 Column_1092 Column_1093 Column_1094 Column_1095 Column_1096 Column_1097 Column_1098 Column_1099 Column_1100 Column_1101 Column_1102 Column_1103 Column_1104 Column_1105 Column_1106 Column_1107 Column_1108 Column_1109 Column_1110 Column_1111 Column_1112 Column_1113 Column_1114 Column_1115 Column_1116 Column_1117 Column_1118 Column_1119 Column_1120 Column_1121 Column_1122 Column_1123 Column_1124 Column_1125 Column_1126 Column_1127 Column_1128 Column_1129 Column_1130 Column_1131 Column_1132 Column_1133 Column_1134 Column_1135 Column_1136 Column_1137 Column_1138 Column_1139 Column_1140 Column_1141 Column_1142 Column_1143 Column_1144 Column_1145 Column_1146 Column_1147 Column_1148 Column_1149 Column_1150 Column_1151 Column_1152 Column_1153 Column_1154 Column_1155 Column_1156 Column_1157 Column_1158 Column_1159 Column_1160 Column_1161 Column_1162 Column_1163 Column_1164 Column_1165 Column_1166 Column_1167 Column_1168 Column_1169 Column_1170 Column_1171 Column_1172 Column_1173 Column_1174 Column_1175 Column_1176 Column_1177 Column_1178 Column_1179 Column_1180 Column_1181 Column_1182 Column_1183 Column_1184 Column_1185 Column_1186 Column_1187 Column_1188 Column_1189 Column_1190 Column_1191 Column_1192 Column_1193 Column_1194 Column_1195 Column_1196 Column_1197 Column_1198 Column_1199 Column_1200 Column_1201 Column_1202 Column_1203 Column_1204 Column_1205 Column_1206 Column_1207 Column_1208 Column_1209 Column_1210 Column_1211 Column_1212 Column_1213 Column_1214 Column_1215 Column_1216 Column_1217 Column_1218 Column_1219 Column_1220 Column_1221 Column_1222 Column_1223 Column_1224 Column_1225 Column_1226 Column_1227 Column_1228 Column_1229 Column_1230 Column_1231 Column_1232 Column_1233 Column_1234 Column_1235 Column_1236 Column_1237 Column_1238 Column_1239 Column_1240 Column_1241 Column_1242 Column_1243 Column_1244 Column_1245 Column_1246 Column_1247 Column_1248 Column_1249 Column_1250 Column_1251 Column_1252 Column_1253 Column_1254 Column_1255 Column_1256 Column_1257 Column_1258 Column_1259 Column_1260 Column_1261 Column_1262 Column_1263 Column_1264 Column_1265 Column_1266 Column_1267 Column_1268 Column_1269 Column_1270 Column_1271 Column_1272 Column_1273 Column_1274 Column_1275 Column_1276 Column_1277 Column_1278 Column_1279 Column_1280 Column_1281 Column_1282 Column_1283 Column_1284 Column_1285 Column_1286 Column_1287 Column_1288 Column_1289 Column_1290 Column_1291 Column_1292 Column_1293 Column_1294 Column_1295 Column_1296 Column_1297 Column_1298 Column_1299 Column_1300 Column_1301 Column_1302 Column_1303 Column_1304 Column_1305 Column_1306 Column_1307 Column_1308 Column_1309 Column_1310 Column_1311 Column_1312 Column_1313 Column_1314 Column_1315 Column_1316 Column_1317 Column_1318 Column_1319 Column_1320 Column_1321 Column_1322 Column_1323 Column_1324 Column_1325 Column_1326 Column_1327 Column_1328 Column_1329 Column_1330 Column_1331 Column_1332 Column_1333 Column_1334 Column_1335 Column_1336 Column_1337 Column_1338 Column_1339 Column_1340 Column_1341 Column_1342 Column_1343 Column_1344 Column_1345 Column_1346 Column_1347 Column_1348 Column_1349 Column_1350 Column_1351 Column_1352 Column_1353 Column_1354 Column_1355 Column_1356 Column_1357 Column_1358 Column_1359 Column_1360
feature_infos=[0:96.815098639595263] [0:66.820551721074295] [0:3] [0:4] [7.6629879150378759:130.51348974379795] [2.052880840033716:2.9370753858934342] [4.1057616800674319:5.3794033215774535] [7.6629879150378759:130.51348974379795] [0.98988598816065942:1.3994465467471462] [2.7663170126493579:5.5616974885049526] [2.4598318098164325:8.3896899801850271] [0.074366943820682194:0.36345710090854322] [0.54341803367488439:4.478378825849636] [15.711648794723304:574618.38330875663] [2.2445212563890435:8450.2703427758333] [2.397727454745556:15.178384030425525] [0:29] [0:29] [3:269] [3:123] none [0:14] [0:42] [0:146] [0:95] [0:8] [0:42] [0:2] [0:6] [0:4] none none [0:6] [1.5802469135802468:1722] [0:1517] [0:2363] [0:3199] [0:2905] [0:3367] [0:3990] [0:4242] [0:4410] [0:822] [0:1083] [0:1890] [0:2328] [0:2531] [0:2668] [0:2798] [0:3049] [0:3111] [51.295315119646403:1259.4166666666663] [40.858024691358025:749.61111111111086] [58.169753086419753:1429.6944444444446] [86.203123609205917:2561.8055555555552] [60.296296296296298:2624.5694444444448] [4:2636.7222222222222] [0:3135.6111111111109] [0:3853.5] [0:4390.7499999999973] [386:7090] [0:6324] [0:10189] [0:12921] [0:13869] [0:13921] [0:15477] [0:17451] [0:17976] [1507.7819699999991:38118.292372961812] [0:23566.604271] [0:37262.886946999992] [0:46079.252880000022] [0:48409.948706000003] [0:48071.791412999992] [0:56074.286596999977] [0:62209.530417999988] [0:63213.775722999992] [2164.9957438408601:50831.274108104153] [0:67932.194627456585] [0:106020.81817614258] [0:135133.49205083985] [0:149850.721300362] [0:156832.25417676682] [0:163940.89455748227] [0:176902.85678720471] [0:183925.10595088761] [29.092979:2071.0928119999994] [0:2190.946812000002] [0:4261.8213560000013] [0:6077.4069119999976] [0:7408.785968000002] [0:8012.6103719999992] [0:8490.6665159999975] [0:8751.5998160000017] [0:9562.8393959999939] [22.693700000000003:1655.7183] [0:1817.5815000000016] [0:3471.6222999999991] [0:4919.7612000000008] [0:5939.4962999999998] [0:6380.2806999999993] [0:6738.2599999999993] [0:6948.3055999999997] [0:7612.4007999999985] [18.773399999999999:1643.3900000000001] [0:1779.9499999999998] [0:3426.0300000000002] [0:4868.6800000000012] [0:5885.760000000002] [0:6316.3699999999999] [0:6671.4700000000003] [0:6863.6400000000003] [0:7537.5900000000011] [22.385398333942994:347.86869610795401] [0:466.02743131599982] [0:737.0171113413727] [0:956.19466853933295] [0:1096.9613212129511] [0:1178.8580855512866] [0:1248.402938407002] [0:1341.3309754230188] [0:1397.3938247813046] [424.56983048540098:44236.077026560371] [0:40939.85108373293] [0:84121.961318512986] [0:121675.38126219346] [0:152740.48573548943] [0:168944.45437744097] [0:180681.91845418408] [0:187002.237343599] [0:201528.04207378169] [0.52674897119341557:14.357142857142858] [2.1000000000000001:11.689655172413794] [1.1754385964912282:11.851063829787234] [0.69135802469135799:8.8428571428571434] [0:8.7894736842105257] [0:9.3499999999999996] [0:10.388888888888889] [0:7.5800000000000001] [0:8.9375] [0:4.1600000000000001] [2.6842105263157894:5.1538461538461542] [2.2982456140350882:4.8571428571428568] [1.6923076923076923:4.0408163265306118] [1.1363636363636365:3.8198198198198199] [1:3.7966101694915255] [1:3.512] [1:3.3455882352941178] [1:3.3611111111111112] [1.492929292929293:14.641798797708384] [1.7933723196881093:4.3611111111111116] [1.6187084520417849:9.8104226020892682] [1.4383727990285369:6.3832070707070718] [1.3820175438596489:6.5815412186379936] [1:15.549537037037036] [1:17.166152263374485] [1:7.3079483978360393] [1:11.100490196078432] [13.963636363636365:492.66666666666669] [17.300000000000001:57.333333333333336] [11.456140350877194:52.407407407407405] [7.9506172839506171:60.733333333333327] [6.2222222222222223:66.045454545454547] [1:57.142857142857146] [1:69.375] [1:187] [1:343.5] [54.050483418181813:2262.6498000000001] [61.763364566666624:243.80492984277785] [37.72062367543861:219.09284445074081] [25.065642895061721:252.17058427233329] [12.219088000000005:267.71132227272727] [1.0160640000000001:241.341669722381] [1.0160640000000001:305.03681695875002] [1.0160640000000001:875.46006546000012] [1.0160640000000001:1644.1806766075003] [170.51029748257289:721.66524794695317] [222.83072831188568:361.53735299328696] [160.1541035728753:347.97236312565013] [118.73168820896352:303.3334811302401] [75.243729134591291:288.96408454607928] [31.083744430930263:265.56755477917613] [31.083744430930263:297.89140653931702] [31.083744430930263:396.20754699977562] [31.083744430930263:510.58996730806354] [7.0657759999999969:9.6976596666666683] [7.3341998666666619:8.8316879999999998] [7.2130424912280677:8.8965770000000006] [7.0536860493827156:8.665592914285714] [7.027764564102565:8.8961074838709688] [6.718464:9.6795324000000047] [6.718464:10.008539999999998] [6.718464:8.8039893333333339] [6.7184640000000009:9.6002342916666681] [5.4943472727272704:7.5645666666666678] [5.9997250000000006:7.3029750000000009] [5.7391929824561396:7.4017653846153859] [5.4540339506172844:7.154066666666667] [5.4159519230769222:7.2203263157894728] [4.8400000000000007:7.9291800000000006] [4.8400000000000007:8.2724222222222217] [4.8400000000000007:7.2839632075471696] [4.8400000000000007:8.0820520833333358] [5.4104527272727241:7.6034411764705885] [5.8462500000000004:7.1751874999999998] [5.6286052631578931:7.3649230769230769] [5.3768888888888879:7.0991285714285706] [5.3405576923076907:7.1969298245614031] [4.8400000000000007:8.0761000000000003] [4.8400000000000007:8.4356666666666644] [4.8400000000000007:7.3154811320754698] [4.8400000000000007:8.0628117647058808] [1.1636493702446451:14.189100000000002] [1.4892731246249991:2.738908735555555] [1.2199184480040832:2.5960334128205127] [1.0216518748816366:2.3944742895333331] [0.74653988694966655:2.4465481303113177] [0.4446129048489999:2.2658705740260481] [0.4446129048489999:2.8380075331061247] [0.4446129048489999:4.7190204340000008] [0.4446129048489999:6.9513606374999988] [141.523276828467:180.93043839182312] [137.0687723330829:156.51834943650667] [139.17199833546152:168.44011749907702] [144.68318688591322:173.22135061896341] [145.94186287879154:177.99438552720298] [147.47628100486764:184.91765202424887] [149.30091101207989:185.10809821846399] [143.76524488390601:185.10809821846399] [135.33816579224501:202.776813875512] [0.077881925041574901:7.8080442438448934] [-3.3912158319975512:0.0045962575600937] [-2.8121160108008119:0.84278703409616673] [-0.63302502541409189:4.1888693961576609] [-2.1323104735879994:0.84654369045627165] [-0.99349853200392635:0.91850748766279422] [-0.69418635194427991:1.5578641973147147] [-1.9181191802113613:0.90949414112898397] [-1.3872039120713913:1.7574317169689091] [0.52674897119341557:1035.2416356877325] [-20.134179161860828:336.30520584292645] [-179.81477627471389:228.25191387329079] [-153.00599199350526:267.36212278876167] [-245.136507936508:180.76690102758243] [-149.45632315750203:185.95745154822899] [-248.23724968079705:264.57232049947959] [-232.75546305931329:128.24852071005921] [-224.0548095919568:122.72385694884562] [0:178.66914498141264] [-1.5743944636678215:78.65788200826411] [-17.029333333333327:17.760000000000002] [-42.373875430135016:35.014568158168579] [-58.408991031080291:26.856399583766912] [-27.168367346938776:21.80853277835589] [-27.672818146866589:21.72703528143613] [-67.414151925078045:11.546597633136097] [-39.443213296398895:15.765474817377935] [4.3051364121322973:512.84408602150529] [-117.717192739045:4.9768658496688083] [-150.50020233553013:258.74962797619054] [-64.302249609599343:210.17750859455705] [-98.504252400548694:114.3177623990773] [-110.80743438547808:221.01872466404933] [-128.48066285352758:159.85739428866776] [-207.83612051571424:143.91168792676945] [-270.01116071428567:117.58212355938576] [112.66666666666666:5261.2131147540968] [-113.21428571428568:263.83062920459042] [-241.45993756503651:957.60356949702555] [-475.92000000000002:388.02222222222218] [-767.75308641975323:2702.7066666666678] [-362.10666666666697:896.31404958677672] [-651.9625000000002:566.02393340270544] [-2038.4075000000007:721.2488888888887] [-2447.2577777777774:1076.7850040311746] [597.20326666666642:30476.172228304691] [-529.63362145234328:1144.6281568765339] [-1230.2362535904467:5220.0854257463488] [-2255.1210246307278:1784.2815078757881] [-4198.9931664623:15722.945822444806] [-2352.1111943425399:4977.7033953140572] [-3517.8799406156268:2613.247352352761] [-10626.961213589371:3492.3141611676569] [-13845.314076255376:5583.3832565755856] [89.184599781546808:13216.665792591724] [-252.27984462064663:399.78533134683255] [-1308.8402375145497:1539.9248313964658] [-3429.8382366955871:2473.4495637903474] [-2770.4392637234764:3121.415285755912] [-2174.8020795099246:3133.4534583420409] [-2218.1745504305327:1774.0427945281983] [-3172.018985772916:2625.214551066581] [-4666.9097842805904:2283.6671625104354] [0.21536691891891871:35.273041548387084] [-6.5425102434963565:0.83521737487602932] [-12.435056545265343:10.210484283794672] [-2.6184671561200603:12.117430751300724] [-5.1525242320221567:3.8732501211072674] [-4.3258108888888867:8.2937164183673477] [-5.4914219888614069:8.708903196670132] [-7.2973859021852219:5.2228941871455543] [-9.9010954285714288:4.7310578562926375] [1.0427652173913031:46.972935483870941] [-6.2274979188345467:1.1584120991735567] [-13.575994484911542:13.940519699005652] [-3.9861468192906666:12.337977835587942] [-8.107357142857138:7.194436073553268] [-6.3835222222221901:11.341506894570516] [-10.054674605104942:13.729628095733611] [-10.759326746691285:8.0003363421550038] [-14.888385714285704:6.6410644650892685] [0.81729729729729661:51.754838709677408] [-7.9153173777315056:1.3549000000000011] [-16.222591050988513:16.724479226014502] [-4.1665475206611413:15.296420395421498] [-8.3719257142857089:7.3308551038062255] [-6.836108677685921:13.226031255386371] [-10.103326653860492:14.360634755463094] [-12.523497506925189:8.9875183837429109] [-17.243310714285702:7.1507518005540387] [5.0770529915785909:59.620613845138813] [-4.2661122978372585:2.4674530452726287] [-9.6962667114214245:8.7995286274728528] [-13.930146412919891:12.110572701791805] [-12.860450645534916:25.680965048430011] [-9.3335800083858516:11.999908069075746] [-11.767444927722355:12.414065792889364] [-14.934901374527788:10.575052715422668] [-23.128453036472688:10.73455251938597] [8.5129394078406637:336.85706625674737] [-40.719836061554261:13.390321058300929] [-67.91854680331042:120.15063273027246] [-81.789396058640506:91.54944537102314] [-94.687435592982737:70.206171829249939] [-79.211663289745985:123.569351500831] [-91.500874583532493:82.179482402484467] [-130.19310523830202:48.677463319108327] [-131.51133774954121:96.730667382172314] [0.0021049168930155002:2] [-0.0403333400906941:9.0122697256740005e-05] [-0.0094539261342598997:0.0112885374311587] [-0.0073612461138249999:0.0104412941437053] [-0.0126472275333822:0.0084948988083650007] [-0.0075095672988733002:0.0264924946672098] [-0.045425435263195202:0.0303106021686586] [-0.045436744005264401:0.069223192956647805] [-0.0092306516347227998:0.069222687665315405] [0.1755829903978052:6.366782006920416] [-1.2583861976163018:1.9679015391362744] [-0.87736422293349625:1.9242746872504657] [-2.119602350744219:2.0476564957533814] [-2.1853340662864471:1.5319228900642581] [-1.875665748393021:2.28125] [-3.8462129950019226:2.8309397833207361] [-3.982222222222223:5.7224144559784724] [-3.2833346744990743:4.5511111111111129] [0:0.88016528925619819] [-0.098399653979238805:0.45581717451523529] [-0.236734693877551:0.1675471698113207] [-0.24183765445235919:0.1227586206896551] [-0.24733645325102049:0.1388888888888889] [-0.26188745092336768:0.25] [-0.2688659793814433:0.2214532871972319] [-0.2186722335895592:0.2214532871972319] [-0.25441083805923131:0.51839999999999986] [0.081873278236914496:6.3933897693669568] [-2.4964349612091263:0.1112546213964999] [-0.41430624132575938:2.6719250951036804] [-1.8372071317028384:1.8599779521642208] [-2.0989777306241426:1.4113303999886089] [-1.6067985372340423:3.1898349086934155] [-3.983617115449424:3.7119310200030178] [-3.852700402949246:3.504400313744477] [-2.4108139349489792:2.6121144118655697] [5.91867768595041:136.80246913580245] [-4.0031397174254311:3.7768421052631576] [-3.9130434782608696:12.545166666666663] [-9.5183999999999997:3.8524203069657617] [-29.528964862298203:18.768796296296305] [-7.7486615948154407:11.755102040816327] [-13.198302469135804:12.755102040816324] [-47.746913580246918:17.442906574394467] [-53.691358024691361:14.44] [28.594605726942159:787.65422585949182] [-17.352010616954459:16.090897320526313] [-16.848985347826087:68.40392367862502] [-43.350866193600005:18.003859316328509] [-161.49973717162692:109.18712376697782] [-40.806111071780791:54.184320999999969] [-71.49731665809378:58.459131448979548] [-273.35653029529504:79.960416003460267] [-345.11911444531245:66.437170809999998] [29.728199927182271:67.071981583675424] [-3.9245971091214593:7.1827782423790314] [-12.966290841262811:14.593564741003309] [-18.845265036788941:11.371671691111697] [-26.338008818767968:22.331911906463809] [-18.427038415888941:49.028933586046151] [-21.237135357141209:43.333660204946078] [-32.756626688921962:49.465961449843732] [-71.177027612788137:49.125072456018167] [0.0058207275383491:0.34833422222222232] [-0.046942935677083297:0.0192575182926829] [-0.029607277488727001:0.095425086764436104] [-0.0624980943153731:0.072265295063913396] [-0.073838623749999999:0.047817902729719301] [-0.073720270950933503:0.10038570312499991] [-0.14356435145823029:0.1124901276216858] [-0.1426580203571427:0.15714228719723169] [-0.12817657064471871:0.11878362249999939] [0.030065741417092701:0.50668888888888908] [-0.083146518166089894:0.025447903963414599] [-0.032323796392646501:0.1302852308318285] [-0.080822768166089895:0.098276461051021502] [-0.095630499999999896:0.079404040112777102] [-0.1081428028658271:0.1240070312499999] [-0.19305570934256039:0.12971013058963179] [-0.1961189999999999:0.2482384083044985] [-0.1915073248299318:0.1944810000000006] [0.0220891161431701:0.42755164359861569] [-0.10974855103806221:0.0304434695121951] [-0.038625216788067802:0.15630354416835979] [-0.088309065743944606:0.1170114266360755] [-0.1080959999999999:0.090504383997607699] [-0.1239903169778548:0.14649218750000001] [-0.2142433514582302:0.15884537000395699] [-0.2149954642857142:0.25058858131487882] [-0.1795626581632655:0.1940402500000005] [0.1949687435710302:2.8321999999999998] [-0.044923504530098399:0.0850098169897959] [-0.1071923792266998:0.12940483275695369] [-0.17130196981820159:0.062962537068899996] [-0.43880837121337601:0.17834003505854179] [-0.1355581374267788:0.23692201619184189] [-0.11539430766999011:0.1804094679061275] [-0.3077366957816885:0.1509741623467539] [-0.54564765564172835:0.19227351389315789] [1.1315895173972521:4.1747804280034737] [-0.69181366966678193:0.48561597534331791] [-0.63063063419931464:1.4011245215830377] [-0.90309224114209519:0.58981922089061167] [-0.6575516360623801:0.48733738461541459] [-0.45845217111330389:0.73553185417161315] [-0.92413057774746521:0.82120481802247314] [-1.0828246288021737:0.41700164897017428] [-0.9403888275627964:1.5820663781891475] [-0.76491810879687083:0.022871906693996601] [-0.35552343891016258:0.555677751939192] [-0.43621782928973041:0.38709058108970662] [-0.37520648212480928:0.3795305012044583] [-0.28556789132886362:0.48790293581922278] [-0.84098937879121238:0.62889800671146123] [-1.0048913648658071:1.2679880543399482] [-0.8589981952460497:1.5147207406558612] [-0.2157304574215661:0.50603378921963016] [-0.25311686678902129:0.34963952071486598] [-0.36337237768822261:0.32161561264822119] [-0.51268417715397252:0.2792316072287867] [-0.56835200198032121:0.63642384105960248] [-0.65937252834168225:0.66414469795484088] [-0.72786352558895206:0.98101766411811264] [-0.62947501581277665:0.83184402924451695] [-0.1175103305785125:0.68089430894308933] [-0.45940594059405931:0.29223343571741989] [-0.34222222222222221:0.21411387329591011] [-0.33627976190476178:0.2592592592592593] [-0.46803534303534311:0.46666666666666667] [-0.47362685265911081:0.3081761006289308] [-0.38801452784503648:0.31683168316831672] [-0.32131613062534731:0.68067226890756294] [-0.39047126035869878:0.25324506623975113] [-0.30331173177000398:0.62084982765139141] [-0.28736041411170682:0.45952866004038068] [-0.48469248467650888:0.2428868475449347] [-0.4414703709074842:0.56646206325781168] [-0.62308372540281753:0.73767512260967205] [-0.66271534509614705:0.54812868293050532] [-0.70639804923362781:0.51758932027923144] [-0.21941146102219919:0.27177385790530278] [-0.24876644736842099:0.24158639275623159] [-0.33485309017223908:0.2466751768789214] [-0.35079549864183152:0.35431499348109508] [-0.44120387248349319:0.67054714784633318] [-0.43704633236772877:0.69910514541387014] [-0.9646256079154788:1.0423904052936313] [-2.394013080664096:0.97337962962962976] [-0.21547051399466369:0.25480948932248498] [-0.24200439609640559:0.2467325966265479] [-0.335187129761567:0.25904122327446572] [-0.35692875449358641:0.36027673816180111] [-0.43441194939985073:0.70004657044364926] [-0.43287717281370841:0.72592274054313943] [-0.96683274769186678:1.0782131207660339] [-2.3995241483815235:0.97782182820330565] [-0.077795580710023904:0.1702085475801268] [-0.26698214282840649:0.26912219865108611] [-0.35703975084366479:0.23982542600835621] [-0.49482984220311271:0.41376327175116051] [-0.35897634775768011:0.91097848255016178] [-0.4147467520586528:0.87728233573663128] [-0.63971455185267412:1.1883690045981541] [-1.2690660082950034:1.0428439748447329] [-0.29229932567510097:0.27300814891278241] [-0.34292818783778312:0.60939746168726072] [-0.30059248034631669:0.46797163742701348] [-0.62863139394291956:0.2259345452500581] [-0.4235135580932779:0.52422744108633901] [-0.69049088563208783:0.64525253569643926] [-0.74030368132552615:0.75579568294597022] [-1.9221258128449867:0.62651441837673782] [-0.31480117150688008:0.2445173890846932] [-0.26426994862491021:0.50246193158923336] [-0.3390851806005114:0.42024863474156532] [-0.66427872402630928:0.2299668095294366] [-0.54687236859387411:0.58690343012904422] [-0.70045547791283647:0.60110083041830031] [-0.7633495381812947:0.900672419983781] [-2.1399431075631958:0.75697398791058945] [-0.35735305917889659:0.27988457064832623] [-0.30046845584694021:0.54257182487935007] [-0.32207667375322391:0.44107943836632552] [-0.62009390156958211:0.22247733482364601] [-0.51994163827335582:0.51003768637483204] [-0.69051872910508927:0.60773605507929085] [-0.74863120094543412:0.80766150977400686] [-1.6465859205585245:0.68717794894319018] [-0.2055795545966855:0.2161154601615001] [-0.29637823801760421:0.34255366007591731] [-0.46078655300571431:0.22218706620539869] [-0.41362760802917059:0.38999300701680129] [-0.46075255208591348:0.5620019309597738] [-0.35454689422342228:0.442723863882723] [-0.79852297825969054:0.41280140528510068] [-1.8200138697202608:0.8246348455895558] [-0.44133873075452168:0.28999487549929859] [-0.36806940199403088:0.46518534869645772] [-0.36815746905740709:0.2572764938435082] [-0.28074573197851382:0.35786929158866548] [-0.33461458570645919:0.41046985879167419] [-0.49805764270483621:0.2844522594754117] [-0.4412943667479905:0.28988437551886082] [-0.61104658197204831:0.73045452040228975] [0.27951417712944038:2.0546557687977942] [0.24888897036672189:2.1009183285345019] [0.1563854222981145:1.8671078149503264] [0.15628145184286249:1.9579317881135645] [0.15226461881767589:2.28076291197296] [0.1545832295965297:2.0286549102254683] [0.033745759171645698:2.4493346080554459] [0:2.1553477001532459] [0.3223136645962732:1.1853818522567541] [0.44525220857026798:1.5298541537769548] [0.563781545741325:1.4927852521310463] [0.4509960408744505:1.8297093451066959] [0:1.7530950461641472] [0:1.8256847673473828] [0:1.9596437275153769] [0:2.2825668654993265] [0.48840241186376238:1.7561983471074381] [0.90609916630100895:2.187957089552238] [0.83764062024931574:1.7266748241052308] [0.19259259259259259:1.7458445612443636] [0:1.6502083815698083] [0:1.5642982971227244] [0:1.5106778258070448] [0:1.6474549928765705] [0.42574123713166229:1.4959420925641584] [0.1787005242810932:1.552630192509024] [0.2420903453551988:1.5384153713461004] [0.2450878369229296:2.2260690113483204] [0:2.7364582365934078] [0:2.6262937089064864] [0:2.3055300116446458] [0:3.3166548976968668] [0.34722023126911311:1.2921546493579803] [0.30673018082425629:1.509765625] [0.25922430697134441:1.5243632018866542] [0.2570029478358033:1.7139396990180822] [0:1.6177097525601021] [0:1.7371937351761078] [0:3.6852255576052326] [0:6.4397115545866184] [0.31915404425886529:1.2930694316334472] [0.30217367055505928:1.4815196212288195] [0.23781042336185329:1.480666123694075] [0.2359101737648267:1.6523912975463957] [0:1.5966399689529658] [0:1.7675261620844069] [0:3.6594977504430708] [0:6.3942922870409449] [0.48565896199918068:1.3228955460923664] [0.58635004288583736:1.3842597110787824] [0.7511250648671508:1.4260121006049828] [0.50245645894195989:1.4981232752093323] [0:1.3239401332858851] [0:1.3651783410983822] [0:1.753005906019151] [0:2.4368499523330933] [0.35932992168815348:1.404408352668213] [0.30477015727738832:2.0277033374812921] [0.29791334032617711:1.6658606975952468] [0.34092369409829321:2.3130609641706812] [0:2.6310497914116944] [0:2.0790082591203358] [0:3.4080372833869141] [0:6.1446691622573333] [0.42796893553714471:1.2852233676975944] [0.35341597929880592:1.6485299271665748] [0.34798365877767617:1.4539704350249292] [0.41306661900192082:2.2245256940177134] [0:2.3199341629741377] [0:1.893660995028575] [0:2.8367563119701256] [0:5.14712726704074] [0.39633924645460339:1.3357932153620278] [0.34926414720131221:1.8489606895981401] [0.31931360496803451:1.5692135591141043] [0.3652992472667716:2.2315044321885611] [0:2.45554477853217] [0:2.0455820385046759] [0:2.4258990895643224] [0:3.498704183635692] [0.4784878187367142:1.6898080452294311] [0.38640688322762129:1.6712804706200957] [0.50745945249035795:1.5374403247501802] [0.4928943292353084:1.5463367417311795] [0:1.5642490442937478] [0:1.5528905620036064] [0:2.9009775583774906] [0:5.0948704238696045] [0.66650862825233659:1.7494813039656776] [0.58036167280547069:1.6731134414281548] [0.63341486954281934:1.4451179363918285] [0.51594233598399986:1.2933081961279418] [0:1.3594114322386084] [0:1.5667793916261674] [0:1.8001064185884368] [0:1.8654240647855669] [0.25436742005744373:0.63056541185932091] [-0.76098108026928934:-0.26740768574273682] [4.0149793219328664:7.0148261288676137] [0.150756583602043:2.8122063895406089] [3.0542502726361431:4.1293396707486982] [0.91100311778591725:1.82727215556832] [2.2105102433600883:8.0085529669704769] [0.29319821121195661:1.5413905764363127] [6.3908341808002405:53.001263383549215] [5.6263247835520751:5.8466525863783296] [12.401834180800211:126.90557772320838] [11.637324783552058:11.863669637561223] [20.814183127763972:32.517069704312277] [13.301305762877684:20.264980070864851] [3.1368341808002178:4.0311041448298752] [2.3723247835520747:2.5742404666703158] [2.9408341808002194:4.007668592981438] [2.1763247835520705:2.3715298171761168] [2.8908341808002271:4.1250695829795427] [2.1177206626804206:2.310997080586588] [1.9157076346354631:5.3543884455485964] [0.52634377096023899:1.3540093978580765] [11.651134180800216:17.431795078359272] [10.309841536915124:11.074774522991875] [0:3.6842411066896918] [16.258210739857432:2058.1346596411586] [8.4631256000760686:1026.8899075755012] [12.39050989096047:1331.1241495734689] [16.694435229653351:2067.1649391870737] [2.3849193185219071:20.431211893057025] [8.4640366698330283:1026.8899075755012] [0:10.5] [2.6102075981831567:10.145430338136451] [0.096623146077489994:0.37295367014865971] [0.60275481376654527:4.6683986482834943] [17.870532187035071:1210.1067903601397] [2.5529331695764386:11.524826574858473] [2.5264781658207802:9.4498391483558724] [16.25895491957349:2059.4302158262208] [8.4626232185801946:1027.5168361302246] [12.390253196847606:1331.9685287017414] [16.694865402436555:2068.4383520562537] [2.3849807717766507:20.432783973994759] [8.4635346760611601:1027.5168361302246] [0:10.469154322145137] [2.6102061704534045:10.145455385511502] [0.096623384623919006:0.3729502367145025] [0.60275426678700861:4.6684011171136284] [17.870698327679722:1210.0950677578087] [2.5529569039542461:11.52471493102675] [2.5264874626828213:9.4498294610628122] [23.042207121223587:3017.3105359043202] [11.240733445046803:1497.1228384232641] [15.987846801143116:1943.8829154202319] [22.641678384702171:3003.8715112814257] [3.2345254835288819:28.608300107442151] [11.240773664854006:1497.1228384232641] [-16.757768078437078:0.33315451895043768] [2.6020002594078955:10.142374768910289] [0.096594045418193206:0.37356146300988302] [0.59960553584715481:4.6680974260238024] [18.156038173130678:1212.0684736584356] [2.5937197390186681:11.543509272937481] [2.542328243161025:9.4514589186147262] [19.87732126188245:2060.789983365783] [10.168717579686543:1028.1748042533925] [14.125016852626333:1332.8547161232368] [20.205974045804329:2069.7748367836321] [2.8865677208291904:21.216353043322552] [10.168850996850598:1028.1748042533925] [0:10.436781609195402] [2.6038302547762138:10.145481625888689] [0.096623634532273198:0.37481235507409721] [0.60030859194500941:4.6684037035271748] [17.985958880914342:1210.0827851589349] [2.5694226972734771:11.524597953894618] [2.532916447379197:9.4498193109006206] [20.137838519560411:2042.7558211915848] [10.28468578364801:1019.4456222990332] [14.245574248014195:1321.0979981503106] [20.446076410800131:2052.0459122006805] [2.9208680586857332:21.218627279752742] [10.284803695851306:1019.4456222990332] [0:10.866279069767442] [2.6031340021027898:10.145129535038944] [0.096620281286085102:0.37492814736500912] [0.60004116061910617:4.6683689987223769] [17.98979636229252:1210.2474521350932] [2.5699709088989322:11.526166210810411] [2.5331297844650642:9.4499553807425567] [20.193557538348067:1995.2197414371087] [10.320174706285462:996.4064369083286] [14.284349038915884:1290.0705396906701] [20.512694591364401:2005.2752712226336] [2.9303849416234851:21.124841316826785] [10.320288940412087:996.4064369083286] [0:11.999999999999998] [2.6027162324737869:10.144157404004748] [0.096611022895283297:0.3750145604330658] [0.59988066056202616:4.6682731716942651] [17.984939584023124:1210.7005801028274] [2.5692770834318748:11.530481715265022] [2.5328597739606842:9.4503297200236904] [24.048771607719665:3907.148581323464] [11.436216728116587:1929.5816079068891] [16.848316872040275:2492.9531093180021] [23.545806731417805:3869.4281555903599] [3.3636866759168291:36.85169671990819] [11.436252331240659:1929.5816079068891] [-45.456359102244392:0.93577981651376163] [2.5997776418437075:10.131218038356458] [0.096487790841490007:0.3723138471481432] [0.59875097506365305:4.6669968089021969] [18.210660436612564:1217.9833486007583] [2.6015229195160807:11.59984141524532] [2.545332216941727:9.4563270342403278] [20.693060081079199:2194.2880453963453] [10.502271678572678:1092.5199505972464] [14.521067145183199:1419.5303017320689] [20.91554813541217:2200.5901297623159] [2.9879354479160241:21.287916813047666] [10.502364239424971:1092.5199505972464] [0:7.2716358068886509] [2.6017668931929352:10.147832630625748] [0.096646025053578499:0.3751287723090751] [0.59951584458762186:4.6686354059211608] [18.013951034346757:1208.9750518874291] [2.5734215763352508:11.51404811321361] [2.534471571219211:9.4489034722365162] [2.7548875021634678:3813.8013977624737] [0:281] [0:135] [0:271] [0:10] none [0:29] [0:34] [0:271] [0:19] [0.0247347592400377:0.58331774133900383] [0.0133377087102229:1] none none [0:6] [0:20] [0:9] [0:28] [0:41] [0:10] [0:2] [0:1] [0:1] [0:0.4553418012614795] [0:0.65390258069014295] [0:1.2055484262161631] [0:2.2158587892959924] [0:4.5151772077712202] [0:0.4553418012614795] [0:0.64101086915853867] [0:1.0680186509646612] [0:1.6933764832446769] [0:3.6742769671813078] [0:11.121567315124231] [0:0.80767753582520529] [0:3.3087457770104267] [0:1.030613401585911] [0:6.3573504035295567] [0:0.78033008588991071] [0:1.1828294867764186] [0:0.41633947272618538] [0:27.010434915748291] [0:45.033687323258533] [0:71.887927561525402] [0:13.031705971425296] [0:19.035346620910619] [0:25.926264531737274] [5.2760208819388943:88.637430560111227] [0:58.456846542858841] [0:55.600447362484161] [0:48.465387984815713] [0:40.499146951451642] [0:32.818030399351805] [0:23.533644797860671] [0:18.259029171981769] [0.63633050191549956:0.83740104565225693] [0.38842081212246071:0.53012320209210351] [0.22528926140783551:0.38508499305618721] [0.13238546088187911:0.29700362305284622] [0.076739384216812201:0.23570226039551581] [0.044484523526572201:0.1394193839563013] [0.025240575747682001:0.11785113019775791] [0.0149097904743973:0.057486487351806503] [4.558909992029494:76.243671626098717] [0:45.794305377553727] [0:38.563153559115122] [0:29.313368703522425] [0:21.798341622494743] [0:15.55241443539156] [0:9.6342537957981609] [0:6.6759609330977501] [0.50553005513325389:0.80051418794987561] [0.26380052076003258:0.50609474706874347] [0.13189278031161919:0.30131152381755849] [0.069879179502950306:0.2003019398011123] [0.035477121710041602:0.17158590373150229] [0.018000702743765001:0.13303164142037019] [0.0087137747683840999:0.075612862576456302] [0.0042790282340258003:0.0441574058836713] [10.333333333333329:156.66666666666669] [9.7548913495962086:144.54957955207723] [3.8345921025849785:154.56780460004072] [3.3404952658412235:270.07064821558629] [3.1254901960784318:258.73333333333329] [2.9279999999999999:262.68000000000001] [6.0538922155688626:166.74118443113775] [3.1375237782297094:305.17895420193071] [0.47272727272727277:3.5555555555555558] [0.42006342670733637:3.7820886409680021] [0.53163545695094638:1.2781973675283262] [0.96727802423359643:1.1134984219470745] [0.91614973262032062:1.0581314878892734] [0.92778181818181837:1.0802352941176472] [0.58935074367394247:2.0179640718562881] [1.0458412594099031:1.1806922185230673] [23.434204413525137:2502.0458814402082] [11.717102206762569:1240.4358941572857] [15.931421950140106:1618.850440719335] [23.434204413525137:2502.0458814402082] [3.347743487646448:25.410056920373609] [11.717126434781292:1240.4358941572857] [2.6026709766527372:10.151969161516154] [0.096685420585868098:0.37374643877433189] [0.59986327249107863:4.6690429498952364] [18.193985305373339:1206.9844379528424] [2.5991407579104768:11.495089885265166] [2.5444161177974798:9.4472555850153768] [0:20] none [0:17] none [0:10] [0:18] [0:42] none [0:8] [0:11] [0:6] [0:4] [0:2] none [0:4] [0:2] none none [0:4] [0:3] none [0:2] none [0:21] [0:6] [0:21] none [0:6] none [0:2] [0:2] none none [0:4] none none [0:38.827527504251712] none [-7.0659775107978167:22.426926492819351] none [0:18.889397522155097] [0:39.182535868688547] [-77.966635031472009:9.5510614016548363] none [-3.6481481481481479:3.4369488963040213] [-10.285227519127227:9.6524312809214337] [0:8.5061521583942223] [-9.2474993307508182:0.6455142983119172] [0:10.820441687820711] none [0:12.297306107772584] [0:5.8306403671698535] none none [0:15.879204280229089] [0:7.0919015439213311] none [0:3.7016032506031049] none [0:239.67258013946056] [0:80.709259178942077] [0:127.62426875231525] none [0:77.539735449735446] none [-0.15765043671789719:3.7334358803974599] [0:3.45930440726768] none none [0:24.278858847036755] none none [1.029287603930461:2.5709021216511294] none [-0.9560185185185186:1.5832050019017914] none [0.55787037037037024:2.578590836797682] [1.0250262188208616:2.4688832199546487] [-1.5601851851851858:1.1607345200094117] none [-1.8240740740740733:1.8146789441085081] [-0.79055697278911574:1.6482898715041574] [0.4554175065087766:1.525723261526833] [-5.322142266628874:0.53793126513709744] [4.7639120370370369:6.6334674981103561] none [1.4609007532819831:3.9697222222222224] none none none [3.4462269563983128:4.9669129503653311] [0.59203703703703692:2.738413369939344] none none [7.3912037037037033:12.523640897178597] [9.0995370370370381:14.500360477219036] [3.8063438917233561:6.9804814291371704] none [12.032466184208609:14.973198465668808] none [-0.15765043671789719:2.0567458484367789] none none none [5.7175975879034731:6.8743154646365188] none none [1.0007355967078189:2.3715740740740738] none [-1.2193051006410789:1.3021570294784579] none [0.55787037037037024:2.578590836797682] [0.54699900793650791:2.3295169595616025] [-2.9769333690266242:0.85889172335600894] none [-1.8240740740740733:1.8146789441085081] [-2.13512763040631:1.6339408541194258] [0.3480756417793458:1.4785704837490554] [-5.322142266628874:0.53793126513709744] [4.7639120370370369:6.6334674981103561] none [1.4609007532819831:3.9697222222222224] none none none [3.3921287879265321:4.9669129503653311] [0.59203703703703692:2.738413369939344] none none [7.3912037037037033:12.0489843159486] [9.0995370370370363:14.319776714667608] [3.8063438917233561:6.6660185185185181] none [12.032466184208609:14.973198465668808] none [-0.15765043671789719:2.0567458484367789] none none none [5.7175975879034731:6.8743154646365188] none none [0:27000000000] [3.4000000000000004:45.500000000000007] [0.43309523809523809:0.61564625850340138] [0:0.55882352941176461] [0.11837655016910929:0.56784660766961659] [0:0.18939393939393939] [5.25:81.25] [0.57499999999999996:1.55] [3.75:71.75] [0.51666666666666672:0.72727272727272729] [0:36.5] [0:0.94999999999999996] [0:3.5] [0:0.18421052631578941] [4.8850527689410574:245.56686042574319] [0.46088645647747378:2.3387320040546973] [2.1838545216765106:34.830158298478082] [0.17104846649120981:0.47568377583062132] [6.9316264588596077:376.89574455948667] [0.99023235126565823:3.5894832815189206] [3.1807392125526213:49.645569070125049] [0.43271858219593468:0.49734156540964097] [1.3162051031570314:131.32888413374346] [0.065810255157851494:1.3126872712775088] [0.41897747376514438:14.815410771646969] [0.020948873688257201:0.31932729830788109] [-0.035276180410082902:2.7686444922480442] [-0.0018566410742147999:0.058702774041374799] [0.17451505967760689:4.5746444922480434] [0.0113960857337075:0.058702774041374799] [0:0.11564625850340129] [0:0.0669047619047618] [0.45272727272727309:0.80000000000000027] [0.69999999999999973:1.1499999999999999] [0.42173913043478273:0.46296296296296319] [0.44603174603174639:0.80000000000000027] [0.66666666666666685:0.96991341991341962] [0.0098701298701299005:0.37499999999999978] [0:0.16232048374905489] [-0.37499999999999978:0] [0:0.25974025974025983] [-71.75:7] [-0.68333333333333335:0.36842105263157893] [0.38260869565217392:0.78723404255319174] [0:0.33139130434782599] [0:0.0732340425531917] [6.0300000000000002:3219.2800000000002] [0:0.60869565217391308] [0:42] [0:21] [0.91829583405448956:1.9746017527145807] [0.91829583405448956:4.278623399598418] [0.91829583405448956:5.3768622357583] [0.91829583405448956:6.2371261303227694] [0.91829583405448956:6.4976243976876269] [0.91829583405448956:6.7067867118381495] [2.7548875021634687:362.76676932219641] [2.7548875021634687:844.43470059965455] [2.7548875021634687:1425.5231278995041] [2.7548875021634687:1677.7869290568249] [2.7548875021634687:1747.8609629779717] [2.7548875021634687:1804.1256254844625] [0.1670794324577605:0.57938016428569505] [0.27342794315318319:0.87327370988058683] [0.46218279483750019:0.9375] [0.56552675195728552:0.97089225238201982] [0.57938016428569505:0.98514181445167837] [0.57938016428569505:0.99999999999999956] [0.1647643115064174:0.50459847739918362] [0.2710123611552599:0.87327370988058683] [0.44660049217092829:0.92495727570365915] [0.56220895584411179:0.92495727570365915] [0.59838199123134039:0.93797162692786895] [0.59838199123134039:0.9483641009177658] [0.66666666666666652:6.7228870119164874] [0.48249196444024761:5.2583232871144245] [0.25:4.029106631119773] [0.15384615384615499:3.372186373810087] [0.071428571428569398:3.089770647933844] [1.7763568394002505e-15:3.089770647933844] [6.0976508076191847:54.870942038951533] [13.320250094849955:69.624540313530815] [20.103063697455767:72.797371079557792] [23.20150549825749:79.669983669235634] [23.555276273895249:83.609205891457862] [23.555276273895249:83.609205891457862] [24.323862507236839:448.24341647323718] [18.276063705832648:288.25750178292668] [17.635723907136935:201.05894390467481] [16.11266308835436:145.1859954010867] [15.552806165317334:138.16475021165184] [15.552806165317334:138.16475021165184] [5.1428571428571432:100.45168724279836] [1.8518518518518521:43.344948918925482] [0.95999999999999996:24.535510204081632] [0:1] [0:1] [-14.64290026550055:9.3031972897943085] [76.129999999999995:1329.5900000000026] [44.557992307567403:727.81053183115773] [0:206.71119732145601] [0:24.070696764989783] [0:26.133214692589771] [0:26.342490286048921] [0:37.985311465384413] [0:122.57092028878979] [0:157.17306645590614] [0:104.48321848669302] [0:135.22411221741899] [0:170.91105885695245] [0:44.030187105346485] [0:29.535898646757527] [0:11.853487489812856] [0:206.71119732145601] none [0:30.17521197665037] [0:47.343248369291139] [0:401.52374368934858] [0:92.496347503180857] [0:142.58456242635737] [0:51.394956987562402] [0:26.583943020031651] [0:457.40243347137289] [0:104.32633344414468] [0:53.160469210337041] [0:207.09211953894021] [0:106.44939004032622] [0:20.090533254965305] [0:33.772138459636366] [0:33.326847787741222] [0:28.747559166419524] [0:303.91718442812748] [0:67.591280393999824] [0:117.09599573387339] [0:99.885828860533863] [0:96.436259126876763] [0:80.438219391208136] [0:89.829048689313055] [0:140.97813067539423] [0:99.47412202980108] [0:107.23707529165485] [0:127.62426875231525] [-0.57770786092214688:68.84890266843648] [0:239.67258013946056] [-4.7530347694633406:12.210875503081388] [-9.4946705463381136:10.546180816704805] [-1.5601851851851858:32.708832476717099] [-77.966635031472009:24.421409586565744] [-0.86298240441127727:32.45821068242595] [-8.0565127710976121:7.6689027946879991] [0:3.3909593664071571] [0:13.627181515116661] [0:12.510202150160168] [0:4.5480607974305594] [0:44.948167831095063] [0:50.48344414266893] [0:10.411264816865687] [0:27.47831971482044] [0:6.0191873701184528] none [0.00028748481347099999:16.579317711459499] [0:5.2912929447124331] [0:23.188327836589448] none none none [0.0769230769230769:3.0589770243656096] [0.090909090909090898:2.3784142300054421] [0.058823529411764698:1.3138145790005391] [12.505242858682481:211.39808306938767] [1.7864632655260684:2.1977307988091592] [0:80.073462267658471] [0:1.2186401216890563] [5.7747869563171479:131.32462080172937] [0.59112878263979352:2.144205633078534] [0:16.107991693297848] [0:0.47779466009145738] [0:80.073462267658471] [0:0.83759259448492573] [0:10.366273009265363] [0:0.4990864535832209] [0:203] [0:280] [0:376] [0:481] [0:550] [0:652] [0:758] [0:895] [0:1036] [3:5472] [0:4.9836066217083363] [0:5.4380793089231956] [0:5.8081424899804439] [0:6.3578422665080998] [0:6.9920964274158877] [0:7.495437771791865] [0:8.0424508521983267] [0:8.5842617125281198] [0:9.1028380243023204] [0:9.5011751354863403] [1.3862943611198906:10.461604002740565] [10.109999999999999:278.45777800000064] [0:182.92422200000047] [0:21] [0:2] none [0:6] [0:10] [0:1] none none [0:21] none [0:4] [0:8] none none [0:5] [0:3] [0:5] [0:3] [0:3] [0:2] [0:21] [0:2] none [0:6] [0:10] [0:1] none none [0:21] none [0:2] [0:8] none none [0:3] none none [0:2] [0:2] [0:2] none none [0:2] [0:2] none none [0:2] [0:2] [0:1] none none [0:2] [0:2] [0:2] none none [0:2] [0:2] none none [0:2] none none [0:2] none [0:1] none none [0:2] [0:2] none none [0:2] none [0:1] none none none [0:28] [0:0.68181818181818177] [-12.394899999999996:10.812699999999998] [0:450.181800000002] [0:618.66000000000042] [0:618.66000000000042] [0:34] [0:18.888888888888893] [0:14.694444444444445] [0:11.848888888888892] [0:5.7847222222222232] [0:5.9714285714285724] [0:5.0555555555555554] [0:3.276895943562609] [0:2.4750154320987656] [0:2.486174880114274] [0:0.5] [0:0.18703703703703711] [0:0.088888888888888795] [0:0.068571428571428505] [0:0.0590277777777777] [0:0.040000000000000001] [0:0.029513888888888801] [0:0.0302372685185185] [0:0.025624999999999998] [0:0.020610141822262999] [0:0.74589743589743596] [3:100000000] [2:100000000] [0:1] [0:0.5] [101.043493971212:1707.0028540578619] [3.5849625007211561:8.0768155970508317] [0:135] [0:6.517671272912275] [0:7.4042791180372678] [0:8.325306029752582] [0:9.2282785171071957] [0:10.152259863484153] [0:11.06267740308984] [0:11.988643983086067] [0:12.903791858403594] [0:13.83154235913331] [3:349.41445040500628] [0:5.602118820879701] [0:2.5649493574615367] [0:6.9874902470009914] [0:4.7957905455967413] [0:8.5615927787129227] [0:6.8885724595653643] [0:10.230306199986291] [0:9.3104571633109554] [0:11.95312044826608] [3:182.67087388878784] [117.024834844:1735.0000640320036] [5.04139909309092:44.622282519999999] [40:378200033329] [0:240] [0:676] [0:821] [2.9444444444444446:44.888888888888893] [0:26.611111111111107]
tree_sizes=1674 1681 1593 1507 1687 1601 1692

Tree=0
num_leaves=18
num_cat=0
split_feature=3 707 1336 289 987 128 164 1076 835 251 157 45 316 880 810 409 451
split_gain=143.165 107.126 113.65 49.1676 32.2632 25.5333 21.2594 20.9157 17.7738 17.0381 13.9214 10.8341 10.5582 7.77483 7.4627 7.01782 6.70453
threshold=1.0000000180025095e-35 8.4481788570601868 7.1514851568125337 -924.19767920064135 1.7630281425841943 13419.521940050905 12.776065162907271 284.15475630838358 5.1237022811664028 -0.74834593572778951 2.0402865129280228 361.50000000000006 -0.40998399999999996 8.5000000000000018 5.2502572592473582 -0.00065812884075814985 0.013224668444804752
decision_type=2 2 2 2 2 2 2 2 2 2 2 2 2 2 2 2 2
left_child=-1 2 4 -4 -2 -5 11 -3 -9 12 -6 -7 -8 16 -14 -16 -11
right_child=1 7 3 5 10 6 9 8 -10 13 -12 -13 14 -15 15 -17 -18
leaf_value=-0.26693646916676328 -0.22935596022779658 -0.20124129875309707 -0.04525555759495168 -0.026656598064559913 0.031741280859334364 0.10696639355415867 0.10782895109672207 -0.0038324942816249704 -0.14963103659337418 0.034103269111296665 -0.10992232617484475 -0.02157355065973143 0.13876557666382433 0.15809206537047066 0.18548919791581719 0.28243693138499154 0.12481314805265956
leaf_weight=75 52 68 97 51 56 51 63 79 58 80 55 54 50 59 64 56 55
leaf_count=75 52 68 97 51 56 51 63 79 58 80 55 54 50 59 64 56 55
internal_value=-1.46457e-09 0.0191033 0.0506358 0.0865893 -0.0993541 0.108526 0.121485 -0.110565 -0.0655574 0.141311 -0.0384524 0.0408601 0.177765 0.0975279 0.203683 0.230731 0.0710591
internal_weight=0 1048 843 680 163 583 532 205 137 427 111 105 233 194 170 120 135
internal_count=1123 1048 843 680 163 583 532 205 137 427 111 105 233 194 170 120 135
is_linear=0
shrinkage=1


Tree=1
num_leaves=18
num_cat=0
split_feature=1132 1314 1358 651 118 433 1174 373 1249 562 14 814 1152 628 651 537 15
split_gain=98.9497 90.8218 52.4775 25.6691 19.569 17.4932 19.998 16.9277 12.9048 12.7807 9.22736 9.00219 7.70223 6.85256 6.27776 4.15939 3.98896
threshold=1.0000000180025095e-35 0.070145903479236757 118.50000000000001 20.89643450901816 179.57178792283756 -0.023386231126278197 7.2450753218597619 -0.041303252721380988 1.0000000180025095e-35 1.0173465544610247 15.356575968875637 3.2235141976308319 5.5682780108831329 0.93191709951846058 22.457521555783938 -0.045240265746964194 5.9035918989048204
decision_type=2 2 2 2 2 2 2 2 2 2 2 2 2 2 2 2 2
left_child=-1 2 7 -4 8 10 11 -2 -5 -10 -3 -7 -9 -11 15 -15 -17
right_child=1 5 3 4 -6 6 -8 12 9 13 -12 -13 -14 14 -16 16 -18
leaf_value=-0.21436036631464958 -0.12911388843500041 -0.20773912650346757 -0.053545600092038514 0.026072451279594983 0.0088344312196268759 -0.043759785778820517 -0.12821752839330314 0.063152372553944597 0.2031768463138077 0.049518053367978238 -0.086829964728916409 0.068498705172876137 -0.035773672737071625 0.14702652670046101 0.17766341997453802 0.042184236143135802 0.11719254524004263
leaf_weight=80 57 50 50 58 85 62 69 50 72 61 51 53 85 61 65 53 61
leaf_count=80 57 50 50 58 85 62 69 50 72 61 51 53 85 61 65 53 61
internal_value=0 0.0164418 0.0526303 0.0832799 0.0965382 -0.0798069 -0.0430961 -0.0377221 0.113835 0.127481 -0.146686 0.00797674 0.000865603 0.109375 0.124589 0.104875 0.0823203
internal_weight=0 1043 758 566 516 285 184 192 431 373 101 115 135 301 240 175 114
internal_count=1123 1043 758 566 516 285 184 192 431 373 101 115 135 301 240 175 114
is_linear=0
shrinkage=0.2


Tree=2
num_leaves=17
num_cat=0
split_feature=3 1210 1314 659 925 1260 89 1190 1306 656 161 566 156 1044 545 547
split_gain=68.0474 52.933 53.4092 24.2318 20.2129 20.0688 11.5537 12.3401 9.91226 8.93997 7.51443 7.44558 5.26344 4.40064 4.09658 3.73579
threshold=1.0000000180025095e-35 4.0690176227350401 0.099020508111417174 1.9869386983771178 3.1523269683409025 1.0000000180025095e-35 620.36665399999981 33.242645449798751 3.1388888888888906 2.2370428467419869 21.7790864133264 0.92322984180380652 2.1139761564268742 0.0058121398812424011 1.1106598883563372 0.97242640675359693
decision_type=2 2 2 2 2 2 2 2 2 2 2 2 2 2 2 2
left_child=-1 -2 3 -3 5 6 7 -5 11 15 -10 12 -6 -14 -15 -4
right_child=1 2 9 4 8 -7 -8 -9 10 -11 -12 -13 13 14 -16 -17
leaf_value=-0.18403305672605832 -0.13812183286994695 -0.082311310105025778 -0.060108857083683603 -0.043938105091113941 0.039766170206878865 0.10559499376229471 -0.072338260286487641 0.084780424098627502 0.19385068251328036 -0.0050913086959293915 0.087806513595681354 0.0056850081521718368 0.15281206111441245 0.12177949218598545 0.050141470734752829 -0.12502983270642851
leaf_weight=75 85 50 78 55 70 79 80 65 55 77 52 56 53 61 67 65
leaf_count=75 85 50 78 55 70 79 80 65 55 77 52 56 53 61 67 65
internal_value=0 0.0131703 0.0265242 0.0521538 0.0618555 0.0202476 -0.0134646 0.0257844 0.0898956 -0.0600339 0.142315 0.0716256 0.0863374 0.104348 0.0842815 -0.0896184
internal_weight=0 1048 963 743 693 279 200 120 414 220 107 307 251 181 128 143
internal_count=1123 1048 963 743 693 279 200 120 414 220 107 307 251 181 128 143
is_linear=0
shrinkage=0.2


Tree=3
num_leaves=16
num_cat=0
split_feature=1132 668 1166 45 952 229 465 37 536 560 1080 636 1215 475 1136
split_gain=44.2432 36.4433 21.0913 26.4092 15.0924 11.6455 10.741 9.63543 8.4951 8.29249 8.05874 7.98527 7.43991 6.01256 4.52388
threshold=1.0000000180025095e-35 8.0376491755621888 2.2193425217309151 268.50000000000006 2.0731040958049891 163.65487848324452 -0.12402114401870153 354.50000000000006 -0.084470766614754875 1.3997611464968156 0.548587810952749 1.0136200776691913 5.7170086803932429 -0.02635781059754885 64.158605967468063
decision_type=2 2 2 2 2 2 2 2 2 2 2 2 2 2 2
left_child=-1 2 3 5 -3 -2 -6 9 -5 -4 -10 12 -12 -13 -14
right_child=1 4 7 8 6 -7 -8 -9 10 -11 11 13 14 -15 -16
leaf_value=-0.14333778738975525 -0.095007478634250311 -0.11805625437967936 0.046787011854919708 -0.0047388241245893631 -0.081272084326965033 0.030340643945549219 0.03147459056366373 -0.095925815005240778 0.010930903261948018 -0.058026063046418136 0.11419609092584211 0.081632885731579299 0.0065855747395578553 0.15583537521434354 0.080611968461286154
leaf_weight=80 63 98 72 56 58 56 81 58 62 52 73 84 85 91 54
leaf_count=80 63 98 72 56 58 56 81 58 62 52 73 84 85 91 54
internal_value=0 0.0109943 0.0312666 0.0487392 -0.0579487 -0.0360201 -0.0155708 -0.0286395 0.0687122 0.00283314 0.0778731 0.0885977 0.0624959 0.120218 0.035344
internal_weight=0 1043 806 624 237 119 139 182 505 124 449 387 212 175 139
internal_count=1123 1043 806 624 237 119 139 182 505 124 449 387 212 175 139
is_linear=0
shrinkage=0.2


Tree=4
num_leaves=18
num_cat=0
split_feature=3 659 1311 219 1146 605 46 539 1069 1244 824 397 607 795 286 1056 353
split_gain=31.7144 29.7456 21.8566 19.3329 13.0593 11.2557 11.8334 9.47489 6.80099 5.29251 5.20117 5.75111 4.03179 3.97869 3.05004 3.54581 3.14221
threshold=1.0000000180025095e-35 1.9869386983771178 0.47266510770975062 1.1413829398329967 10.928348004061256 1.1191151351590507 243.50000000000003 -0.051319334530645744 3.9609325999545404 1.0000000180025095e-35 0.4327294762147974 -2.1550199971199615 0.69514932495547888 0.82859119584032126 74.095460838387353 -0.082715155027528034 -0.28216929059758417
decision_type=2 2 2 2 2 2 2 2 2 2 2 2 2 2 2 2 2
left_child=-1 -2 3 7 13 6 -5 -3 -8 -7 -10 12 -12 -4 15 -13 -17
right_child=1 2 4 5 -6 9 8 -9 10 -11 11 14 -14 -15 -16 16 -18
leaf_value=-0.12563717623551687 -0.10027757845358452 -0.10691279195822204 -0.12834508319456991 -0.061668444514274605 0.031977955814175028 0.060747916041167853 -0.026082573386116161 0.010657522706957214 0.10085829194973817 0.13290408053907796 0.048197017336154689 0.027997433231212201 -0.025092717285637989 -0.050835692682475953 0.016745455914510873 0.058159648588237668 0.12288689218461513
leaf_weight=75 91 52 52 50 54 99 54 58 66 69 51 52 73 54 53 60 60
leaf_count=75 91 52 52 50 54 99 54 58 66 69 51 52 73 54 53 60 60
internal_value=0 0.00899121 0.0193815 0.0329239 -0.0480766 0.0453881 0.0308231 -0.0449212 0.0406837 0.0903835 0.0493713 0.0396345 0.00505064 -0.0888592 0.0586941 0.0716201 0.0905233
internal_weight=0 1048 957 797 160 687 519 110 469 168 415 349 124 106 225 172 120
internal_count=1123 1048 957 797 160 687 519 110 469 168 415 349 124 106 225 172 120
is_linear=0
shrinkage=0.2


Tree=5
num_leaves=17
num_cat=0
split_feature=925 1019 1174 1324 5 291 400 735 610 566 212 930 539 1150 475 426
split_gain=22.5581 18.7967 15.8959 14.4765 13.2649 11.29 10.5411 6.94067 6.36679 5.34592 4.84567 3.0732 3.55876 2.76316 2.69974 1.61622
threshold=3.1269360218388456 0.46666666666666679 8.5777387019760152 0.0066720704992309513 2.3683952688578258 -142.47992534844659 -0.19076995401793453 0.97432821114224022 0.82330237396092787 0.92322984180380652 5.5634954105048458 2.3993748899587044 -0.052258088001505644 12.161186834938841 -0.0071979782826396494 -0.0057931511214626991
decision_type=2 2 2 2 2 2 2 2 2 2 2 2 2 2 2 2
left_child=1 -1 4 5 -2 6 10 11 -5 -9 -3 12 -6 -10 15 -14
right_child=2 3 -4 8 7 -7 -8 9 13 -11 -12 -13 14 -15 -16 -17
leaf_value=-0.14409437583616147 -0.034604861725340871 -0.027658895088566678 -0.071599942346308704 -0.010074101155623794 0.042837491345830807 -0.061005572556224588 0.10391898236253805 0.043316684739322084 -0.059178621579821289 -0.03704965895414352 0.037439398214180943 0.026414829778738998 0.10064757287409157 -0.12241498112552247 0.12690982552675101 0.050520118308376598
leaf_weight=52 85 90 59 56 76 73 57 98 52 50 93 55 50 59 65 53
leaf_count=52 85 90 59 56 76 73 57 98 52 50 93 55 50 59 65 53
internal_value=0 -0.0298765 0.0268939 -0.0175029 0.0378171 0.00786754 0.0288164 0.0515886 -0.0650534 0.0161659 0.00542384 0.0691222 0.0787489 -0.0927907 0.0949945 0.0748538
internal_weight=0 532 591 480 532 313 240 447 167 148 183 299 244 111 168 103
internal_count=1123 532 591 480 532 313 240 447 167 148 183 299 244 111 168 103
is_linear=0
shrinkage=0.2


Tree=6
num_leaves=18
num_cat=0
split_feature=182 3 1311 1351 305 1151 224 636 291 644 598 567 243 1311 444 401 456
split_gain=16.9313 15.9336 11.4498 10.8675 6.82115 6.81656 5.93704 5.93983 6.77051 5.75271 5.6817 4.90866 4.7922 3.96269 3.85896 3.29445 2.26768
threshold=138.74878782418065 1.0000000180025095e-35 0.47266510770975062 9.7933934054030569 0.63354441946169227 19.448367043257882 154.65872013922311 0.95349712178518697 -713.59697049830208 0.99294108354433785 1.0419412864694986 0.70794047827218187 -19.171016536907597 0.35896754535147396 -0.074238236330146881 -0.7416935148702446 -0.034152327697448942
decision_type=2 2 2 2 2 2 2 2 2 2 2 2 2 2 2 2 2
left_child=-1 -2 3 5 15 -3 7 16 9 -9 -10 -7 -8 -14 -12 -4 -5
right_child=1 2 4 6 -6 11 12 8 10 -11 14 -13 13 -15 -16 -17 -18
leaf_value=-0.085817260080400637 -0.085831860188340797 -0.081444314259262587 -0.10357709870114923 0.036750319072355826 0.019414541543575758 -0.037164565553289973 -0.045664164381609723 0.054993445637733923 0.11858693434401078 -0.028277920244955554 0.090629572860524879 0.045503955994243339 -0.0079333790668076089 0.066931782637794437 0.018809108764287971 -0.03097467089444399 -0.01952376868117784
leaf_weight=85 69 53 50 54 57 56 55 95 94 51 57 59 62 52 63 50 61
leaf_count=85 69 53 50 54 57 56 55 95 94 51 57 59 62 52 63 50 61
internal_value=0 0.00702743 0.0136397 0.0231993 -0.0358023 -0.0221014 0.0350169 0.0464712 0.0591118 0.0259055 0.0817665 0.00524798 0.00282281 0.0262156 0.0529238 -0.0672759 0.00690059
internal_weight=0 1038 969 812 157 168 644 475 360 146 214 115 169 114 120 100 115
internal_count=1123 1038 969 812 157 168 644 475 360 146 214 115 169 114 120 100 115
is_linear=0
shrinkage=0.2


end of trees

feature_importances:
Column_3=4
Column_1311=3
Column_45=2
Column_291=2
Column_475=2
Column_539=2
Column_566=2
Column_636=2
Column_651=2
Column_659=2
Column_925=2
Column_1132=2
Column_1174=2
Column_1314=2
Column_5=1
Column_14=1
Column_15=1
Column_37=1
Column_46=1
Column_89=1
Column_118=1
Column_128=1
Column_156=1
Column_157=1
Column_161=1
Column_164=1
Column_182=1
Column_212=1
Column_219=1
Column_224=1
Column_229=1
Column_243=1
Column_251=1
Column_286=1
Column_289=1
Column_305=1
Column_316=1
Column_353=1
Column_373=1
Column_397=1
Column_400=1
Column_401=1
Column_409=1
Column_426=1
Column_433=1
Column_444=1
Column_451=1
Column_456=1
Column_465=1
Column_536=1
Column_537=1
Column_545=1
Column_547=1
Column_560=1
Column_562=1
Column_567=1
Column_598=1
Column_605=1
Column_607=1
Column_610=1
Column_628=1
Column_644=1
Column_656=1
Column_668=1
Column_707=1
Column_735=1
Column_795=1
Column_810=1
Column_814=1
Column_824=1
Column_835=1
Column_880=1
Column_930=1
Column_952=1
Column_987=1
Column_1019=1
Column_1044=1
Column_1056=1
Column_1069=1
Column_1076=1
Column_1080=1
Column_1136=1
Column_1146=1
Column_1150=1
Column_1151=1
Column_1152=1
Column_1166=1
Column_1190=1
Column_1210=1
Column_1215=1
Column_1244=1
Column_1249=1
Column_1260=1
Column_1306=1
Column_1324=1
Column_1336=1
Column_1351=1
Column_1358=1

parameters:
[boosting: gbdt]
[objective: regression]
[metric: rmse]
[tree_learner: serial]
[device_type: cpu]
[linear_tree: 0]
[data: ]
[valid: ]
[num_iterations: 10000]
[learning_rate: 0.2]
[num_leaves: 31]
[num_threads: 0]
[deterministic: 0]
[force_col_wise: 0]
[force_row_wise: 0]
[histogram_pool_size: -1]
[max_depth: -1]
[min_data_in_leaf: 50]
[min_sum_hessian_in_leaf: 0.001]
[bagging_fraction: 0.9]
[pos_bagging_fraction: 1]
[neg_bagging_fraction: 1]
[bagging_freq: 0]
[bagging_seed: 20424]
[feature_fraction: 0.8]
[feature_fraction_bynode: 1]
[feature_fraction_seed: 10212]
[extra_trees: 0]
[extra_seed: 27649]
[early_stopping_round: 50]
[first_metric_only: 0]
[max_delta_step: 0]
[lambda_l1: 0]
[lambda_l2: 0]
[linear_lambda: 0]
[min_gain_to_split: 0]
[drop_rate: 0.1]
[max_drop: 50]
[skip_drop: 0.5]
[xgboost_dart_mode: 0]
[uniform_drop: 0]
[drop_seed: 8108]
[top_rate: 0.2]
[other_rate: 0.1]
[min_data_per_group: 100]
[max_cat_threshold: 32]
[cat_l2: 10]
[cat_smooth: 10]
[max_cat_to_onehot: 4]
[top_k: 20]
[monotone_constraints: ]
[monotone_constraints_method: basic]
[monotone_penalty: 0]
[feature_contri: ]
[forcedsplits_filename: ]
[refit_decay_rate: 0.9]
[cegb_tradeoff: 1]
[cegb_penalty_split: 0]
[cegb_penalty_feature_lazy: ]
[cegb_penalty_feature_coupled: ]
[path_smooth: 0]
[interaction_constraints: ]
[verbosity: -1]
[saved_feature_importance_type: 0]
[max_bin: 255]
[max_bin_by_feature: ]
[min_data_in_bin: 3]
[bin_construct_sample_cnt: 200000]
[data_random_seed: 4165]
[is_enable_sparse: 1]
[enable_bundle: 1]
[use_missing: 1]
[zero_as_missing: 0]
[feature_pre_filter: 1]
[pre_partition: 0]
[two_round: 0]
[header: 0]
[label_column: ]
[weight_column: ]
[group_column: ]
[ignore_column: ]
[categorical_feature: ]
[forcedbins_filename: ]
[objective_seed: 32259]
[num_class: 1]
[is_unbalance: 0]
[scale_pos_weight: 1]
[sigmoid: 1]
[boost_from_average: 1]
[reg_sqrt: 0]
[alpha: 0.9]
[fair_c: 1]
[poisson_max_delta_step: 0.7]
[tweedie_variance_power: 1.5]
[lambdarank_truncation_level: 30]
[lambdarank_norm: 1]
[label_gain: ]
[eval_at: ]
[multi_error_top_k: 1]
[auc_mu_weights: ]
[num_machines: 1]
[local_listen_port: 12400]
[time_out: 120]
[machine_list_filename: ]
[machines: ]
[gpu_platform_id: -1]
[gpu_device_id: -1]
[gpu_use_dp: 0]
[num_gpu: 1]

end of parameters

pandas_categorical:null
