tree
version=v3
num_class=1
num_tree_per_iteration=1
label_index=0
max_feature_idx=1305
objective=binary sigmoid:1
feature_names=Column_0 Column_1 Column_2 Column_3 Column_4 Column_5 Column_6 Column_7 Column_8 Column_9 Column_10 Column_11 Column_12 Column_13 Column_14 Column_15 Column_16 Column_17 Column_18 Column_19 Column_20 Column_21 Column_22 Column_23 Column_24 Column_25 Column_26 Column_27 Column_28 Column_29 Column_30 Column_31 Column_32 Column_33 Column_34 Column_35 Column_36 Column_37 Column_38 Column_39 Column_40 Column_41 Column_42 Column_43 Column_44 Column_45 Column_46 Column_47 Column_48 Column_49 Column_50 Column_51 Column_52 Column_53 Column_54 Column_55 Column_56 Column_57 Column_58 Column_59 Column_60 Column_61 Column_62 Column_63 Column_64 Column_65 Column_66 Column_67 Column_68 Column_69 Column_70 Column_71 Column_72 Column_73 Column_74 Column_75 Column_76 Column_77 Column_78 Column_79 Column_80 Column_81 Column_82 Column_83 Column_84 Column_85 Column_86 Column_87 Column_88 Column_89 Column_90 Column_91 Column_92 Column_93 Column_94 Column_95 Column_96 Column_97 Column_98 Column_99 Column_100 Column_101 Column_102 Column_103 Column_104 Column_105 Column_106 Column_107 Column_108 Column_109 Column_110 Column_111 Column_112 Column_113 Column_114 Column_115 Column_116 Column_117 Column_118 Column_119 Column_120 Column_121 Column_122 Column_123 Column_124 Column_125 Column_126 Column_127 Column_128 Column_129 Column_130 Column_131 Column_132 Column_133 Column_134 Column_135 Column_136 Column_137 Column_138 Column_139 Column_140 Column_141 Column_142 Column_143 Column_144 Column_145 Column_146 Column_147 Column_148 Column_149 Column_150 Column_151 Column_152 Column_153 Column_154 Column_155 Column_156 Column_157 Column_158 Column_159 Column_160 Column_161 Column_162 Column_163 Column_164 Column_165 Column_166 Column_167 Column_168 Column_169 Column_170 Column_171 Column_172 Column_173 Column_174 Column_175 Column_176 Column_177 Column_178 Column_179 Column_180 Column_181 Column_182 Column_183 Column_184 Column_185 Column_186 Column_187 Column_188 Column_189 Column_190 Column_191 Column_192 Column_193 Column_194 Column_195 Column_196 Column_197 Column_198 Column_199 Column_200 Column_201 Column_202 Column_203 Column_204 Column_205 Column_206 Column_207 Column_208 Column_209 Column_210 Column_211 Column_212 Column_213 Column_214 Column_215 Column_216 Column_217 Column_218 Column_219 Column_220 Column_221 Column_222 Column_223 Column_224 Column_225 Column_226 Column_227 Column_228 Column_229 Column_230 Column_231 Column_232 Column_233 Column_234 Column_235 Column_236 Column_237 Column_238 Column_239 Column_240 Column_241 Column_242 Column_243 Column_244 Column_245 Column_246 Column_247 Column_248 Column_249 Column_250 Column_251 Column_252 Column_253 Column_254 Column_255 Column_256 Column_257 Column_258 Column_259 Column_260 Column_261 Column_262 Column_263 Column_264 Column_265 Column_266 Column_267 Column_268 Column_269 Column_270 Column_271 Column_272 Column_273 Column_274 Column_275 Column_276 Column_277 Column_278 Column_279 Column_280 Column_281 Column_282 Column_283 Column_284 Column_285 Column_286 Column_287 Column_288 Column_289 Column_290 Column_291 Column_292 Column_293 Column_294 Column_295 Column_296 Column_297 Column_298 Column_299 Column_300 Column_301 Column_302 Column_303 Column_304 Column_305 Column_306 Column_307 Column_308 Column_309 Column_310 Column_311 Column_312 Column_313 Column_314 Column_315 Column_316 Column_317 Column_318 Column_319 Column_320 Column_321 Column_322 Column_323 Column_324 Column_325 Column_326 Column_327 Column_328 Column_329 Column_330 Column_331 Column_332 Column_333 Column_334 Column_335 Column_336 Column_337 Column_338 Column_339 Column_340 Column_341 Column_342 Column_343 Column_344 Column_345 Column_346 Column_347 Column_348 Column_349 Column_350 Column_351 Column_352 Column_353 Column_354 Column_355 Column_356 Column_357 Column_358 Column_359 Column_360 Column_361 Column_362 Column_363 Column_364 Column_365 Column_366 Column_367 Column_368 Column_369 Column_370 Column_371 Column_372 Column_373 Column_374 Column_375 Column_376 Column_377 Column_378 Column_379 Column_380 Column_381 Column_382 Column_383 Column_384 Column_385 Column_386 Column_387 Column_388 Column_389 Column_390 Column_391 Column_392 Column_393 Column_394 Column_395 Column_396 Column_397 Column_398 Column_399 Column_400 Column_401 Column_402 Column_403 Column_404 Column_405 Column_406 Column_407 Column_408 Column_409 Column_410 Column_411 Column_412 Column_413 Column_414 Column_415 Column_416 Column_417 Column_418 Column_419 Column_420 Column_421 Column_422 Column_423 Column_424 Column_425 Column_426 Column_427 Column_428 Column_429 Column_430 Column_431 Column_432 Column_433 Column_434 Column_435 Column_436 Column_437 Column_438 Column_439 Column_440 Column_441 Column_442 Column_443 Column_444 Column_445 Column_446 Column_447 Column_448 Column_449 Column_450 Column_451 Column_452 Column_453 Column_454 Column_455 Column_456 Column_457 Column_458 Column_459 Column_460 Column_461 Column_462 Column_463 Column_464 Column_465 Column_466 Column_467 Column_468 Column_469 Column_470 Column_471 Column_472 Column_473 Column_474 Column_475 Column_476 Column_477 Column_478 Column_479 Column_480 Column_481 Column_482 Column_483 Column_484 Column_485 Column_486 Column_487 Column_488 Column_489 Column_490 Column_491 Column_492 Column_493 Column_494 Column_495 Column_496 Column_497 Column_498 Column_499 Column_500 Column_501 Column_502 Column_503 Column_504 Column_505 Column_506 Column_507 Column_508 Column_509 Column_510 Column_511 Column_512 Column_513 Column_514 Column_515 Column_516 Column_517 Column_518 Column_519 Column_520 Column_521 Column_522 Column_523 Column_524 Column_525 Column_526 Column_527 Column_528 Column_529 Column_530 Column_531 Column_532 Column_533 Column_534 Column_535 Column_536 Column_537 Column_538 Column_539 Column_540 Column_541 Column_542 Column_543 Column_544 Column_545 Column_546 Column_547 Column_548 Column_549 Column_550 Column_551 Column_552 Column_553 Column_554 Column_555 Column_556 Column_557 Column_558 Column_559 Column_560 Column_561 Column_562 Column_563 Column_564 Column_565 Column_566 Column_567 Column_568 Column_569 Column_570 Column_571 Column_572 Column_573 Column_574 Column_575 Column_576 Column_577 Column_578 Column_579 Column_580 Column_581 Column_582 Column_583 Column_584 Column_585 Column_586 Column_587 Column_588 Column_589 Column_590 Column_591 Column_592 Column_593 Column_594 Column_595 Column_596 Column_597 Column_598 Column_599 Column_600 Column_601 Column_602 Column_603 Column_604 Column_605 Column_606 Column_607 Column_608 Column_609 Column_610 Column_611 Column_612 Column_613 Column_614 Column_615 Column_616 Column_617 Column_618 Column_619 Column_620 Column_621 Column_622 Column_623 Column_624 Column_625 Column_626 Column_627 Column_628 Column_629 Column_630 Column_631 Column_632 Column_633 Column_634 Column_635 Column_636 Column_637 Column_638 Column_639 Column_640 Column_641 Column_642 Column_643 Column_644 Column_645 Column_646 Column_647 Column_648 Column_649 Column_650 Column_651 Column_652 Column_653 Column_654 Column_655 Column_656 Column_657 Column_658 Column_659 Column_660 Column_661 Column_662 Column_663 Column_664 Column_665 Column_666 Column_667 Column_668 Column_669 Column_670 Column_671 Column_672 Column_673 Column_674 Column_675 Column_676 Column_677 Column_678 Column_679 Column_680 Column_681 Column_682 Column_683 Column_684 Column_685 Column_686 Column_687 Column_688 Column_689 Column_690 Column_691 Column_692 Column_693 Column_694 Column_695 Column_696 Column_697 Column_698 Column_699 Column_700 Column_701 Column_702 Column_703 Column_704 Column_705 Column_706 Column_707 Column_708 Column_709 Column_710 Column_711 Column_712 Column_713 Column_714 Column_715 Column_716 Column_717 Column_718 Column_719 Column_720 Column_721 Column_722 Column_723 Column_724 Column_725 Column_726 Column_727 Column_728 Column_729 Column_730 Column_731 Column_732 Column_733 Column_734 Column_735 Column_736 Column_737 Column_738 Column_739 Column_740 Column_741 Column_742 Column_743 Column_744 Column_745 Column_746 Column_747 Column_748 Column_749 Column_750 Column_751 Column_752 Column_753 Column_754 Column_755 Column_756 Column_757 Column_758 Column_759 Column_760 Column_761 Column_762 Column_763 Column_764 Column_765 Column_766 Column_767 Column_768 Column_769 Column_770 Column_771 Column_772 Column_773 Column_774 Column_775 Column_776 Column_777 Column_778 Column_779 Column_780 Column_781 Column_782 Column_783 Column_784 Column_785 Column_786 Column_787 Column_788 Column_789 Column_790 Column_791 Column_792 Column_793 Column_794 Column_795 Column_796 Column_797 Column_798 Column_799 Column_800 Column_801 Column_802 Column_803 Column_804 Column_805 Column_806 Column_807 Column_808 Column_809 Column_810 Column_811 Column_812 Column_813 Column_814 Column_815 Column_816 Column_817 Column_818 Column_819 Column_820 Column_821 Column_822 Column_823 Column_824 Column_825 Column_826 Column_827 Column_828 Column_829 Column_830 Column_831 Column_832 Column_833 Column_834 Column_835 Column_836 Column_837 Column_838 Column_839 Column_840 Column_841 Column_842 Column_843 Column_844 Column_845 Column_846 Column_847 Column_848 Column_849 Column_850 Column_851 Column_852 Column_853 Column_854 Column_855 Column_856 Column_857 Column_858 Column_859 Column_860 Column_861 Column_862 Column_863 Column_864 Column_865 Column_866 Column_867 Column_868 Column_869 Column_870 Column_871 Column_872 Column_873 Column_874 Column_875 Column_876 Column_877 Column_878 Column_879 Column_880 Column_881 Column_882 Column_883 Column_884 Column_885 Column_886 Column_887 Column_888 Column_889 Column_890 Column_891 Column_892 Column_893 Column_894 Column_895 Column_896 Column_897 Column_898 Column_899 Column_900 Column_901 Column_902 Column_903 Column_904 Column_905 Column_906 Column_907 Column_908 Column_909 Column_910 Column_911 Column_912 Column_913 Column_914 Column_915 Column_916 Column_917 Column_918 Column_919 Column_920 Column_921 Column_922 Column_923 Column_924 Column_925 Column_926 Column_927 Column_928 Column_929 Column_930 Column_931 Column_932 Column_933 Column_934 Column_935 Column_936 Column_937 Column_938 Column_939 Column_940 Column_941 Column_942 Column_943 Column_944 Column_945 Column_946 Column_947 Column_948 Column_949 Column_950 Column_951 Column_952 Column_953 Column_954 Column_955 Column_956 Column_957 Column_958 Column_959 Column_960 Column_961 Column_962 Column_963 Column_964 Column_965 Column_966 Column_967 Column_968 Column_969 Column_970 Column_971 Column_972 Column_973 Column_974 Column_975 Column_976 Column_977 Column_978 Column_979 Column_980 Column_981 Column_982 Column_983 Column_984 Column_985 Column_986 Column_987 Column_988 Column_989 Column_990 Column_991 Column_992 Column_993 Column_994 Column_995 Column_996 Column_997 Column_998 Column_999 Column_1000 Column_1001 Column_1002 Column_1003 Column_1004 Column_1005 Column_1006 Column_1007 Column_1008 Column_1009 Column_1010 Column_1011 Column_1012 Column_1013 Column_1014 Column_1015 Column_1016 Column_1017 Column_1018 Column_1019 Column_1020 Column_1021 Column_1022 Column_1023 Column_1024 Column_1025 Column_1026 Column_1027 Column_1028 Column_1029 Column_1030 Column_1031 Column_1032 Column_1033 Column_1034 Column_1035 Column_1036 Column_1037 Column_1038 Column_1039 Column_1040 Column_1041 Column_1042 Column_1043 Column_1044 Column_1045 Column_1046 Column_1047 Column_1048 Column_1049 Column_1050 Column_1051 Column_1052 Column_1053 Column_1054 Column_1055 Column_1056 Column_1057 Column_1058 Column_1059 Column_1060 Column_1061 Column_1062 Column_1063 Column_1064 Column_1065 Column_1066 Column_1067 Column_1068 Column_1069 Column_1070 Column_1071 Column_1072 Column_1073 Column_1074 Column_1075 Column_1076 Column_1077 Column_1078 Column_1079 Column_1080 Column_1081 Column_1082 Column_1083 Column_1084 Column_1085 Column_1086 Column_1087 Column_1088 Column_1089 Column_1090 Column_1091 Column_1092 Column_1093 Column_1094 Column_1095 Column_1096 Column_1097 Column_1098 Column_1099 Column_1100 Column_1101 Column_1102 Column_1103 Column_1104 Column_1105 Column_1106 Column_1107 Column_1108 Column_1109 Column_1110 Column_1111 Column_1112 Column_1113 Column_1114 Column_1115 Column_1116 Column_1117 Column_1118 Column_1119 Column_1120 Column_1121 Column_1122 Column_1123 Column_1124 Column_1125 Column_1126 Column_1127 Column_1128 Column_1129 Column_1130 Column_1131 Column_1132 Column_1133 Column_1134 Column_1135 Column_1136 Column_1137 Column_1138 Column_1139 Column_1140 Column_1141 Column_1142 Column_1143 Column_1144 Column_1145 Column_1146 Column_1147 Column_1148 Column_1149 Column_1150 Column_1151 Column_1152 Column_1153 Column_1154 Column_1155 Column_1156 Column_1157 Column_1158 Column_1159 Column_1160 Column_1161 Column_1162 Column_1163 Column_1164 Column_1165 Column_1166 Column_1167 Column_1168 Column_1169 Column_1170 Column_1171 Column_1172 Column_1173 Column_1174 Column_1175 Column_1176 Column_1177 Column_1178 Column_1179 Column_1180 Column_1181 Column_1182 Column_1183 Column_1184 Column_1185 Column_1186 Column_1187 Column_1188 Column_1189 Column_1190 Column_1191 Column_1192 Column_1193 Column_1194 Column_1195 Column_1196 Column_1197 Column_1198 Column_1199 Column_1200 Column_1201 Column_1202 Column_1203 Column_1204 Column_1205 Column_1206 Column_1207 Column_1208 Column_1209 Column_1210 Column_1211 Column_1212 Column_1213 Column_1214 Column_1215 Column_1216 Column_1217 Column_1218 Column_1219 Column_1220 Column_1221 Column_1222 Column_1223 Column_1224 Column_1225 Column_1226 Column_1227 Column_1228 Column_1229 Column_1230 Column_1231 Column_1232 Column_1233 Column_1234 Column_1235 Column_1236 Column_1237 Column_1238 Column_1239 Column_1240 Column_1241 Column_1242 Column_1243 Column_1244 Column_1245 Column_1246 Column_1247 Column_1248 Column_1249 Column_1250 Column_1251 Column_1252 Column_1253 Column_1254 Column_1255 Column_1256 Column_1257 Column_1258 Column_1259 Column_1260 Column_1261 Column_1262 Column_1263 Column_1264 Column_1265 Column_1266 Column_1267 Column_1268 Column_1269 Column_1270 Column_1271 Column_1272 Column_1273 Column_1274 Column_1275 Column_1276 Column_1277 Column_1278 Column_1279 Column_1280 Column_1281 Column_1282 Column_1283 Column_1284 Column_1285 Column_1286 Column_1287 Column_1288 Column_1289 Column_1290 Column_1291 Column_1292 Column_1293 Column_1294 Column_1295 Column_1296 Column_1297 Column_1298 Column_1299 Column_1300 Column_1301 Column_1302 Column_1303 Column_1304 Column_1305
feature_infos=[7.0594964979549575:63.949285561256211] [6.6347634736346546:40.589201045378282] [0:3] [0:5] [10.034046109794865:87.183966715150589] [2.1288703310060848:3.1057592862286918] [4.2577406620121696:6.2115185724573854] [10.034046109794865:87.183966715150589] [1.0034046109794863:1.4574973223359045] [3.141788637277664:5.112227775916141] [2.8199583548411749:6.0706480016219677] [0.060687634266010697:0.30478136921204541] [1.0367221170541601:3.6597633445368336] [34.093396726373882:4195270.5490986891] [3.4093396726373881:83905.410981973779] [3.5291037211501131:16.85890630146767] [0:32] [0:34] [17:177] [10:84] [0:2] [0:7] [1:22] [4:97] [5:62] [0:12] [0:17] [0:4] none [0:6] [0:4] [0:3] [0:1] [0:7] [54.444444444444443:1121.2098765432099] [40:1044.2222222222222] [29.333333333333329:1405] [21.333333333333329:1664] [27.333333333333329:1873] [3.8888888888888888:2025] [0:2030] [0:1913] [0:1725] [51:500] [59:636] [83:1161] [78:1618] [57:1932] [30:2104] [8:2204] [0:2211] [0:2024] [43.777777777777779:704.36282578875171] [53.999999999999993:403.15226337448559] [83.282407407407419:859.88580246913602] [94.333333333333343:1178.9598765432102] [79.333333333333357:1445.2083333333337] [53.346021947873801:1451.0347222222222] [32.5:1516.2222222222224] [6:1516.1388888888889] [0:1574.4930555555557] [384:4900] [446:4393] [576:6084] [489:7318] [373:8442] [248:9310] [38:9911] [0:9772] [0:9030] [1505.7498419999995:24009.062607] [1628.0312460000002:16694.888877999983] [2001.8241860000001:22513.809260000009] [1699.4473049999997:26644.647886999999] [1315.1741830000001:30050.527280999988] [621.45218199999988:33219.504818000001] [57.070944000000011:35064.415635999991] [0:34038.350535000005] [0:31227.234920999999] [3763.0280588301548:38240.234188969283] [4426.9410588742194:44166.191709872262] [5548.761660807324:63599.543595971794] [5136.6146387342269:84628.546525911413] [3838.8913208221729:98916.379618906663] [2590.8395617882161:111019.26142975474] [777.91974710627233:121562.50771618682] [0:122552.4461632946] [0:113320.16966276828] [132.29175700000002:1340.2533860000001] [133.24347399999999:1399.8280879999993] [194.463044:2593.3380999999999] [239.397052:3599.0294360000003] [197.925488:4205.1927400000004] [128.16941199999999:4693.9421439999996] [73.913471999999999:4974.3034720000005] [0:5347.500556] [0:5157.6994519999989] [107.86630000000002:1073.9742000000001] [111.755:1164.8775000000001] [161.46510000000001:2102.0770000000002] [193.6105:2863.6152000000002] [158.31540000000001:3367.6521999999995] [103.5244:3723.5796999999993] [58.079999999999998:3998.523200000001] [0:4269.6619000000001] [0:4107.0390000000007] [104.48869999999999:1059.8966] [108.608:1139.386] [156.68290000000002:2068.5540000000001] [187.75299999999999:2823.2511] [153.8081:3340.4099999999999] [100.2811:3693.52] [55.704000000000008:3931.1706000000008] [0:4199.4620000000014] [0:4042.8180000000007] [25.130303238791999:1932.6822475260744] [29.565666440000001:308.70060843000005] [38.836116924849001:467.448646567715] [37.319016484546999:615.43799238280894] [29.288018928791999:738.47842198435296] [20.937117309697999:830.65298596836988] [7.9535069040000002:919.61514773642682] [0:947.31606508129278] [0:882.61336427293384] [2718.0035558059963:29451.214604898458] [2558.6555186961004:27014.412373095409] [3797.7863017325008:53785.842195029647] [4984.247876682276:78413.110130788118] [4246.8905709357841:86875.992842906431] [2719.6424466768881:99850.642702574696] [1446.0954163849597:104787.92462062914] [0:114132.2631271221] [0:111600.44351764744] [1.8773946360153253:15.280632915430504] [1.4285714285714286:12.709677419354838] [0.5641025641025641:12.98124098124098] [0.35555555555555551:11.048387096774194] [0.3374485596707818:10.256756756756756] [0.16203703703703701:10.625] [0:10.093023255813954] [0:9.4477611940298516] [0:16.333333333333332] [2:4.6071428571428568] [2.25:6.0377358490566042] [2.1346153846153846:5.25] [1.7333333333333334:4.4848484848484844] [1.4567901234567902:4.0483870967741939] [1.3333333333333333:4.1124999999999998] [1:4.333333333333333] [1:4.666666666666667] [1:3.9459459459459461] [1.5001578282828285:12.458861693303984] [1.7046645702306089:4.6696696696696698] [1.601584757834758:9.2537277537277518] [1.4683787561146051:8.6395798783858471] [1.3221307727480569:6.6653746770025863] [1.3275862068965518:7.8080003539979641] [1.2037037037037035:8.6579651941097744] [1:7.8365740740740764] [1:11.97809076682316] [14.851851851851851:161] [18.321428571428573:68] [11.538461538461538:53.4375] [9.1764705882352917:51.875] [6.6933333333333334:75.333333333333329] [4.2758620689655169:52.56666666666667] [1.7272727272727273:50.333333333333336] [1:55.173913043478258] [1:71.791666666666671] [57.685344092592587:868.78603168094992] [65.724375214285757:273.41876605555558] [38.496618961538452:212.6766920625] [29.551828425287347:206.177014875] [19.164558053333323:305.37209107407409] [10.714692793103444:204.76612781081084] [2.5941338181818185:191.21341299999992] [1.0160640000000001:236.80342888695651] [1.0160640000000001:296.879709375] [160.36764610893465:347.54142204667528] [204.32690619974341:352.4651802096887] [141.05972355045608:347.97236312565013] [112.85070498675924:298.64780352162671] [88.727715595144971:288.96408454607928] [72.663765306980068:294.34710004948761] [35.359988504830561:337.0666794268999] [31.083744430930263:320.2861996402068] [31.083744430930263:286.9547675345521] [7.0874308888888855:9.0672023488372062] [7.3538878545454516:8.5107014999999997] [7.2438254252873557:8.9366760519480479] [7.1223626000000007:8.6038906984126982] [6.9419068148148133:9.3433067777777765] [6.9995135172413789:9.1850327894736843] [6.8224974545454549:9.2391839999999998] [6.7184639999999982:9.5126755294117658] [6.7184640000000018:10.889877333333333] [5.5130344827586208:7.8547209302325562] [6.0351545454545459:7.2096590909090912] [5.7625288461538444:7.7465103896103882] [5.5769250000000001:7.1929943661971834] [5.2371296296296279:7.7757296296296303] [5.2852844827586205:7.7531678571428584] [4.9360000000000008:7.7066246031746033] [4.8400000000000016:8.2345882352941171] [4.8400000000000016:9.9361333333333341] [5.4254655172413804:7.8927302325581383] [5.8777272727272729:7.0814090909090934] [5.6610192307692282:7.7429597402597405] [5.4859428571428568:7.1882388059701476] [5.1783333333333319:7.3771407407407388] [5.25001724137931:7.8217125000000021] [4.9029999999999996:7.7943714285714281] [4.8400000000000016:8.2598941176470575] [4.8400000000000016:10.224666666666666] [1.1509460788717931:36.465702783510842] [1.5194070564285702:2.8126178864516147] [1.1422326176574615:2.6755231033333327] [0.9411352140554704:2.3733703846998866] [0.88020760250311081:2.4465481303113177] [0.73655906111837932:2.8104048616565995] [0.49047635190131811:3.0298832333333348] [0.4446129048489999:2.550840668333334] [0.37140370099999997:2.2912166157142848] [146.65219842408547:183.5490060392724] [135.75537711359033:160.74308088134589] [138.54579144059588:169.90931064799852] [145.94228662470863:172.92378647060153] [147.56632501478904:179.58614321323446] [142.76788301251264:183.23498834689681] [134.25438907581:192.4111139961212] [137.98440203172166:207.45305034175729] [140.88000546443001:236.9229527004] [0.1260294370238671:5.6971664952077941] [-2.318722201063641:0.069560872879818894] [-1.609550212129889:0.95400361105734244] [-1.3304078998520084:1.570147655872653] [-1.2820983577257454:2.1485855605657784] [-1.5263062126586089:1.1467467555378279] [-1.1443925488986215:1.0705243458758065] [-1.4175490078765189:1.4651135734199183] [-1.2210508061630652:1.1501969993273375] [42.429118773946371:662.77696458933985] [-18.735103712511567:238.99467400128788] [-147.12553557776886:219.55983350676385] [-207.1006944444444:277.25822720163433] [-301.37694499232958:262.82603242855856] [-357.01677702698885:246.06238185255199] [-338.78297880898378:256.12287334593572] [-391.47222222222217:251.66377314814807] [-281.89715598965813:330.34308163083085] [8.117647058823529:105.88888888888889] [-0.33910034602076089:52.380165289256183] [-25.630385487528329:38.504132231404931] [-40.901342975206603:17.800000000000001] [-53.520661157024797:19.579173553719016] [-101.30578512396696:29.463326446280998] [-51.289256198347104:28.649556570814301] [-51.165310650887569:32.296296296296298] [-38.134297520661171:41.1404958677686] [3.1658775252525251:333.20148915393736] [-45.080965738366508:10.751946740128552] [-21.267355103806231:228.77747481120929] [-64.164365548980939:430.86748896320978] [-107.43989540466391:241.25541381362865] [-112.3763020833333:135.40065586419749] [-154.04320453671662:207.26852516837445] [-157.58886228757049:238.5423574124398] [-149.91408579472775:211.04799474030244] [132:3094.204081632653] [-253.63636363636371:336.83999999999997] [-242.15809100362139:677.58035310095056] [-862.60367850844045:1214.7039384336804] [-975.26530612244881:1124.1865234375] [-818.32000000000016:1493.477037037037] [-795.66285119667032:595.35420585863994] [-1023.7704315886132:709.75213675213649] [-1005.6456599286564:525.5502958579882] [628.55293599999993:17340.981729673131] [-1350.6055794372726:1444.2552925156269] [-1096.9760975506108:3161.3569281380715] [-4675.3024016769832:6433.6013719099165] [-5317.0476420028808:5898.1894609876526] [-4168.3708983799988:7590.3606534399996] [-4381.6108683330976:2822.924083302069] [-5134.4836165150527:3217.7936965972608] [-5175.4589542045187:2445.9725840414203] [765.11917093527256:10813.34401585022] [-496.37862478297421:565.204319464018] [-1062.8283022180292:1904.0912927011391] [-2927.5292133330463:1648.8923952111959] [-2770.4392637234764:3767.8894508782687] [-3182.8607028690653:2675.9748211081542] [-3489.3195470956503:3956.0857103560088] [-2736.6495254791621:2840.3960044139844] [-3055.9172413002025:3484.7257954023662] [0.38765066666666648:19.449843358974359] [-2.3490907404844288:1.6395038770468342] [-6.1950560997167594:12.003168862970414] [-5.2781474374999977:17.554817381212295] [-8.2305948750000013:9.1419609492716098] [-5.3195705186587343:6.8796776874461321] [-6.9375206597462533:17.909723283038474] [-9.0304571875000086:9.0655230987654321] [-6.6279910806250015:9.1702217499999872] [0.91225499999999915:23.205047904191609] [-2.9227256055363298:2.6273000000000009] [-8.5244999139445472:14.57409480034473] [-8.0069281141868451:21.895768802068378] [-10.826035395408171:13.100190192507782] [-7.999618749999998:9.2557432921574314] [-9.9461643598615836:24.544659027055172] [-17.644452508650485:12.931701410934728] [-11.881583234244935:12.484798596938759] [0.83209499999999914:24.586523353293401] [-3.343875432525949:2.896345044527449] [-9.3451598981676884:16.574259695489797] [-8.412246345155701:26.304490376328619] [-12.968981823979586:15.282737643080091] [-8.5766942148760279:11.018978483194489] [-11.708570011534018:29.453596279916777] [-18.219581120242168:15.04368659611991] [-12.78464999999998:14.825148596938767] [3.4506306348844444:1741.2282790518491] [-15.879020712846833:10.675232080457066] [-7.6450214293678656:43.787725439979319] [-18.22406201883264:81.475764896866906] [-15.641028866336631:93.243793469634241] [-15.945812969796446:67.77256325109272] [-15.133427297850924:74.195170094084816] [-14.909264706551822:90.110585764254196] [-17.157862281240096:53.910767290978271] [24.49564375550997:338.20545148471166] [-70.920963814334598:19.635545227018689] [-42.846588309956367:152.9735132458199] [-119.48269947414046:132.05316623675611] [-104.45657389457956:79.598808574407485] [-172.79123379109177:152.35610541423125] [-134.20748580913548:283.61816309321046] [-115.70998829994944:131.71512604352401] [-162.73289705542155:126.00318601593216] [0.0032937335260900999:0.078231928059538602] [-0.0298111046509098:0.0014491848516628] [-0.0127749534507533:0.0256659258853827] [-0.023448782658224199:0.0141454743772311] [-0.0091142356962836991:0.019997855040983399] [-0.018184750966255801:0.019848118533526998] [-0.017195469575565701:0.0145693976193353] [-0.020730150030444299:0.037892379838414599] [-0.032967902197109003:0.058943823114963101] [1.4630730611705645:6.4622222222222199] [-0.63181244148322369:2.352729085957578] [-0.72275278738946558:2.5822222222222222] [-1.4709756097560975:2.2470978441127696] [-1.9738328700377168:1.7968662370994732] [-2.5077604166666667:1.809282219504059] [-2.9554945564970616:2.4008692651351931] [-4.3700000000000001:4.0740740740740744] [-10.281505968778696:5.2899999999999991] [0.28299643281807368:0.96435950413223137] [-0.018838908112264401:0.49415250272883188] [-0.15759637188208611:0.2238359017076218] [-0.3538062283737024:0.15013338515626379] [-0.38887726395573208:0.1473816867310053] [-0.35117567105250991:0.29171610342852472] [-0.34165469348659011:0.7785467128027681] [-0.39098780007870909:0.58477508650519028] [-0.3447921169928892:0.5625] [0.071951761937557299:5.7473703948525188] [-0.98104075992603923:0.1853783920711819] [-0.1661512117484861:2.9711360365092121] [-0.79215266109853011:3.040657188720564] [-1.0330759173525377:1.3109991556622445] [-1.0889144390150429:1.4294989450706872] [-1.4099452642746906:1.9288784080078889] [-2.8149305555555566:2.0082284921927736] [-3.3135980531813853:2.9725069681732736] [6.072702331961592:115.74380165289251] [-11.528925619834714:4.5494040753556311] [-3.2590247844827585:7.6429179193374548] [-9.5183999999999997:9.9565896592924616] [-8.0349998011374932:12.238970588235292] [-15.53487525040976:13.454748081414747] [-32.257785467128024:10.405161290322576] [-43.246913580246911:18.67768595041322] [-56.795013850415508:32.801652892561989] [29.095590146683666:670.8269259203696] [-61.391162701694206:20.099708024413697] [-17.269392383706986:34.871578507516013] [-43.569977796196483:52.734437474671438] [-43.689081675999134:65.70186325382582] [-71.085545641049023:68.381627508468469] [-149.20680153114191:57.136494042317338] [-202.36431342661183:99.293474257975873] [-267.12309347805206:170.61046487330751] [37.614049294337221:153.41907505170832] [-9.1921967552402624:10.664232442717321] [-11.953664021290679:17.851912583894645] [-31.54231197380868:11.371671691111697] [-19.527423847058465:17.031131230334804] [-42.071161542705227:23.28944401986897] [-28.192826375748847:53.186297783108891] [-70.688897131997024:50.538397457782921] [-88.793392905648304:77.694204868708198] [0.0102715931321539:0.24865056462952939] [-0.043501680379341198:0.030202103339634499] [-0.0278062327600129:0.1248778536730982] [-0.046905291650178003:0.1247148979607684] [-0.056373937499999999:0.055604436647127199] [-0.1160011161901293:0.069562602857142802] [-0.22676286851211069:0.1112405172859532] [-0.1102089135802467:0.1513165917598443] [-0.33561943698347102:0.21477085674931151] [0.037048283038501398:0.3573128177393185] [-0.054124548250672699:0.039012334593572701] [-0.030465686835910201:0.17765675741370929] [-0.074698488326078297:0.1629317315607188] [-0.074375127087872098:0.081209415767381304] [-0.1437342014205063:0.094463503968253898] [-0.30050138408304489:0.15245129830469051] [-0.211225:0.23605517744287779] [-0.55291033057851235:0.32871460055096341] [0.030395135275754302:0.41568512709572719] [-0.066937335085549304:0.046923282923755402] [-0.037641542514534797:0.21264541808458901] [-0.067924713273431206:0.19183880597014921] [-0.088828642629997095:0.093824809741248003] [-0.13195308626033039:0.1118564999999998] [-0.2314653979238753:0.18294159180072531] [-0.22405675:0.26411477880408329] [-0.55001342975206624:0.39131921487603222] [0.18653270343967829:32.853363755695263] [-0.14783811824000001:0.19768948297142711] [-0.084483703928997997:0.43787725439979319] [-0.21585842736843361:0.60352418442123634] [-0.12768273264448449:0.65664643288474822] [-0.19119114686845529:0.52536870737281183] [-0.3290964924129115:0.61318322391805635] [-0.5241564089883648:0.83435727559494643] [-1.0605947720031472:0.49777456921380298] [1.2055239006730496:4.2489488686543027] [-1.1021157419650041:0.61361078834433402] [-0.56469258059156624:1.9866690031924663] [-0.90300125163738321:0.89832085875344292] [-1.335306731590044:0.60805482827770074] [-1.1373323648887199:0.89621238478959564] [-1.143982790859049:1.9879369339552919] [-1.7225801704168211:2.1016959392615875] [-2.5742948782613446:3.8744226413954177] [-0.93439830607863716:0.1065368842186485] [-0.42108306327079181:0.8018126988006794] [-0.72734174633142057:0.38709058108970662] [-0.34420276100145292:0.62029978359196603] [-0.61354410621236133:0.6375446737007151] [-0.56616850967887011:0.58360360610862982] [-0.7300773519837831:1.0990656130053615] [-3.387965473504265:1.7236760845693375] [-0.17099750138484571:0.60129780238795638] [-0.34652199886081048:0.40790041458668241] [-0.36582734258416449:0.3909741693377205] [-0.4866487285767373:0.38679180879288461] [-0.61448772912765093:0.32521687115062281] [-0.71448153823467153:0.72481176755475218] [-1.0139211136890951:1.201284796573876] [-2.4537695590327173:1.2273781902552203] [-0.020315091210613499:0.7142857142857143] [-0.30009615384615418:0.31245930232558128] [-0.42091007583965329:0.21411387329591011] [-0.57386948466341836:0.2354330877773243] [-0.58787840351767329:0.3024972556173669] [-0.54817020459129784:0.83955223880597007] [-0.62800252844500626:0.89893617021276595] [-0.5498751763812002:1.1538461538461535] [-0.34332916868676872:0.24840520742160069] [-0.2509934195560713:0.60003789359966431] [-0.37462713867726027:0.55704220162649898] [-0.27491979159175839:0.39777709530481609] [-0.4725007235291685:0.3859359464151968] [-0.52825004735792291:0.43699057202161051] [-1.0419879577372368:0.681119656035992] [-1.6680007343491834:0.70957209120511211] [-0.1916735366859027:0.31539768816977759] [-0.1865643712574851:0.36944147004886208] [-0.60413557213930347:0.30218852810756708] [-0.44656505510131528:0.51730250634517772] [-0.53028955030734382:0.39165193044503388] [-1.0840116279069767:0.55073845457777215] [-2.3229442970822278:0.84120171673819755] [-3.4433656957928802:1.4124513618677046] [-0.18875093924319919:0.30060360252468232] [-0.18602663289959101:0.36855018635384079] [-0.6138844734067862:0.29691285057686279] [-0.44823059649861241:0.51820526057760397] [-0.53727294833100259:0.3926855217194557] [-1.1277226255598081:0.56260736859676763] [-2.3268126768709068:0.84206201173995854] [-3.4143015673435606:1.4062195507721229] [-0.1497204202184233:0.2019023062607182] [-0.22535501724713269:0.32702252680470661] [-0.61295988149575353:0.23982542600835621] [-0.38863449635547059:0.3359366194691345] [-0.76372846374092751:0.43390949970711912] [-0.5426273946891208:0.96550435044987215] [-1.2463646897501861:0.91147590971771364] [-1.6880703333867288:1.4462574468690568] [-0.39576524921234252:0.45908256081537258] [-0.3875709972778999:0.65802504751056556] [-0.53219484180766474:0.57063246280252311] [-0.41954811017050109:0.50455552263545878] [-0.83305699002605949:0.47087632807577068] [-1.628487715435003:0.80671021831201939] [-1.8934399907692108:1.0947210468142647] [-2.4722755935849263:0.97881738495256698] [-0.3669162695711371:0.35817433678646637] [-0.30630555555555639:0.57799401720160359] [-0.61202699670711791:0.51581532999767699] [-0.47529789665301703:0.57431935763179653] [-0.84537141331875509:0.42652829042586882] [-1.7673961886310168:0.85258452034026067] [-2.0751625804773401:1.04138697122237] [-2.8452049852792278:0.97243091837990203] [-0.45531152894085458:0.40714256108223901] [-0.35188968952940181:0.61283399398331662] [-0.64356707521264522:0.52540003402019853] [-0.46035155466637112:0.50055176487045205] [-0.69465748718618503:0.44392986063615097] [-1.3696121307420781:0.73580246913580294] [-1.6075931891394406:0.8605853004997378] [-2.664971952798159:1.0002492721201268] [-0.27891665693746881:0.2483487260006311] [-0.26865688371843788:0.39132446198057391] [-0.67425281463228859:0.29245502102174847] [-0.44645907005562541:0.35699628526464577] [-0.51129152434829772:0.42191808401601832] [-0.65310700576027259:0.78402903008544078] [-1.7566504743913318:0.85425980464181672] [-3.0926846300189683:1.1675915374065815] [-0.69613836683058761:0.36157984471836518] [-0.36806940199403088:0.49570746963528389] [-0.55946744183021435:0.34633976372415792] [-0.45273876518193529:0.36625762240693061] [-0.52092977628707793:0.408078242199722] [-0.62061009662195732:0.77908152030280586] [-0.85008256008655469:0.95347426530669244] [-1.5971384474327937:1.7577053904334146] [0.1671017595228691:2.071720646193282] [0.1319772538492669:2.3148768908317301] [0.14533216862499279:2.101971102207921] [0.12422666348569709:2.0727461158061469] [0.1160848880033425:2.1845838347028601] [0.1232068718322704:2.4540243084597826] [0.096905725202596896:2.8101788511357801] [0.036870414392953098:6.9979103652155059] [0.2867090784044018:1.3185389199927755] [0.39156687434258453:2.39857045609258] [0.45488979836221788:1.4735124468731022] [0.43179485246109528:1.841182527639281] [0.40608852370505277:1.897045394747024] [0.0039321856363298:2.7158416804434493] [0:3.2985556406609047] [0:6.5867709815078248] [0.44661966511393691:1.5949999999999995] [0.63432835820895517:2.5179807692307685] [0.71231617647058809:1.7055464926590542] [0.48756944444444439:1.91954536430415] [0.29442148760330578:1.8112633181126336] [0:2.3423076923076915] [0:1.9760479041916168] [0:2.0633344187561051] [0.36225790911260591:1.8853969399808748] [0.2036104600119478:1.4848081614548678] [0.1594434955388902:1.6707281959574751] [0.23043098530517889:1.9348838298535689] [0.21873585591683509:2.4188476842597022] [0.19694034830840129:3.0152911409785417] [0:6.4722236889475564] [0:4.849127960345144] [0.40011560505405741:1.2280701754385963] [0.049677908671841103:1.281415343915344] [0.074303405572755402:2.4743781094527373] [0.070303282067644093:1.9612113402061859] [0.063834753180067594:2.3274876933895925] [0.052873480552535199:2.4337170662235934] [0:6.6206896551724128] [0:9.822168087697932] [0.37542384426976161:1.2297730870332555] [0.041002365068151497:1.2774109951650432] [0.060599936128785399:2.4307819437381624] [0.058033648712889997:1.9532913230834668] [0.052404511892161297:2.2571782076515263] [0.043540372272148603:2.509262207483236] [0:6.5672538880671603] [0:9.6612562777373139] [0.35884371658578151:1.5568486116355202] [0.32166286914604331:1.2985556461374033] [0.29364739104505388:1.9221897624374089] [0.2824205123611776:1.3507771669586079] [0.37755102022706349:1.5973404094120669] [0.1112904003280593:1.9248229497365368] [0:2.4171885124711769] [0:3.2099534942557075] [0.26192048181197458:1.4153049842468832] [0.200522568904176:2.3955549741807296] [0.12871009578914669:1.9445653994535179] [0.21592614160764451:2.4414118470808122] [0.052965911296033501:2.4270195903031522] [0.073376834702880006:3.2232624925290487] [0:6.4496451280241338] [0:12.757273711134197] [0.35963050502871841:1.2852233676975944] [0.28557114017997381:1.8066840277777785] [0.22485620284110039:1.7496742367833211] [0.33112683600400811:2.0312282495889384] [0.142627632863392:2.1275231960420329] [0.16902417362435179:3.4032382797554592] [0:5.5939175332481756] [0:11.614234345362089] [0.33936995104488998:1.3359162529678394] [0.26067431612254027:2.0097322302286278] [0.18681591203241571:1.8414092690954589] [0.28844169112553347:2.1461103952799774] [0.098716231144204095:2.496867246733868] [0.089207611272430695:2.9055223868373421] [0:5.846462675646773] [0:12.190683451212877] [0.0091896839961181:1.672972598107725] [0.0084059822488208001:1.80639238006378] [0.0074843530277435002:2.3801802915894603] [0.0076138620815932:1.5296539981489969] [0.0106949337622433:2.065198288084781] [0.0088022248690652997:2.2626435558836322] [0:3.6948833192807977] [0:6.9077677036543861] [0.66650862825233659:2.0607394502206322] [0.50100171401280724:1.4684418720238923] [0.55251510093402689:1.938668232953344] [0.42873990143992891:1.5355310277983474] [0.4701859637522654:1.5086240549097776] [0.0066455700607348997:1.8550933726738807] [0:1.9191849236315204] [0:3.199128469610506] [0.23656696173100561:0.66210798687086481] [-0.67439614078168808:-0.30252249143554311] [4.0371526846174399:7.0173726046847564] [0.15128322531786281:2.8288770675255042] [3.0534846424210444:4.1279608236125434] [0.91086470774324524:1.8931142775832823] [2.164333480214669:8.0105294912716101] [0.2719016534952497:1.4485285675371746] [7.0121246351649411:53.000258240235468] [5.647721790109367:5.8159219777620672] [14.013073975804886:126.90457562841692] [11.65966542551404:11.839081023244818] [20.76371481311098:38.794681211822002] [13.299888698453456:15.596101405507071] [3.2210831225909784:4.0347426089688758] [2.0792772190896613:2.556412035447563] [3.0647428358128881:4.0108882150369807] [1.8443809483248488:2.3612308715102897] [3.091263126422493:4.1281489501372954] [1.6916176978922466:2.3124854381763611] [1.8628446501956493:5.5409766559930764] [0.52420926373714494:1.0789529174322698] [13.624345331810906:17.433832282286854] [8.1388966106860376:11.094968473610926] [2.3571427077455471e-07:3.2513420117300269] [38.166360667217646:2175.8635448524228] [19.297466047894531:1090.1203013976319] [27.95939799808766:1765.1196844599483] [38.517010017866987:2180.1101035367374] [3.5015463652606358:32.060442699069668] [19.297466072626843:1090.1203013976319] [0.1428571428571429:4.901260504201681] [3.1051118832461171:8.1448490905713005] [0.11977719250840139:0.3137292392301595] [1.1330497479878276:4.0143083262033219] [32.214202079758529:618.46703345133972] [3.2214202079758527:9.4299025798140566] [3.4724074136903011:8.3441665017878233] [38.174920567118903:2176.1267679002881] [19.301210551282743:1090.2618299626329] [27.965051670251331:1765.3631810672014] [38.524693732484295:2180.3925865254068] [3.5022448847712995:32.064596860667749] [19.301210575920031:1090.2618299626329] [0.14250017848218749:5.0955448954450535] [3.1050913163361376:8.1448605456805687] [0.1197773609658907:0.31372998978419758] [1.1330431244010242:4.0143097326260913] [32.215140520424896:618.4605274795573] [3.2215140520424894:9.429871115767984] [3.4724365445374761:8.3441559822198421] [42.264151477375634:2662.6026743564653] [20.972413424566099:1328.5113493827648] [32.175646806968857:2129.4849884416244] [42.13642162607826:2658.1715172695458] [4.213642162607826:39.090757606905086] [20.972413428258189:1328.5113493827648] [-6.7829061269864361:0.062308103560420401] [3.1092884189637395:8.1312472368285302] [0.1195771652474783:0.31430315840137829] [1.1343938958197466:4.0126369356394402] [31.749570638635308:622.11318470111121] [3.1749570638635309:9.4126675526210395] [3.4578792020546727:8.3500446573397422] [38.228572985021344:2183.0528699378801] [19.324680982178801:1093.2624200794369] [28.000502743406201:1768.9631366001286] [38.57285487720555:2186.4210274914622] [3.5066231706550499:32.153250404286212] [19.324681006228801:1093.2624200794369] [0.14026299311208509:4.2244116037219479] [3.1201574112767885:8.1438679502284081] [0.1197627639739471:0.31373467735795618] [1.1378834528810189:4.0141878574958572] [31.346082720025507:618.82216588589245] [3.1346082720025508:9.4298382029946577] [3.4450893061624051:8.3447405509987842] [37.727204391182489:2165.8409835633502] [19.105378511380721:1084.754544386408] [27.67020795841912:1755.4084130397373] [38.122838362474354:2169.3989323882447] [3.4657125784067602:31.902925476297721] [19.105378541517791:1084.754544386408] [0.16118421052631579:4.3982558139534884] [3.1205670372726084:8.1439897512145656] [0.11976455516492:0.31368972552878821] [1.138014728023764:4.0142028135432879] [31.260857645356609:618.7919152618764] [3.1260857645356608:9.4302840305650015] [3.4423667604889063:8.3446916656079626] [37.141536595557653:2142.98472664561] [18.84926992644332:1073.4424441492199] [27.28723573340222:1737.7193019806457] [37.597266533372263:2146.7671155968828] [3.4179333212156604:31.57010464113063] [18.849269965687849:1073.4424441492199] [0.16107758850857051:4.8571428571428568] [3.1210441663252269:8.1443803542925153] [0.11977029932783111:0.31363384189600019] [1.138167614526298:4.0142507745210274] [31.202095566271154:618.70194350336828] [3.1202095566271155:9.4315600037635985] [3.4404852581455438:8.344546255983456] [43.336753888808914:2959.8056452427827] [21.40928603531356:1473.7348632454359] [32.842102690753691:2342.9111248928739] [43.129481161536191:2950.0094744692069] [4.3129481161536187:44.184118794775344] [21.409286037681689:1473.7348632454359] [-18.399002493765582:0.66018808777429472] [3.0975946658102278:8.1187769261891223] [0.1193937783263106:0.31436933434178188] [1.1306258960590678:4.0111021301570284] [32.211198587446354:625.18323462974581] [3.2211198587446352:9.4797298149507245] [3.4723141743069759:8.3549673943585443] [36.197282917180843:2139.5476770068453] [18.436515836776891:1071.4204585419088] [26.676523242933008:1730.3847031352591] [36.750168263304161:2142.7394349662918] [3.3409243875731054:31.510874043621939] [18.436515896921961:1071.4204585419088] [0.1028971898361266:3.5192953825980795] [3.1218099579812022:8.1412836348093993] [0.11972475933543229:0.31353552308412758] [1.1384129483574492:4.013870474458038] [31.105323148723844:619.50426679030238] [3.1105323148723838:9.4271165494104139] [3.4373789668769739:8.3458422007017976] [83.748605961854452:3155.8681468411419] [17:181] [9:89] [8:164] [0:10] [0:3] [0:34] [0:36] [13:170] [0:22] [0.061480177557136202:0.67133445096545319] [0.024211524255354399:0.38737149371361101] [0:3] [0:4] [0:10] [0:28] [0:10] [0:25] [0:26] [0:15] [0:2] [0:1] [0:1] [0:0.7814744144215573] [0:0.78828811815678534] [0:2.1856775479220789] [0:5.4538451705700863] [0:10.58180083102941] [0:0.7814744144215573] [0:0.78828811815678534] [0:2.1856775479220789] [0:5.3849978634733011] [0:10.33296316622819] [0.20412414523193151:7.8191966567858868] [0:1.1666666666666663] [0:4.1665722164600609] [0:2.2677669529663693] [0.0680413817439771:5.4516801559263168] [0:1.0561862178478971] [0:4.1746812225951535] [0:2.2809310892394867] [0.4330127018922193:17.037259426122265] [0.5948613524427101:28.35062081508763] [0.53762061354015289:56.342706750275973] [0.1266799425643074:11.854896714662781] [0.1155657185778389:18.862493574602585] [0.079299433434516203:33.371764176144886] [6.8115547878716329:48.676576092875123] [4.4165022194363885:40.86294733444457] [3.558730744624476:37.097798520425421] [1.7082511097181945:28.586659810442178] [1.0406404489697394:27.085912638063537] [0.5103103630798288:25.687498143156208] [0.56496806347544759:22.746520623850969] [0:20.506318262876938] [0.5983824491323908:0.81986706127492681] [0.3475828971121232:0.53460652149512322] [0.20065306148953119:0.4038946289237717] [0.1167540573416599:0.25784706060155432] [0.069047468994836603:0.17399789582475739] [0.040315971632371099:0.13376869362704619] [0.024393594342675899:0.11299361269508949] [0.014467121300846099:0.072168783648703203] [5.3339649414480874:51.440173122001056] [2.7990898499454282:31.306298129045491] [1.7536530351407731:25.790978882114626] [0.92763157281343944:19.65850598462405] [0.57467716759101295:17.765730408860396] [0.31445543279117572:15.954156579714532] [0.092354030371647994:13.331900840394589] [0:11.35789619002672] [0.49724163201707489:0.85861720292646415] [0.25304680835393761:0.52100586627744305] [0.12641469664247859:0.4738148641632508] [0.0636450006984568:0.33232845682529949] [0.031981062830479003:0.2672019750708583] [0.0161038669569467:0.13693063937629149] [0.0079289372703529992:0.13693063937629149] [0.0040737032751537996:0.056559669783087803] [12:107.66666666666669] [11.089334776454921:100.27424860544502] [11.199165479340529:103.91974638713616] [17.199198834668611:176.53532410779314] [16.662745098039217:169.03529411764708] [16.748000000000001:171.27600000000001] [11.828948502994011:133.86962155688624] [18.974170492793263:201.94591449606139] [0.49382716049382719:1.2745098039215688] [0.44325263570122442:1.269027900894768] [0.52042698119696529:0.8242223977203339] [0.96874915702301023:1.0851720149093871] [0.91710615280594998:1.073780209758322] [0.92841379310344818:1.0937674418604653] [0.58567569688209797:1.138093074228901] [1.0686723139830074:1.1897819773895899] [44.317977802344338:2463.1696464842462] [22.158988901172176:1231.5848232421229] [32.158988901172172:1977.7619979275964] [44.317977802344359:2463.1696464842457] [4.4317977802344357:36.223083036533033] [22.158988902492336:1231.5848232421229] [3.1195002869049482:8.1351810282932] [0.1196350151219588:0.3139778321638359] [1.1376728245401526:4.013120605622456] [31.361633388442279:621.40096205006421] [3.136163338844228:9.42922135487464] [3.4455852792164601:8.3488991573375309] [0:13] [0:2] [0:38] [0:1] [0:6] [0:22] [0:19] none [0:4] [0:7] [0:14] [0:6] [0:5] [0:3] none [0:2] [0:5] [0:3] [0:3] none [0:2] [0:4] [0:6] [0:2] [0:4] [0:2] [0:7] [0:6] [0:12] [0:3] [0:6] none none none [0:1] [0:2] [0:2] [0:1] [0:3] [0:4] [0:3] [0:1] [0:23.845282829627006] [0:8.2596116780045357] [-2.0432989412966029:35.023224733422389] [0:5.7752639797054934] [0:11.290141811743316] [0:45.817630236022922] [-10.172445547239295:19.54890290375409] none [0:12.427493928942337] [-3.7355645313681021:5.6164762545633646] [-4.6332024754346177:13.781119390906618] [-0.69933201058201089:6.3962016565885627] [-11.766662114123786:0.91838529856386997] [0:16.685511883765852] none [0:14.529058369113384] [0:16.709762619169002] [0:8.5781489535595092] [0:27.979713950859747] none [0:9.8289369909186206] [0:18.050563395889423] [0:13.115666653173331] [-1.4117247394060168:0] [-0.0249944392971501:6.616165955097717] [-0.29750516033004359:1.974561937173948] [0:69.593508931563889] [0:78.842975061388117] [0:77.603936975238227] [0:15.51361320546455] [0:80.698346915072165] none none none [0:5.809718881070931] [0:4.5925612815782362] [0:3.5254246918514163] [-1.6506746031746031:0] [-12.606848410928496:0] [0:24.819727285530629] [0:10.190751372656862] [0:2.7075075338386778] [-0.32154754963918042:1.6694114543965737] [0.89310469099711098:2.5162499999999999] [-0.5716945050900677:1.7089351851851853] [-0.64481074821991591:1.4812500000000002] [0.0187806218943475:2.3515354938271606] [-1.799240220524492:1.6410024565381711] [76:16800000000] [4.7999999999999998:32.295238095238084] [0.43669467787114841:0.58205128205128198] [0:0.4777070063694267] [0.076433121019108194:0.76923076923076916] [0:0.14830508474576271] [5.25:75.5] [0.52500000000000002:1.5900000000000001] [5.25:43.5] [0.52500000000000002:0.765625] [0:33.5] [0:0.97499999999999998] [0:3] [0:0.125] [5.4260569677139934:136.97628732039553] [0.49327790615581751:2.1402544893811801] [2.2289271562182642:23.012583869295703] [0.1665602405249606:0.47786117083872048] [10.738139698768787:182.52113402236984] [1.0738139698768789:2.8518927190995287] [4.4165022194363885:32.913457591661441] [0.44165022194363879:0.4971938745990655] [0.95395511280041478:74.085544755832956] [0.068035776411547094:1.4381827893921555] [0.39240232575056488:14.834364940784941] [0.018685825035741101:0.32370133391415978] [-0.052112932815690599:1.9561354993461679] [-0.0052112932815690004:0.049771134293670603] [0.0683619097949585:2.558135499346168] [0.0056968258162465001:0.049771134293670603] [0:0.082051282051281996] [0:0.063305322128851496] [0.46091954022988552:0.80819490586932363] [0.71481481481481446:1.0354761904761904] [0.42500000000000038:0.4866666666666668] [0.44666666666666699:0.69731601731601611] [0.66666666666666685:1.0054761904761902] [0.013333333333333201:0.36866002214839377] [0:0.1218842364532019] [-0.25778113359508631:-0.0073513513513511998] [0:0.15624999999999969] [-40.75:7.5] [-0.73809523809523814:0.36249999999999999] [0.43221513723315769:0.76949152542372878] [0:0.28178486276684228] [0:0.055491525423728802] [9.0199999999999996:1897.1199999999999] [0:0.7142857142857143] [0:18] [0:8] [1.0714880977824277:2.4633663427540569] [1.8419289172795856:4.6132510216890292] [2.4806821149663847:5.3959988705348438] [2.968533149628565:6.1273969472752627] [2.968533149628565:6.4743168021123729] [2.968533149628565:6.573997657497002] [25.655593060362889:274.512543670279] [45.135592988940793:612.09135987017567] [60.032189941180548:876.37301508581504] [63.486868301255775:989.80131485420281] [63.486868301255775:1051.3501898758375] [63.486868301255775:1089.3501898758375] [0.18264113583012209:0.60266391119057183] [0.3392966286655838:0.85608791640104365] [0.47982942001563289:0.94738445052910003] [0.61106314590483701:1] [0.61106314590483701:1.0000000000000004] [0.61106314590483701:1.0000000000000004] [0.1768334788328938:0.55239468914803236] [0.32339253963595488:0.79230116867771705] [0.44660049217092829:0.88545335584554574] [0.61749822880936744:0.93059368160701883] [0.61749822880936744:0.94899777399919438] [0.61749822880936744:0.94899777399919438] [1.6240964984962822:5.9529018726249951] [0.5882352941176463:4.5667812351246191] [0.22222222222222229:2.8411878281603711] [0:2.1760569614794463] [-2.6645352591003761e-15:1.9443500899747503] [-2.6645352591003761e-15:1.897657823818828] [8.1295806431981639:45.306376159721054] [14.607470073659451:59.950531365810093] [21.543908598951759:66.844444381045548] [21.821977564469002:69.548814793681856] [21.821977564469002:69.548814793681856] [21.821977564469002:69.548814793681856] [35.000755537610203:279.91979081384301] [19.725982646701411:145.44635249066675] [17.161905561645316:104.6094780572183] [15.555402079576172:88.703707182595664] [15.515053530056468:80.831959661674915] [15.515053530056468:75.214905072091042] [6.6942148760330582:74.725723140495873] [2.146254458977408:42.943367189904585] [0.51658163265306123:29.04507409014818] [0:1] [0:1] [-17.551206138780376:0.1631976363873347] [107.26000000000003:941.68000000000359] [58.591097094725633:530.89380626715342] [0:77.268465024963405] [0:32.59097764862998] [0:36.279094033699899] [0:43.178084254706789] [0:42.729787883893188] [0:130.58357459788525] [0:148.41402599398097] [0:113.33560403899048] [0:137.28451066889068] [0:62.373034408024147] [0:35.739647310661269] [0:29.659377301662492] [0:30.259544871474688] [0:111.56962493978614] [0:15.78567466421546] [0:39.8909626482546] [0:94.183581161817685] [0:234.30605425329205] [0:176.87112859194932] [0:167.35335307147429] [0:68.271371804240289] [0:91.375076245903202] [0:197.25243176117809] [0:61.63689262967241] [0:94.183581161817685] [0:174.81569630176196] [0:148.0098218853235] [0:20.090533254965305] [0:55.712789516750952] [0:42.511800019487865] [0:45.99609466627124] [0:102.1516206066384] [0:112.60611635388652] [0:160.14065380842592] [0:161.6359536200294] [0:117.48414740348277] [0:69.208328208163948] [0:110.13899323420276] [0:132.34019219490909] [0:68.443295335833099] [0:43.178084254706789] [-0.29750516033004359:135.76882080498075] [-1.3062069767453963:87.060484351050462] [-0.70383125472411234:69.179621302438164] [-8.9971897705235548:19.36575138167564] [-7.1810788136821708:18.541379755605945] [-1.006207378319127:45.817630236022922] [-10.782853164953584:28.72083180026911] [-3.0112193509891663:19.578494247167992] [-10.677968319222966:12.414151955548061] [0:48.201094062390354] [0:53.839921802943167] [0.0004432315575864:45.339349401620055] [18.26860002148177:137.34868941475375] [1.8268600021481769:2.2778119480107848] [1.7143722528410841:36.409800150008792] [0.070228290901214005:0.91934483299348879] [14.362028668707367:103.03641969896876] [1.0949261883795749:2.1776085853719032] [0:19.434828338393459] [0:0.63492911678882602] [0:32.749047519358449] [0:0.51858947226224961] [0:11.906015206563559] [0:0.3968671735521187] [10:123] [7:194] [6:310] [5:490] [5:728] [0:1098] [0:1627] [0:2312] [0:3313] [55:10336] [2.3025850929940459:4.6821312271242199] [2.4849066497880004:5.2574953720277815] [2.0794415416798362:5.715381610499553] [1.9459101490553128:6.3539351636432908] [1.791759469228055:7.0062422256967913] [1.9459101490553128:7.5089756123078537] [0:7.9989232607610106] [0:8.5514481702125291] [0:9.0584099469123345] [0:9.5081453025540057] [4.0253516907351496:10.440852082680491] [19.754344:223.5622680000011] [7.5492419999999996:115.88507900000025] [0:14] [0:3] [0:7] [0:6] [0:8] [0:2] none none none [0:8] none [0:1] [0:4] [0:5] [0:2] none none none [0:6] [0:3] [0:6] [0:4] [0:3] [0:3] [0:11] [0:3] [0:7] [0:6] [0:5] [0:2] none none none [0:8] none [0:1] [0:3] [0:4] [0:2] none none none [0:3] [0:1] [0:1] [0:1] [0:3] [0:2] [0:1] [0:1] [0:2] [0:3] none none [0:1] [0:3] [0:2] [0:1] [0:1] [0:2] [0:2] [0:1] [0:2] [0:2] [0:1] [0:1] [0:2] [0:1] [0:2] [0:2] [0:1] [0:1] [0:2] [0:1] [0:1] [0:1] [0:2] [0:2] [0:1] [0:1] [0:2] [0:2] none none [0:1] [0:2] [0:2] [0:1] [0:1] [0:2] [0:42] [0:0.69999999999999996] [-3.2403999999999931:10.692899999999998] [39.773800000000008:334.28830000000079] [0:262.54000000000002] [0:262.54000000000002] [1:21.5] [0.44444444444444459:11.77777777777778] [0.1875:8.9305555555555571] [0.062222222222222102:7.8122222222222231] [0:4.9400000000000004] [0:3.5312471655328794] [0:2.5342261904761898] [0:2.015463592844545] [0:1.4134799382716057] [0:1.1341883481277422] [0.071428571428571397:0.44444444444444442] [0.0311111111111111:0.15637860082304531] [0.013257575757575701:0.1026234567901234] [0.0062222222222222002:0.082666666666666597] [0:0.066666666666666596] [0:0.060408163265306097] [0:0.037499999999999999] [0:0.0357412806392398] [0:0.026718749999999999] [0:0.0223456790123456] [0.2020577122530047:0.69661375661375668] [5:100000000] [3:100000000] [0:1] [0:0.5] [146.03888485186266:1081.1808263182652] [4.1699250014423122:7.4757334309663976] [9:89] [3.713572066704308:6.0330862217988015] [4.3944491546724391:6.9421567056994693] [5.1059454739005803:7.9197197609245746] [5.8200829303523616:8.8968617444803915] [6.543911845564792:9.8905542771242292] [7.267525427828172:10.8831849152016] [7.9953066202908216:11.886961823574731] [8.7220913023890976:12.889166964980904] [9.4513238414187235:13.899370892296036] [79.118370440243453:256.75179565883678] [2.9444389791664403:5.1873858058407549] [0:2.9444389791664403] [4.1108738641733114:6.4876840184846101] [0:5.1416635565026603] [5.3612921657094255:8.1086232683545951] [0:7.2348984203148312] [6.7007311095478101:9.9818827499635017] [0:9.3104571633109554] [8.0897891757893188:12.146816149902156] [38.17971757391819:141.4426160038775] [133.08914935199999:1202.6538132640026] [5.319653704740757:15.171124984000002] [109:34100003533] [7:155] [40:416] [40:517] [2.2222222222222223:25.784722222222221] [2.208333333333333:19.250000000000004]
tree_sizes=6701 6855 6866 6888 6874 6852 6898 6880 6860 6905 6857 6883 6887 6885 6902 6874 6885 6908 6876 6886 6894 6882 6884 6878 6918 6912 6899 6929 6913 6913 6913 6888 6918 6916 6912 6904 6891 6894 6906 6870 6917 6919 6919 6897 6889 6855 6900 6877 6899 6911 6864 6841 6887 6910 6912 6914 6891 6865 6901 6907 6897 6905 6823 6879 6840 6889 6894 6885 6853 6850 6903 6832 6807 6888 6843 6834 6864 6891 6891 6888 6869 6887 6888 6871 6902 6845 6872 6854 6873 6889 6875 6875 6864 6874 6860 6901 6862 6851 6856 6870 6910 6861 6884 6851 6898 6851 6901 6848 6870 6874 6856 6874 6849 6861 6905 6879 6844 6869 6875 6835 6847 6861 6856 6884 6850 6895 6848 6850 6820 6848 6859 6842 6894 6847 6840 6870 6835 6872 6879 6877 6875 6908 6875 6857 6858 6862 6862 6853 6869 6854 6896 6868 6873 6856 6886 6914 6880 6881 6908 6892 6860 6877 6852

Tree=0
num_leaves=63
num_cat=0
split_feature=62 3 1295 158 1248 946 185 920 1259 128 496 159 1084 41 1145 260 839 1202 1163 458 430 1107 920 145 400 73 540 575 562 553 1031 1049 257 1060 1084 16 1081 450 325 1244 1014 563 597 1035 844 1092 193 1036 322 1074 636 1108 1269 521 760 208 444 1267 635 1076 1087 1035
split_gain=578.575 258.521 196.645 158.223 141.507 127.038 110.295 102.113 91.198 90.372 81.1966 81.7991 77.7064 81.4175 67.7009 56.7991 53.9516 61.0873 48.6422 48.5486 48.2465 47.8334 48.8969 47.5134 42.8539 42.5032 42.3534 41.6785 41.5925 48.7307 40.5502 39.5467 37.7251 36.2257 35.2805 35.1144 34.6882 33.4768 33.1419 32.7612 32.5709 32.0657 32.0432 30.9882 30.9861 32.228 45.4712 30.918 30.2788 30.036 29.2442 28.7832 28.6836 28.5127 31.8997 28.2997 27.3615 27.2734 28.0658 28.2 26.8139 30.0368
threshold=1315.5000000000002 1.0000000180025095e-35 6.5929685291165763 2.139273512435278 37.385000000000012 5.9257957103485372 141.30131458209652 5.9824908867804352 0.11667482909907151 22819.511190562476 0.0029161436158403505 2.1580196316535125 43.454878985931963 353.16666666666674 5.065754515572503 -6.3376389402531208 1.363329304698486 1.0000000180025095e-35 1.5000000000000002 -0.13103976516791735 0.22302697308731531 5.4741844872109802 4.090375256988211 3.0431876720845552 0.28787345052487728 10217.621856359203 -0.12017877063069758 0.66014854206955997 1.3321216641301128 0.97167527757275629 0.85708052146966185 31.652675564180445 -8.5477745317064802 2.7716049382716053 51.309308486903639 19.500000000000004 1.0000000180025095e-35 0.14324288937653218 1.4515105485289628 3.5000000000000004 4.5000000000000009 1.0198546609968373 0.95124593112568456 0.56332108414975857 0.075436954136941473 76.550534915818801 7.6182174513854743 0.83535257032711752 15.682783607397303 17.578812967613974 1.1041334538830883 8.2749482176173217 0.0070243788899091511 -0.18126572883630326 9.7575302844554912 6.0202794578853052 -0.082443984904159093 0.014271636488791652 0.99351627444364343 5.7372487136270802 5.1900031644858409 0.56450881699575739
decision_type=2 2 2 2 2 2 2 2 2 2 2 2 2 2 2 2 2 2 2 2 2 2 2 2 2 2 2 2 2 2 2 2 2 2 2 2 2 2 2 2 2 2 2 2 2 2 2 2 2 2 2 2 2 2 2 2 2 2 2 2 2 2
left_child=5 8 3 32 6 7 -4 14 43 41 11 -6 13 25 38 -16 -13 44 34 -17 -20 22 -12 31 -22 40 -9 -28 29 -8 -26 -7 -3 -23 37 -35 -21 -14 -1 -15 -11 -5 -24 -2 45 50 -47 53 -45 -42 -18 52 -25 -38 60 -30 -49 58 -29 -60 -55 -62
right_child=1 2 4 9 10 23 28 26 -10 12 21 16 18 39 15 19 17 -19 20 36 24 33 42 51 30 -27 27 57 55 -31 -32 -33 -34 35 -36 -37 47 -39 -40 -41 49 -43 -44 48 -46 46 -48 56 -50 -51 -52 -53 -54 54 -56 -57 -58 -59 59 -61 61 -63
leaf_value=0.30100766899985543 0.31215358105227042 0.32676246968303146 0.58992304474333024 0.47857764946062531 0.62231968311311159 0.3703877405040526 0.52065618606384101 0.57298167229670105 0.31837190886028893 0.39666388064465763 0.28676730754103219 0.48801777273955493 0.34720605094185164 0.55278103187303107 0.57744252966594478 0.34799627817622403 0.599459598924168 0.28426388457536311 0.36650319722368691 0.33206475062274055 0.58259752502399531 0.3921848839860046 0.36741329022080116 0.53188864963348792 0.59099280317853464 0.64561734327616271 0.63098796532053392 0.39462311364527608 0.63125275044190277 0.33082755173680845 0.32807378647457242 0.58223724183193815 0.60888800135005283 0.62085854825557252 0.53001657237188005 0.5429981300253649 0.51899504708523125 0.6296110826894159 0.51375624415677223 0.30622533639051236 0.566467927978062 0.60295324315625387 0.57442927823565892 0.56916685926563815 0.40067305247897639 0.57662484074708154 0.28103029657804046 0.60115550831297715 0.32754421623183472 0.36876831757206019 0.41394778215219546 0.31375420711094515 0.34246846852716972 0.37106274044364329 0.58518554310171045 0.34708787995191626 0.41619427486612481 0.29509264438035038 0.50325142815641788 0.35561143909693249 0.50006333618615506 0.41291093936115114
leaf_weight=68.410731792449951 7.4970664978027335 4.9199498891830435 53.416598796844482 30.456832647323608 122.06161391735077 9.6056164503097516 17.805532932281494 47.325232267379761 65.833615183830261 63.490781903266907 7.262783169746398 180.16387927532196 40.296732425689697 5.8570832014083853 23.194049477577209 83.873431444168091 186.72381246089935 7.7313498258590689 15.696982979774473 32.331099271774292 96.993297815322876 7.4970664978027335 8.1999164819717389 35.611065864562988 9.8398997783660906 11.2455997467041 14.525566339492796 43.576699018478394 12.182733058929445 56.227998733520508 14.525566339492796 106.59891426563263 129.32439708709717 592.97110331058502 22.491199493408203 64.193631887435913 33.268232583999634 4.6856665611267081 8.1999164819717389 67.473598480224609 28.348282694816589 64.896481871604919 84.810564756393433 34.908215880393982 10.308466434478758 13.588433027267458 8.4341998100280744 21.08549952507019 6.0913665294647208 10.542749762535093 8.9027664661407453 11.714166402816771 10.308466434478758 93.947614550590515 11.479883074760435 4.9199498891830435 12.885583043098448 10.074183106422423 118.3130806684494 14.525566339492796 53.416598796844482 152.28416323661804
leaf_count=292 32 21 228 130 521 41 76 202 281 271 31 769 172 25 99 358 797 33 67 138 414 32 35 152 42 48 62 186 52 240 62 455 552 2531 96 274 142 20 35 288 121 277 362 149 44 58 36 90 26 45 38 50 44 401 49 21 55 43 505 62 228 650
internal_value=0.512388 0.541409 0.549499 0.50243 0.569697 0.450073 0.475826 0.434018 0.395028 0.475926 0.580112 0.550342 0.454663 0.408064 0.411517 0.424499 0.529215 0.560707 0.497258 0.417327 0.531476 0.601047 0.536665 0.527907 0.552814 0.461078 0.48787 0.467832 0.408952 0.376483 0.434253 0.564725 0.598548 0.610759 0.427754 0.613253 0.431485 0.376623 0.323779 0.325918 0.440808 0.563226 0.556178 0.499087 0.570082 0.578106 0.463418 0.439981 0.533269 0.512875 0.591017 0.453672 0.489366 0.431003 0.421594 0.549507 0.530998 0.455124 0.464263 0.487107 0.415327 0.435543
internal_weight=0 2182.82 2068.49 621.085 1447.4 1016.56 144.553 842.717 114.33 486.841 1302.85 537.915 391.487 186.958 594.377 517.766 415.853 235.689 204.529 494.572 137.056 764.935 100.273 173.838 121.359 113.627 248.34 201.015 91.1362 74.0335 24.3655 116.205 134.244 664.662 67.4736 657.165 410.699 44.9824 76.6106 73.3307 102.382 95.3533 93.0105 48.4966 227.958 217.649 22.0226 378.368 40.9996 38.891 195.627 57.6337 45.9195 344.396 311.128 17.1027 33.9711 186.49 176.415 132.839 299.648 205.701
internal_count=13656 9317 8829 2651 6178 4339 617 3597 488 2078 5561 2296 1671 798 2537 2210 1775 1006 873 2111 585 3265 428 742 518 485 1060 858 389 316 104 496 573 2837 288 2805 1753 192 327 313 437 407 397 207 973 929 94 1615 175 166 835 246 196 1470 1328 73 145 796 753 567 1279 878
is_linear=0
shrinkage=1


Tree=1
num_leaves=63
num_cat=0
split_feature=62 3 800 695 128 158 388 1153 1087 1059 848 3 1085 624 1020 167 16 327 1109 1147 928 255 1145 1293 172 1113 1136 799 60 152 440 438 1067 928 778 1039 371 215 1074 233 1088 609 358 968 138 1252 551 244 442 847 382 1099 1074 1071 1262 159 533 195 96 619 979 1072
split_gain=471.756 223.851 169.835 113.695 111.966 116.87 87.315 75.6969 65.6161 76.6415 64.8505 62.6806 61.2027 54.7363 64.1284 54.0629 52.8528 50.2333 47.7332 45.7418 43.2913 42.2113 41.6141 49.9545 41.4114 38.5487 36.9592 36.1284 35.9598 35.7994 35.6473 35.4067 34.6876 34.4177 34.1569 33.6745 33.2167 32.9506 35.7806 32.9297 31.8179 31.6485 31.4954 30.5753 30.5148 28.8598 28.3006 27.8903 26.6551 26.6388 26.1671 25.9501 25.7766 31.9961 25.6814 25.3567 24.621 30.7761 24.3252 24.1357 24.7798 29.1414
threshold=1363.5000000000002 1.0000000180025095e-35 0.18215645987764684 12.389531583153927 22688.36444938961 2.139273512435278 -2.2391546970828644 20.334208500000003 5.1900031644858409 10.735722555451629 34.083333333333343 1.0000000180025095e-35 96.695337411216272 1.0129345490588271 5.0078960646863555 11.676712173568236 20.500000000000004 -3.2956971608347438 1.8297515836123448 7.1364241607521075 7.518567452332336 0.14070376743184282 5.065754515572503 4.8964734884183807 75.816126699640293 0.95001174336559446 216.50000000000003 0.068412286365446218 234.19444444444446 3.5150682273295124 -0.3206870908803699 -0.00045531583527754995 19.704028780730013 6.0914362691979198 7.5000000000000009 0.91055015884733659 0.0056357637975221007 1.7864700177857145 18.493208743522384 -0.25065683147068285 12.617660014360707 1.1199837975052229 0.53774166237997267 0.4905505952380953 1.5003607503607508 1.0590277777777779 0.8792998988728572 -21.327550588063406 0.23288548708818638 0.007752938095301201 -0.16152676868585952 36.701686122816433 5.0274598329274625 48.545416105251299 0.051846468561584806 2.0232246709519441 0.0067604575428296008 7.3429870083154256 746.20967900000016 0.83748656992657777 0.014087301587301501 50.645400754822461
decision_type=2 2 2 2 2 2 2 2 2 2 2 2 2 2 2 2 2 2 2 2 2 2 2 2 2 2 2 2 2 2 2 2 2 2 2 2 2 2 2 2 2 2 2 2 2 2 2 2 2 2 2 2 2 2 2 2 2 2 2 2 2 2
left_child=3 10 4 6 27 43 22 -8 9 13 -2 34 21 17 31 -11 20 -4 -19 30 35 26 -1 29 51 -18 36 48 -5 44 45 -15 -16 40 -9 55 37 56 39 -39 -32 -40 -27 -6 -24 -13 -42 -25 49 -3 -20 58 53 -46 -44 -10 57 -7 -23 -17 61 -61
right_child=1 2 8 28 5 12 7 11 16 15 -12 19 -14 14 32 59 25 18 50 -21 -22 24 23 47 -26 42 -28 -29 -30 -31 33 -33 -34 -35 -36 -37 -38 38 41 -41 46 -43 54 -45 52 -47 -48 -49 -50 -51 -52 -53 -54 -55 -56 -57 -58 -59 -60 60 -62 -63
leaf_value=-0.17360936645468336 0.020700291791854394 -0.09456524904681865 0.13348686846003344 0.076100704175847592 0.094940703499028847 0.06471873773770985 -0.11333690930864174 -0.22541387675853894 0.13157344311759472 0.092159586716969652 -0.1564938617098014 0.065649094424525364 -0.16941629824399695 -0.15239681886761991 0.10133717690014186 0.040017071669901386 -0.15430233708563812 0.067296074831486405 -0.055865902393319095 -0.18584947123987883 -0.17694461274134465 0.03640843555383224 0.019852127518174618 -0.19807885019353255 0.085437964494699328 -0.074691705707854286 -0.16970543340265065 -0.14106171972465942 -0.064511721643910211 0.14446965338098369 -0.16368274990161938 0.041363057448381341 -0.16871503768014445 -0.086752877627347735 -0.040517854620457899 -0.08396688373121218 0.064635818590372957 0.062349623155051687 -0.1296767875910225 -0.1159986372780973 0.062680606768002245 0.096345451228832368 0.095168579598452777 -0.085051928800478932 -0.01945176676081713 -0.08829374921757599 0.0014591502817713903 -0.034042504872998702 -0.10756105862250989 0.098965617449301671 -0.22988197654642517 0.062446943344558262 -0.1068319555726744 -0.17863171892560051 -0.10087568602229513 0.082739569090398785 0.065441006859547859 -0.097499239564179788 -0.14093459157759614 -0.19872844062381018 -0.16443113979664267 0.11775368658367587
leaf_weight=58.343235477805138 27.844965562224388 7.4717958420515052 14.370924800634382 86.697798162698746 90.268945708870888 13.407704919576643 107.03144066035748 21.874053806066513 132.20077201724052 18.642733186483383 79.984240010380745 14.581087321043013 35.188149720430374 17.281929552555084 197.73506630957127 10.185810968279837 12.836177974939345 15.483339890837668 17.066219359636303 14.533398523926733 6.1541099399328223 8.561313331127165 32.465744748711586 49.844032809138298 12.482798263430594 20.365620777010918 14.572266638278959 7.6758838444948188 23.015568688511848 7.8600980937480918 9.4723925739526731 20.760047242045403 4.8736398071050635 35.162861675024033 18.392370954155922 11.015418067574499 53.83287538588047 89.61415322124958 26.253028437495232 11.704795911908148 114.04664267599583 8.1085732281208021 51.193092599511147 10.539496451616285 85.977690100669861 73.890274524688721 223.44298894703388 13.086429223418234 7.1695402711629859 147.84728483855724 17.50440908968449 8.1700042933225614 167.55004067718983 14.801462471485136 7.6851978898048392 543.31286045908928 13.768348798155783 91.57845002412796 80.080146104097366 4.7073212713003141 41.884729400277138 7.6178017109632492
leaf_count=241 119 32 63 374 395 57 447 91 580 81 330 62 145 74 863 44 54 67 73 61 26 36 138 208 54 87 61 33 98 34 40 90 21 147 77 47 231 385 111 49 488 35 221 45 362 312 950 55 31 644 74 35 703 62 33 2366 59 387 337 20 178 33
internal_value=0 0.0294455 0.0373547 -0.0503139 -0.000218189 -0.0215309 -0.0603228 -0.0366853 0.0610058 0.0273726 -0.110737 -0.0210701 -0.0425962 0.0505566 0.0724729 -0.0578033 0.0776395 -0.0313089 -0.0786231 -0.0111192 0.0871015 -0.0322694 -0.0950938 -0.0827659 -0.085985 0.006461 -0.0140846 0.0709389 0.0466032 -0.0662101 -0.00572298 -0.0466593 0.0948412 0.00752006 -0.140959 0.0894684 -0.00672814 -0.0218272 0.0118402 0.0417461 0.0170742 -0.0763406 0.0325019 0.0761225 -0.0717153 -0.0629222 0.0221475 -0.163967 0.0809537 0.0896556 -0.143977 -0.108088 -0.0827943 -0.0428306 0.0695795 0.0922966 -0.0602932 -0.0767825 -0.123806 -0.101218 -0.127756 -0.00312
internal_weight=0 2019 1911.17 1172.07 738.296 568.131 1062.36 632.428 1172.88 388.114 107.829 525.396 467.323 305.076 240.651 83.0384 784.763 64.4249 50.054 485.13 692.683 432.134 429.929 371.585 109.294 92.0801 322.84 170.165 109.713 308.655 470.596 38.042 202.609 382.125 40.2664 686.529 308.268 254.435 135.681 101.319 346.962 34.3616 79.2439 100.808 300.795 88.4714 337.49 62.9305 162.489 155.319 34.5706 96.8115 268.329 100.779 58.8783 675.514 118.755 104.986 88.6415 64.3957 54.2099 12.3251
internal_count=13656 8706 8257 4950 3162 2422 4478 2675 5095 1681 449 2228 1982 1325 1048 356 3414 277 214 2060 3019 1837 1803 1562 462 395 1375 740 472 1299 1999 164 884 1625 168 2993 1314 1083 580 434 1478 146 341 440 1265 374 1438 263 707 676 147 408 1127 424 254 2946 503 444 373 275 231 53
is_linear=0
shrinkage=0.1


Tree=2
num_leaves=63
num_cat=0
split_feature=62 3 1295 938 158 695 956 1150 458 551 1081 377 268 1147 946 924 664 243 41 581 927 327 1266 644 75 1078 442 283 1029 262 635 74 1226 305 512 826 882 593 1122 1066 630 637 258 566 240 287 505 1044 350 436 442 324 1093 918 1268 1245 365 1114 940 37 560 629
split_gain=382.806 181.176 144.774 97.1075 93.1254 91.1372 75.6026 83.9447 72.8431 66.8023 64.8652 61.0013 62.5149 55.8746 54.5055 53.9313 53.8188 43.8328 42.9465 41.6977 41.6834 40.4338 41.9955 36.9538 35.076 33.9205 37.9442 36.7448 33.7418 34.1941 33.364 31.7733 31.3974 30.9339 30.6936 34.7562 30.1689 29.8143 28.5963 28.3234 27.0684 28.2376 26.8409 29.8863 27.0708 26.7551 27.5563 27.1448 26.4246 26.3455 25.7145 25.6731 25.2672 25.1883 24.6557 23.8091 23.6819 23.4149 23.8233 23.1277 23.0891 28.5689
threshold=1363.5000000000002 1.0000000180025095e-35 6.5929685291165763 4.2641705949418949 2.139273512435278 12.389531583153927 -3.5866856484105987 7.4874783790348287 -0.12272350578848014 0.92406398334515549 1.0000000180025095e-35 0.46098513120456658 913.51428571428585 6.781961722397214 5.9411716407445496 -0.35339700580124916 1.5354307636839928 11.462576634489873 351.59259259259267 0.88052421232814382 -0.22178238659771002 -3.0342572736484992 0.019141237876194504 3.2035857564066608 7043.6168920000009 5.8853561292306411 -0.040101833777410993 6.6357621788884282 0.55597094415154646 -7.3176899183761588 0.90970353876276933 4985.5194819999997 1.5000000000000002 0.050534566530613008 0.15622206359891358 0.2966144176810554 1.0000000180025095e-35 0.83116638355719774 0.38066589654528465 19.107140327771496 0.99341866895097464 0.97910201193279001 -1.0153124999999992 0.86904933176510901 0.20374113650768583 17.177295047180888 0.15297041612986803 0.55737704918033038 1.0635620696016006 -0.041899721522683044 -0.19127803924991982 2.4159672354152226 5.0878715653170596 5.6428657063993599 0.0058656813865147006 0.17573529411764707 -0.043657235765026996 1.6318801639804683 5.1214334851869978 469.03086419753089 0.63932438990711882 0.91872131092859666
decision_type=2 2 2 2 2 2 2 2 2 2 2 2 2 2 2 2 2 2 2 2 2 2 2 2 2 2 2 2 2 2 2 2 2 2 2 2 2 2 2 2 2 2 2 2 2 2 2 2 2 2 2 2 2 2 2 2 2 2 2 2 2 2
left_child=5 16 4 6 56 8 17 9 20 23 31 12 18 -9 21 33 -2 -4 59 39 -1 22 34 -8 36 26 -13 38 40 -30 -7 -10 42 -11 35 -12 -16 -25 -28 -17 -15 -42 44 -44 60 46 47 48 -21 -5 -38 -51 -39 -27 -35 -33 -3 -47 -59 -6 -23 -62
right_child=1 2 3 49 11 30 7 13 10 15 14 25 -14 28 24 19 -18 -19 -20 45 -22 32 -24 37 -26 53 27 -29 29 -31 -32 55 -34 54 -36 -37 50 52 -40 -41 41 -43 43 -45 -46 57 -48 -49 -50 51 -52 -53 -54 -55 -56 -57 -58 58 -60 -61 61 -63
leaf_value=0.042968938129932403 -0.13622145632817784 -0.10872599568833824 -0.18262373508682817 0.13078763435718924 -0.10815775225074725 -0.15023546263483342 -0.10945475100146487 -0.16868990330700262 -0.20180256511854561 0.046470981355835446 0.050167797640192739 -0.10258714271576774 0.095379801353628557 -0.11715983277390563 -0.04614615191925648 -0.06665905344491839 0.031099710537252911 0.10106044628312572 -0.14794348328212337 0.052739984091908457 -0.12319807828193891 -0.13940076315475791 -0.20069047133083778 -0.087711527230320052 -0.096291207947296384 0.084120850539342595 -0.15879157574043878 -0.073772987748534413 -0.16921951734404531 0.045311521593222673 0.058596772928583445 -0.11154288771466686 0.098224513912833322 0.048017086647210612 -0.22610105103984712 -0.13763886059240787 -0.13741492782180822 0.11208189154740907 0.049056110269676857 0.10781980445260919 -0.1395746711437782 0.08091264045318991 -0.049304573796983026 -0.12291934356063799 0.08079483306765689 -0.10024326598780907 -0.11600564582783789 0.067041102582086495 -0.11694149552305361 -0.061836028879953868 0.08538801634124997 -0.23379034698505397 -0.068096437412567393 -0.098368045549111272 -0.18656499405458662 0.089446149903700686 0.086688940098549452 0.10773666716059194 -0.041229080441343408 -0.0065578287073665411 -0.10007437257561831 -0.022391859445717983
leaf_weight=16.496848478913307 84.466489627957344 6.6019880026578894 5.5333237797021857 4.5072145015001288 36.863263547420502 8.284762427210806 8.5627881139516813 20.697080537676811 34.894413411617279 13.706157952547072 101.91605150699615 42.29825696349144 20.045487701892853 33.789009526371956 28.358091190457344 47.320100769400597 24.887596130371094 347.69065284729004 74.81494303047657 18.314852997660637 177.83280763030052 25.834084510803223 9.1723573803901655 8.1027181595563871 20.958266571164131 62.329050034284592 7.0812063068151465 42.941929742693901 7.8998668342828742 124.83688668906689 99.910085782408714 25.521722257137299 12.673647269606588 5.657343044877055 4.8033496886491767 10.908690512180327 5.512973189353942 269.89523606002331 101.5019945949316 11.580719769001005 8.2380033284425753 19.695159837603569 105.86854146420956 115.11710818111897 16.965441316366196 6.3141304701566687 11.912614375352858 109.78665015101433 18.396597355604172 23.576095595955849 85.785295590758324 13.744497671723364 8.0142053663730604 8.6081516742706281 21.538838922977448 7.6636533588170996 102.24684670567513 139.83446422219276 11.628424689173697 57.124612256884575 61.607085019350052 204.45696179568768
leaf_count=69 343 28 24 20 154 35 37 88 142 60 434 178 88 144 121 205 106 1561 306 80 729 106 38 35 87 273 30 180 33 547 437 105 54 25 20 46 23 1212 437 52 35 86 441 478 72 28 51 482 79 100 370 57 35 36 91 32 460 626 51 243 256 855
internal_value=0 0.0269929 0.0342591 0.0523526 -0.00822852 -0.0448666 0.0572563 0.0422378 -0.0536921 0.0588081 -0.0414306 -0.028161 -0.0715818 -0.0124867 -0.0335504 0.0330063 -0.0981413 0.0966165 -0.0914087 0.0448964 -0.109092 -0.0454407 0.00539901 0.0952447 0.0230471 0.00281028 -0.0188437 0.00453326 0.00413863 0.0325436 0.0426059 -0.135181 -0.0573231 -0.07603 0.0214694 0.0320093 0.0439496 0.101373 0.0355014 -0.0323541 -0.0569478 0.0158869 -0.0610437 -0.0876524 -0.0420057 0.059287 0.0302561 0.0421495 -0.0322897 -0.0975833 0.0719342 -0.125164 0.106886 0.061976 -0.137767 -0.0651276 0.0748365 0.0884344 0.0963 -0.0464066 -0.049143 -0.0403792
internal_weight=0 1992.59 1883.23 1320.77 562.458 1180.54 1278.95 925.722 1072.35 710.566 878.018 453.609 188.848 215.156 809.938 415.991 109.354 353.224 168.803 375.089 194.33 669.323 126.8 294.575 140.615 264.761 193.823 151.525 194.459 132.737 108.195 68.0798 542.523 40.9023 117.628 112.825 119.656 286.012 108.583 58.9008 61.7222 27.9332 529.849 220.986 308.864 316.188 158.411 146.498 36.7115 41.8278 91.2983 37.3206 277.909 70.9372 27.1962 33.1854 108.849 157.777 151.463 93.9879 291.898 266.064
internal_count=13656 8706 8257 5844 2413 4950 5667 4082 4478 3149 3680 1925 791 933 3401 1830 449 1585 703 1654 798 2800 538 1319 601 1134 825 647 845 580 472 279 2262 176 500 480 514 1282 467 257 265 121 2208 919 1289 1397 692 641 159 177 393 157 1247 309 116 137 488 705 677 397 1217 1111
is_linear=0
shrinkage=0.1


Tree=3
num_leaves=63
num_cat=0
split_feature=62 3 800 1258 120 289 1085 260 1087 956 1125 575 964 1259 1060 537 1045 563 624 1261 858 597 167 1067 560 1058 935 1037 929 1127 708 1091 534 664 650 528 1107 1074 1019 1201 346 630 361 617 1039 254 127 508 1123 819 147 929 1267 325 554 1111 515 638 1055 192 695 616
split_gain=311.738 147.561 124.617 87.0052 78.624 76.5167 62.0973 54.5274 60.0098 49.1119 69.6334 47.7427 47.4842 46.5756 43.5016 41.1061 40.6361 40.0595 38.5254 36.7351 48.6852 35.7591 35.6627 39.0443 34.2828 33.0969 33.0309 31.7526 31.3851 32.6948 30.8253 30.3102 29.2966 28.9701 28.6306 28.1658 33.5491 42.6109 27.7961 26.5351 26.256 26.1235 26.1069 25.5698 25.3469 25.1617 24.826 24.7285 24.6937 24.521 24.3561 24.1475 28.9821 23.3939 23.3648 23.0878 22.7445 22.6659 31.0951 30.4719 22.2487 22.2057
threshold=1363.5000000000002 1.0000000180025095e-35 0.18215645987764684 0.1251658950617284 101.466716974688 -335.87274389411903 96.695337411216272 -3.4650470922254111 5.1900031644858409 -3.6503371187398641 8.548789021592837 0.9980128299837151 1.7312565309784069 0.11417610447913477 4.7009269274683021 0.23415032206952102 0.59999999999999931 1.1583022108108629 1.0129345490588271 0.071353698712189259 0.60969820676810815 0.99639440499591092 11.932562370062373 5.0006586282951018 0.68363311011931749 25.630554474485475 2.8416735691190063 0.80547168733604158 0.79877794609439756 3.8452475018641405 9.9503873420599867 11.290539198558447 0.084494970296673258 1.0946055485321573 32.066544288628904 -0.093602036834173438 5.5421916613212518 6.055531070970118 5.084109883375894 1.0000000180025095e-35 -0.00079811001425449991 1.6391712107687952 -0.095683307311128882 0.71146931685048287 0.90881270364392253 -0.15180790401098812 14857.093851630732 0.084716632459971214 50.343141285560598 9.7338876564584798 2.5422110979127788 2.1251634651682871 0.011986329080014351 -3.8570240524033399 1.1179253653528021 -0.060071053459886344 -0.047968178977537593 0.90062949703787376 24.848611424391095 7.4171324615384622 10.807339874071539 1.0968026300581291
decision_type=2 2 2 2 2 2 2 2 2 2 2 2 2 2 2 2 2 2 2 2 2 2 2 2 2 2 2 2 2 2 2 2 2 2 2 2 2 2 2 2 2 2 2 2 2 2 2 2 2 2 2 2 2 2 2 2 2 2 2 2 2 2
left_child=4 13 3 17 28 16 9 31 14 34 15 50 19 -2 18 21 39 -3 30 20 -10 26 -16 54 -13 -21 38 -18 29 41 -9 60 57 44 -5 -26 37 61 -11 45 -35 -1 -30 -44 -27 46 -6 -39 -15 -20 -7 52 -38 -41 -24 -29 -28 -23 -59 -60 -4 -37
right_child=1 2 7 6 5 11 -8 8 12 10 -12 24 -14 48 22 -17 27 -19 49 25 -22 32 23 -25 35 33 56 55 42 -31 -32 -33 -34 40 -36 36 51 47 -40 53 -42 -43 43 -45 -46 -47 -48 -49 -50 -51 -52 -53 -54 -55 -56 -57 -58 58 59 -61 -62 -63
leaf_value=-0.13693262440079076 -0.0039559564157279417 0.021473267543694247 -0.23164447102920041 0.092037348572381911 0.013079920900622117 0.080990272721086193 -0.14734863057199893 -0.19562162755537721 0.087761303938735075 -0.024986942909792243 0.047717598290933513 -0.066512319565696656 0.10222323055867753 -0.15723335064263427 0.049481059529834476 -0.18440667214477768 -0.090449125003265615 0.12384349683618401 -0.14148838050851986 0.082763991197652473 -0.051394876816499652 0.048667487653097849 0.035081949828884955 -0.10909688877636102 -0.073813715550081246 0.071291675352351397 0.1054804554753587 -0.17624783629550814 -0.15050923783745629 0.014492641523725558 0.017401881503459466 0.10376055596280989 -0.15193945238017159 -0.23379461989324138 -0.076621127543671508 0.033979432238440181 0.079961916660688956 -0.11031781495054296 -0.15147665432119611 -0.15755744644597297 -0.017250428063911898 0.065325479595002553 0.12444034520115906 -0.038890476407097349 -0.10468815938683472 -0.011249126685961279 -0.13185756595730633 0.066333799678975458 0.051386891680251429 0.090490507249779362 -0.014020244516470376 -0.062444549747260464 -0.040044207906938266 0.014106561491810317 -0.15627078641041037 0.039120063647259867 -0.10787011457627685 -0.21552059594792294 0.061971736275801929 -0.040841726694004279 0.044374846569030506 -0.17104514344515243
leaf_weight=148.788170799613 41.398237600922585 89.098302707076073 4.5721104592084876 62.565738961100578 12.857704639434813 83.487502425909042 35.28910793364048 9.82171379029751 36.825251132249832 24.900299429893494 107.99015158414841 117.05670395493507 178.15388935804367 62.384610936045647 40.420263320207596 19.697804376482964 36.747475236654282 66.949284240603447 4.798792988061904 201.20751741528511 79.242331504821777 58.364148437976837 43.344749107956886 67.594524934887886 49.681838631629944 65.596825897693634 13.448205351829531 5.369799315929412 16.069203481078148 17.892498657107353 22.02734462916851 222.18251506984234 14.386817410588263 7.033877119421958 11.994565233588217 81.234690085053444 104.53223063051701 57.098948493599892 57.469340965151787 10.051018610596655 27.454666912555695 6.6722314506769171 11.876955687999724 49.669289693236351 9.3514054417610151 24.489902764558792 146.15150557458401 9.2013253569602949 6.241432160139083 90.288105562329292 39.864791750907898 19.524385884404182 24.922446802258492 37.77265739440918 7.4826075285673133 68.153283521533012 7.9509863257408133 8.0677735805511457 39.030460312962532 110.27030196785927 8.0831466019153577 5.650069296360015
leaf_count=605 174 392 20 286 53 368 142 40 168 104 476 483 823 250 183 81 153 306 20 923 350 254 193 286 209 295 61 22 65 76 97 1026 61 30 51 344 449 237 237 41 121 27 50 204 40 101 598 39 25 413 170 82 105 159 31 287 35 34 171 471 36 23
internal_value=0 0.0247906 0.0314715 -0.000784999 -0.0401647 -0.0268104 -0.0188573 0.0523211 0.0410187 -0.0103998 -0.0225642 -0.00507134 0.0588607 -0.0877259 0.00325501 -0.0440292 -0.0645015 0.0653933 0.0468994 0.0407567 -0.00724421 -0.0357476 -0.0316227 -0.0593053 -0.0196337 0.0586915 -0.084482 -0.0145463 -0.0898561 -0.113519 -0.048291 0.0951864 -0.0137716 0.0144324 0.0649051 -0.00403749 0.00743512 -0.0254253 -0.113239 -0.088315 -0.0614142 -0.128252 -0.0370062 -0.00737153 0.0493344 -0.105605 -0.120138 -0.0858016 -0.13826 0.0787831 0.0502849 0.0412233 0.0568585 -0.0219718 0.00691174 0.0233905 0.0262089 -0.00455739 -0.0242972 -0.0139641 -0.0553458 0.0206468
internal_weight=0 1962.98 1852.95 727.473 1184.82 933.848 571.426 1125.48 890.644 536.137 461.576 592.255 604.866 110.024 285.778 353.586 341.593 156.048 126.936 426.712 116.068 333.888 158.842 118.422 468.903 310.644 103.769 110.271 250.968 173.353 31.8491 234.838 230.12 109.437 74.5603 351.846 302.164 153.185 82.3696 231.323 34.4885 155.46 77.6154 61.5462 74.9482 183.499 159.009 66.3003 68.626 95.0869 123.352 148.979 129.455 47.8237 50.8274 73.5231 21.3992 215.733 157.369 149.301 12.6553 86.8848
internal_count=13656 8706 8257 3162 4950 3923 2464 5095 4013 2322 1985 2509 2750 449 1263 1509 1414 698 570 1927 518 1428 693 510 1971 1409 437 462 1027 708 137 1082 991 486 337 1488 1279 643 341 952 151 632 319 254 335 752 651 276 275 433 538 636 554 200 224 309 96 930 676 642 56 367
is_linear=0
shrinkage=0.1


Tree=4
num_leaves=63
num_cat=0
split_feature=836 538 1071 498 103 956 459 928 575 1108 265 255 1268 1267 1145 274 825 224 254 287 75 821 1147 931 233 1103 629 843 376 159 456 556 542 1110 380 1114 555 634 167 1068 293 234 1108 310 342 861 180 947 232 1108 547 1115 614 345 280 240 551 1253 614 799 1145 243
split_gain=257.291 108.346 93.9055 83.7623 65.3934 58.5401 72.3594 53.488 52.2875 56.3723 47.5352 43.1707 41.3574 37.02 34.5764 43.8732 33.6238 32.9149 31.906 30.3257 31.158 29.4633 29.2831 28.9824 31.2712 28.2911 27.4131 27.3488 27.8826 26.5251 40.4705 25.7363 24.3366 23.6448 23.6098 23.3924 28.4933 22.5754 25.8938 22.5605 23.0327 22.3422 21.6777 21.6077 21.3036 21.1638 21.0686 21.0387 21.9868 30.6226 29.1792 26.6347 23.7808 21.4905 20.9215 21.5405 20.7161 20.6849 20.6428 20.6055 20.4227 21.3396
threshold=4.2441224698780049 -0.12961694784654301 27.611356317761167 -0.041037153550081341 473.63405000000006 -3.6046888844272282 -0.13591896117751162 7.518567452332336 1.0577229024321382 27.409215230667247 -6.0469288142775524 -4.3190380698989008 0.0083246071829405025 0.011174572744513151 5.065754515572503 64.385092537510772 0.46898525334428987 146.82905771404134 -7.1149344471395102 -6.4003151853348141 6325.0128709999999 8.5493468607132339 5.3070292951538791 5.427754472470288 -0.34316904578844792 68.050722381292488 0.99292404438076953 0.10087545619677156 7.0850582113168334 2.056837784034903 0.3019818181438691 0.88684127238108512 -0.098241236130061679 4.1662569853247078 -1.2563695521081899 3.2467437534608732 1.0698061092709481 1.0363240499706572 10.819836065573773 9.3689997194562 -1245.8467714549324 -0.027778569363726646 1.0000000180025095e-35 -0.019396153846143297 -0.0022511806261168994 0.97748272017837257 206.25107051849474 5.8359967291877988 0.4166013985580046 6.0534726224668578 0.76676550227712859 2.2538195039798405 1.1003974340617142 0.00073465789487345008 297.92134493696659 -0.036583039913572292 0.86878723979515071 1.2183333333333337 0.78328822103146334 0.14447754184141023 6.1545926572033656 28.15365481372605
decision_type=2 2 2 2 2 2 2 2 2 2 2 2 2 2 2 2 2 2 2 2 2 2 2 2 2 2 2 2 2 2 2 2 2 2 2 2 2 2 2 2 2 2 2 2 2 2 2 2 2 2 2 2 2 2 2 2 2 2 2 2 2 2
left_child=3 11 7 14 42 25 -7 8 34 19 35 -2 16 18 -1 22 29 -11 26 27 31 59 -16 24 -14 -4 41 28 -10 45 -31 -21 -33 -29 -3 36 -8 38 -28 40 -15 -12 44 -40 -5 -6 -17 48 51 52 -51 53 -50 -24 55 -26 -23 -25 -39 -20 61 -32
right_child=1 2 5 4 12 6 10 -9 9 17 13 -13 23 39 15 46 -18 -19 21 20 -22 56 47 57 54 -27 37 33 -30 30 60 32 -34 -35 -36 -37 -38 58 43 -41 -42 -43 -44 -45 -46 -47 -48 -49 49 50 -52 -53 -54 -55 -56 -57 -58 -59 -60 -61 -62 -63
leaf_value=-0.13173928980949384 0.00010445822193630897 -0.039193429844095927 0.072510397451848521 0.024594335856039477 0.094208860286512972 0.07956976002928344 -0.1861652000854368 -0.15781753757753342 0.1521750258075551 -0.1086649988347278 -0.010909771521907183 -0.1180820682523871 -0.11454231418915778 0.063145873162710697 0.032499463864074936 0.0073536413334543962 -0.19155855947100375 0.0094749651862938225 -0.012371213889091485 -0.12447061911412685 0.080730581470509558 0.015561116102974643 -0.16758537439951296 -0.093175269070273473 -0.1222769890466634 -0.13545083960000789 0.13308502924328117 0.051287586242873578 -0.088043823150259312 0.045973209354477823 -0.047294924653282965 -0.14424301095956882 0.079703052960640619 -0.16038148699304389 0.09556584390215829 0.04315132435107482 0.071488588857525667 0.15305033127801601 -0.020132626688966107 0.050443385104016275 -0.15703846124234189 -0.12411221155858183 -0.043162050581799886 0.10957174358920563 -0.15394210037827766 -0.13013916678051338 -0.16311194420254044 -0.16516425070285315 0.03237292965240883 0.032867330283301861 -0.076642086393174838 0.0033013801007377615 -0.059259007625893201 0.0068450957299702221 0.07686440335737045 -0.0063637801223553336 -0.16240297854039665 0.11019892037966968 -0.066963230930095305 -0.15837271144787918 -0.14850011871832761 0.034770600012723425
leaf_weight=63.610923886299133 55.834970876574516 13.619327262043951 137.58577428758144 7.9715613573789588 68.288641199469566 81.963377237319946 10.379012763500215 11.945611178874968 5.6110554188489905 33.174768656492233 53.234274670481682 69.225710466504097 53.870040848851204 5.2846854627132407 45.844404265284538 8.5576083660125715 7.239791512489318 81.566001877188683 76.35342039167881 13.327301204204558 305.98561328649521 7.9593606740236273 40.811137452721596 6.6664283871650722 23.229271337389946 6.8681565076112738 28.372479796409607 108.79681493341923 34.797339707612991 173.60267369449139 78.520852044224739 5.8985358476638785 27.36556513607502 5.5464630126953116 286.33387488126755 126.17404401302338 7.3186300694942465 4.9043254703283301 43.946831420063972 7.5198157876729956 47.03117161989212 25.925468161702156 93.511735916137695 18.14792788028717 41.359534829854965 4.4807308912277213 47.464948639273643 15.735066264867781 84.891305506229401 28.385220572352409 170.37816727161407 18.497482478618622 42.502990126609802 8.5414804071187955 18.345355853438377 51.744436144828796 36.705297157168388 20.018919005990028 32.688441589474678 11.067669242620466 12.38425439596176 53.122393816709518
leaf_count=258 246 61 643 33 305 377 44 49 25 142 231 286 224 22 193 36 30 357 326 56 1434 34 165 28 96 29 129 497 150 759 333 26 122 24 1353 573 33 22 191 32 192 108 385 80 167 20 193 64 357 119 706 76 175 35 80 219 152 89 141 47 50 227
internal_value=0 0.0245221 0.0311179 -0.0338072 -0.0109375 0.00524952 -0.00801145 0.052429 0.0551529 0.0386167 -0.0212311 -0.0653162 0.00418857 -0.0389946 -0.0622086 -0.0535635 0.021977 -0.0246826 -0.0262055 0.0529329 0.0691305 -0.064614 -0.0432946 -0.0364923 -0.0538762 0.0626227 -0.00172314 0.0160292 -0.0546874 0.0259369 0.0134605 -0.00705196 0.039992 0.0410201 0.0894471 0.0280497 -0.0796158 0.0268731 0.0539387 -0.111517 -0.134797 -0.0479845 -0.0714567 0.017775 -0.125092 0.0803948 -0.137073 -0.0517749 -0.0472466 -0.0364722 -0.0610031 -0.0990391 0.00180146 -0.137397 -0.0188556 -0.0422774 -0.130689 0.0593928 -0.0382604 -0.0308553 -0.0257284 -0.0141788
internal_weight=0 1828.46 1703.4 1289.58 714.357 769.43 624.976 933.968 922.023 622.069 543.013 125.061 571.514 399.141 575.221 511.61 397.639 114.741 339.305 507.329 352.577 132.086 455.587 173.874 147.189 144.454 207.22 154.752 40.4084 390.4 317.63 46.5914 33.2641 114.343 299.953 143.872 17.6976 128.06 90.4672 59.8357 52.3159 79.1597 142.843 62.0948 49.3311 72.7694 56.0226 409.743 394.008 326.158 198.763 67.8501 127.394 49.3526 93.3191 74.9737 44.6647 26.6853 37.5928 87.4211 144.028 131.643
internal_count=13656 8234 7702 5422 3045 3406 2734 4296 4247 2833 2357 532 2460 1707 2377 2119 1724 499 1461 2334 1638 559 1890 736 619 672 902 696 175 1694 1369 204 148 521 1414 650 77 563 400 246 214 339 585 271 200 325 229 1697 1633 1357 825 276 532 200 395 315 186 117 163 373 610 560
is_linear=0
shrinkage=0.1


Tree=5
num_leaves=63
num_cat=0
split_feature=62 575 1107 1218 589 946 191 841 498 424 1088 317 23 934 796 1071 563 139 1087 927 558 644 823 1031 3 1295 970 945 214 843 212 322 616 1108 964 889 560 1163 540 808 226 240 344 453 202 457 47 778 552 863 597 202 557 537 237 1016 400 322 1139 1072 564 1267
split_gain=213.669 106.362 87.4135 86.9414 62.9643 60.4818 53.3161 48.0775 44.6427 42.4628 40.0523 34.9016 34.4674 34.0124 41.7826 33.1491 42.2746 32.9846 34.464 38.9494 32.4077 29.973 38.5861 28.1998 28.9957 29.2618 27.5477 27.2985 35.3855 27.0769 27.022 26.9 25.6674 25.3614 24.579 24.4065 23.6498 23.6201 31.7462 26.2631 22.9104 22.404 22.1273 22.0034 21.5893 21.5563 21.5365 21.4979 21.2359 24.3825 24.2301 21.988 20.9468 20.8257 20.5072 20.2187 20.0156 22.6344 23.7091 19.7913 26.8683 24.6619
threshold=1315.5000000000002 1.0460059014055634 17.40064291165621 1.0000000180025095e-35 0.89582684973851601 5.8098849029904445 7.5058667653743312 0.30711398660379469 -0.091304774698480987 -0.0025662482616346997 13.906011735572418 0.40888633606265451 28.500000000000004 2.7610907302058418 0.63351688182761057 18.555749839060372 1.1221559244572135 1.5440643491124262 5.7117054376828298 1.2111946645482565 1.0266863079102333 3.2353201024974143 3.7242839817931892 0.82401988060010112 1.0000000180025095e-35 7.7441357828525659 0.33607287738809494 27.495819265978 1.6346137467708777 0.12381571410218861 5.7717622159090913 28.748904612552611 0.76556999123342184 35.991409539101419 1.7103085465518277 1.5000000000000002 0.69539778974267419 1.5000000000000002 0.052065165672452708 0.17093046933832581 157.29932290206298 0.11576557074503906 -3.1859026903364723e-05 -0.13485991296792646 5.8039558065752503 0.12955836710003474 402.50000000000006 8.5000000000000018 0.63785005025415709 1.1265547408873859 1.1877844846541261 5.8039558065752503 0.86745402177827047 0.18487566925202467 0.12870541107474154 1.4983548933701669 -4.9661712344053033 13.249440378115942 268.50000000000006 50.060426428880227 0.84013605391436996 0.0094563288278274021
decision_type=2 2 2 2 2 2 2 2 2 2 2 2 2 2 2 2 2 2 2 2 2 2 2 2 2 2 2 2 2 2 2 2 2 2 2 2 2 2 2 2 2 2 2 2 2 2 2 2 2 2 2 2 2 2 2 2 2 2 2 2 2 2
left_child=5 8 4 7 11 10 15 53 12 40 -1 31 47 14 34 46 29 20 19 -19 42 22 54 -7 -25 43 33 36 -29 37 -18 -3 -14 -11 -9 48 -16 -17 -39 -40 -8 -35 52 -26 -38 -42 55 -2 49 -20 51 -50 -12 -4 -10 -6 -15 58 -58 61 -61 -23
right_child=1 2 3 -5 6 23 9 13 21 26 17 -13 32 56 27 16 30 18 35 -21 -22 59 -24 24 25 -27 -28 28 -30 -31 -32 -33 -34 41 -36 -37 44 38 39 -41 45 -43 -44 -45 -46 -47 -48 -49 50 -51 -52 -53 -54 -55 -56 -57 57 -59 -60 60 -62 -63
leaf_value=-0.10229490411815399 -0.18295798073418013 -0.11533399671743483 -0.0048050285191438115 -0.11754396481657939 0.077726663426634326 -0.094118804190766819 -0.15079585675766333 0.054704229056834745 0.069430648262570283 -0.0053762078408364196 -0.00021540858723318184 0.042826633405288729 -0.082362855473753632 0.10143057144958714 -0.099269351904848202 -0.12920035913119332 0.07180247500363604 -0.090411570075094067 -0.11986716673769644 0.052420157657785821 -0.057595111927705167 0.076542601761392132 -0.10078025702234712 -0.16910295217127747 -0.12202247078715107 -0.18108848868965932 0.096198701069145409 0.048205335045221009 -0.14529649652932597 0.098966102959660684 -0.048226295864703263 0.12710315194998459 0.12414451633756191 -0.22607145527306904 -0.058954277663540972 0.1279045969691753 -0.096051428759439561 0.010601751341964862 -0.17035022660092192 0.032564608849386507 -0.06782583195470103 0.026947849077251441 -0.032962016533640913 0.048075492349723643 0.071390667904277491 0.15029196961505725 0.10224492362829551 0.0090414877836417357 -0.066908073092522447 -0.030153480257841016 -0.16870510825278673 0.075344077129006148 0.096944432371518105 -0.12860830942341403 -0.12892876130746964 -0.1419487879371992 0.0059830902066058261 0.064443179153834795 -0.24661977310715272 -0.068656850196424646 0.10076969198836637 -0.011563555766036203
leaf_weight=118.75291872024536 16.3352734297514 104.06496502459049 37.344196483492851 38.365385666489601 8.9827964305877703 22.466985896229744 35.922990664839745 25.36370113492012 59.328108236193657 110.11202132701874 41.322413340210915 18.815459430217743 9.4406260997056979 118.09577272832394 9.120613291859625 27.654567912220955 93.587770387530327 238.40511597692966 39.781935125589371 20.754047706723213 79.542358487844467 99.366763859987259 22.162142410874367 7.4279306381940833 7.973641723394393 6.1896616965532294 23.228230446577072 22.706658378243446 16.187950611114502 14.052665397524832 23.457533970475197 4.7872616797685614 16.605605065822601 10.436350539326666 76.151295602321625 9.8385211825370771 7.9986031502485266 73.172302484512329 21.649753779172901 9.042649105191229 76.698892191052437 5.2651597112417212 46.761447012424469 164.43597987294197 206.49807468056679 4.8154464513063422 64.652044788002968 9.0695790052413923 14.756666213274 127.02492840588093 6.3213014751672736 41.212148413062096 47.922987371683121 21.358470633625984 5.713923752307891 7.8522063195705405 26.833489447832111 154.64747835695744 4.3128866404294959 9.7252317667007429 249.25171768665314 46.701300278306007
leaf_count=482 67 434 163 156 40 94 148 110 280 485 178 84 42 571 40 113 429 972 162 86 328 473 97 30 34 25 103 105 71 62 100 22 81 43 327 44 35 320 92 41 325 23 197 714 976 22 304 40 61 526 26 173 207 88 25 33 125 731 20 44 1216 211
internal_value=0 0.0191896 0.0054805 0.0291698 -0.0190666 -0.0364576 -0.00571253 0.0369162 0.0570927 -0.0392917 -0.0485216 -0.0829337 -0.0315392 0.044542 0.0239239 0.0202916 0.00300249 -0.0395735 -0.0537162 -0.0789733 -0.00689233 0.0663568 0.0131759 0.011707 0.0244879 0.0325393 -0.00385755 0.0449918 -0.0323302 -0.0329738 0.047747 -0.104672 0.0492946 -0.0223304 -0.0305565 -0.0263213 0.0584407 -0.0470714 -0.0252041 -0.110567 -0.0842618 -0.141227 0.0227607 0.0402088 0.0651467 -0.0549406 0.0760113 -0.114414 -0.0329445 -0.0515494 0.0168777 0.0378381 0.0519575 -0.0498498 0.0520048 -0.0247347 0.0692403 0.0487792 -0.0289952 0.0778063 0.0944073 0.048373
internal_weight=0 2046.94 1503.24 764.985 738.251 1040.89 610.583 726.619 543.7 266.479 832.397 127.668 51.4511 667.917 364.027 344.104 262.617 713.644 498.095 259.159 215.549 492.249 87.2042 208.494 186.027 178.599 149.042 262.512 38.8946 145.572 117.045 108.852 26.0462 125.814 101.515 238.936 223.617 131.519 103.865 30.6924 117.437 15.7015 136.007 172.41 214.497 81.5143 81.487 25.4049 229.097 166.807 62.2901 55.9688 89.2454 58.7027 65.042 16.835 303.89 185.794 31.1464 405.045 258.977 146.068
internal_count=13656 9317 6741 3518 3223 4339 2683 3362 2576 1149 3442 540 230 3111 1664 1534 1157 2960 2050 1058 910 2346 402 897 803 773 654 1227 176 628 529 456 123 551 437 992 1051 566 453 133 495 66 582 748 1011 347 377 107 948 688 260 234 385 251 305 73 1447 876 145 1944 1260 684
is_linear=0
shrinkage=0.1


Tree=6
num_leaves=63
num_cat=0
split_feature=278 669 847 924 325 1020 3 363 433 400 1146 1107 1113 625 278 769 1073 977 644 268 664 579 408 3 888 1042 584 70 284 401 825 546 934 1078 500 278 778 334 554 1268 542 1095 1089 514 1059 1262 1107 625 269 601 924 1144 831 479 1087 1042 228 1066 595 592 572 554
split_gain=176.716 84.8619 77.3092 58.2365 56.7109 56.5526 53.0612 51.9982 44.3976 44.057 41.1063 38.1123 40.6786 36.8367 33.4372 31.7033 40.9567 30.9361 30.9346 30.1395 29.2336 28.1345 31.3094 28.0603 28.0105 30.5887 27.7759 28.6211 26.6576 26.4072 26.2193 28.1537 26.155 25.3182 24.8788 24.7268 24.5866 24.2943 24.1151 24.3399 22.6137 21.9582 21.5483 21.3718 21.301 21.2176 21.2157 21.0229 20.8714 26.1242 22.1939 20.8505 23.7395 20.6986 20.3159 19.973 19.8252 19.1619 19.0908 19.3882 22.6281 19.7654
